#ifndef __ARRAY_MODE7_16B_32B_32_32_32_RANDOM_H__
#define __ARRAY_MODE7_16B_32B_32_32_32_RANDOM_H__

#include <stdint.h>

// Pattern type      : random
// Input  bitwidth   : 16
// Weights bitwidth  : 32

#define M_d 32
#define K_d 32
#define N_d 32

#define I_TYPE int16_t
#define W_TYPE int32_t
#define C_TYPE int32_t

const int16_t zp_input   = 0;
const int32_t zp_weights = 0;

int16_t input[1024] = {
    13187, -9232, -10210, 1219, -9967, 5542, 6644, -9632, -975, 7751, 8242, 831, 7711, 5675, -7748, 16354,
    -3910, 14285, 15738, -6813, 1682, 1566, 10549, -8636, -1269, -1495, -7766, 7874, 5659, 5585, 5342, 12796,
    7990, 2445, -8154, -9984, 14875, 14570, -8417, 6974, -7390, 11005, -1072, 14860, 4058, 6347, -6593, 2080,
    9641, -4731, -244, 12609, 16035, -2542, 4894, 6034, 12979, 14909, -14665, 5494, 10046, 5831, 12877, -11954,
    2647, 14344, 917, -8968, 5739, -16229, -15795, -8523, -16239, -3154, 2476, -4201, -13354, 9291, -12033, -12198,
    -9799, 4550, -4909, -10001, 15033, -15798, -189, 10408, 9206, 14873, 16338, -7772, -15617, 13896, 3813, -14459,
    -9446, 8323, 7080, -10821, -4188, -4494, -2963, -8288, -14452, -16371, 7717, -11332, -6999, -11822, -6065, -5523,
    -10923, -15837, -10326, -6678, 10877, -13809, -14298, 9255, 3937, 13526, 15218, -2891, -11113, -1035, 5991, 8448,
    12265, -329, -12578, 7061, 5311, 11889, -960, -5353, 11114, -2029, 9432, -8211, 5488, -5442, -7781, 15249,
    -6071, 12449, 15812, 5187, -11124, 128, 11244, -12996, 8937, 16342, -13953, 8783, -13978, 2664, -1824, -15408,
    -4246, 9750, 9469, 3850, -11379, 4217, 10620, 12148, -3812, -14292, -224, -14689, -13144, 7660, -3970, 1931,
    16363, 10213, -1280, -14354, -12922, 7601, 1428, 10607, -1872, 2520, -13618, 8976, 14570, -5085, -11247, -11494,
    -753, 15384, 2495, -5635, -15932, 14307, 12126, -7450, -15384, -1693, -1205, -257, -5277, 7948, -12513, 1032,
    -6294, 11942, -15576, -7316, -8220, 13275, 13939, 6890, -6743, -5581, -15828, -10027, -2137, -5979, 4696, -14735,
    1339, 14345, -10281, 10083, -3437, -10312, 7616, -11125, 14910, 9744, -13127, 14869, 1741, 7790, -8128, 5895,
    9756, -1065, 14447, -4846, 1806, -6370, -7721, -8184, -5744, 13430, 9688, -2253, 13635, 11712, 9356, -10133,
    830, -7222, 5380, -6031, 5663, -14441, 3468, -10109, -8305, 10706, -13251, -15739, 14637, -14014, -7880, -747,
    -13781, -15104, 4776, 7999, 7815, 9584, -5224, 10257, -8446, -8851, 11367, -7019, -6418, -8777, -8123, 10832,
    9361, 15970, 14014, 7402, 15421, -11662, -2277, 6763, -13649, -1543, 12985, -1103, 12598, 7872, 9664, 976,
    8903, -5461, -1800, -12193, -8614, 8092, -9449, 11699, 8966, -13306, 15413, 5102, 9948, -4578, 4809, -4275,
    -2066, -7198, -11411, -3360, 8989, 11016, -8492, -2462, 3152, 3372, -13123, -2684, -2774, -2219, 740, -10762,
    -6593, 9002, 5924, -8869, -6897, 10329, 6190, -11001, 8176, 7876, -3583, 7313, 7120, 3579, 12923, -14904,
    -8957, 1841, 6098, -2229, 12509, 12590, 3169, -14969, -5272, 7626, 3135, -11641, 5674, 3640, 15149, -3159,
    11856, 7128, -12865, -8538, 15543, 15205, -2439, -10245, -2344, 6268, 43, -1498, 9657, -4192, 15555, -4643,
    -2671, 8542, -14693, -10007, -923, 16257, 10205, -7228, 13219, 3278, -3778, -11730, 6291, -14181, -6836, 3165,
    -280, -805, -2193, -2022, -9842, -8064, -9575, 1214, 1053, 7926, -4845, 2399, -7642, 5543, -13927, 12030,
    10052, -13537, -15800, -4990, 14909, 11036, 3686, 1946, -4850, 6858, -853, -6601, 7379, 6303, 3409, -6779,
    6206, -12813, 12896, -3252, -12717, 14702, 7857, -4829, -1536, -12177, -9001, 6151, -9916, -2760, 8715, -2519,
    -8362, 9494, -11238, -14745, 11561, 12533, -7090, -16376, -7128, 8322, -10685, -2504, -7426, 2392, 5537, -2954,
    969, 3849, 5326, 3147, -3662, -14098, 6249, -5218, -14881, 9539, 12733, 12148, -489, 15197, -1403, 3660,
    -7814, 12467, -4641, 7513, -5989, 14935, -2372, -11456, 5778, 2772, 11242, -8565, -5317, 9497, -12366, -3108,
    -12462, -2685, 13930, 3645, -1280, -7492, 11205, -10567, 8000, -16263, 10570, 9223, 11108, 6867, -7542, -5692,
    985, -5258, -16085, 8212, 5900, 9293, 1636, 5368, -15644, 12368, 13976, -13446, -12780, -13419, -3287, 5685,
    -6416, -9536, -5724, 9782, -4706, -16298, 3065, 16284, -13336, -7935, 15364, -5276, -13981, -3869, 11151, -15209,
    2166, 2300, -16342, -4637, 7325, 10078, 7788, 2789, 2960, 5973, 5692, 1339, -9031, -6029, 7203, -15360,
    -8112, 15953, 12290, -15363, 3673, -15410, 934, -1989, 6089, -12315, -3012, 12378, -7030, -15158, 9641, -14045,
    2554, 7741, 15055, 10799, -15512, -2687, -16129, 1184, 2093, -1867, -9475, 12541, -7451, 10388, -10031, -4706,
    8425, 5701, 5301, 10354, -8217, 3100, 4119, 1864, 4816, 2536, -9765, -11256, -7493, -5943, -13674, -9795,
    12059, 6880, 16266, 15412, -8216, -5276, -12914, -6412, -13894, -5549, 12710, -14962, 989, -15923, 2759, -1932,
    6172, -286, 13594, 2713, -15473, 12441, -2342, 6264, 4386, 8003, -1349, -16365, 15902, 12805, -11610, -10180,
    -10624, 15006, 13442, -16189, 5356, 4433, -12638, -9537, 14771, 5883, 15054, 4522, 3659, 8215, 13602, -6376,
    -12535, 7306, -6970, -10013, -14044, -2222, -12523, 8603, -71, -1706, -4158, 1093, -12220, 3493, 4949, 4514,
    1482, -16029, -478, 9944, 4937, 11762, -15418, -8597, -8953, 7918, -9072, -14451, -9670, -5040, 1153, 5358,
    -3633, 314, -15200, 9696, 1219, -4901, 13626, 579, -3781, 6248, 16183, 10117, 8680, 9015, 10710, -4545,
    8578, -8997, 2446, 7050, 2556, -13650, -13282, 882, 15572, -3529, -117, -5655, -5545, -9257, 2734, 5586,
    1422, -2774, -4012, -12365, -10850, 3351, -14138, -102, -8364, -10960, 13359, 6336, -5387, -8158, -4731, 7091,
    11294, -10640, 6041, -12441, -222, -14567, -12302, 7975, 2030, -11808, 15299, -12824, 5255, 3102, 12379, 9745,
    -13286, -286, -16002, 5267, 6433, -84, 9785, -8561, -2921, 13035, 9753, 2278, -3197, -15032, 5300, 13752,
    7766, -7571, 13158, -14747, 15534, -6374, 1135, 6951, 53, -3004, -4309, 5814, 2593, -12458, 14104, 4074,
    -10147, 13399, 8947, 4234, -12579, -10767, -12597, -6013, 10570, 10979, -12240, -15652, 15383, -6894, -10101, -3761,
    -7514, -16043, -1318, 11807, 1298, -6139, 1275, 711, -11083, -10962, 10682, -7436, -618, 2581, -15908, -8816,
    -14115, 14506, -16286, 750, 9177, 1145, 7667, 10285, 2341, -1179, 748, -14989, 4615, 6450, -1125, -13594,
    -5357, -8582, -10771, -622, -251, -10748, 12453, 8967, 16134, 2709, -2489, 5574, 5504, -2241, -13326, 4681,
    74, -16336, 3841, 9786, 9876, -8722, -5079, -9447, -1997, -4981, -12987, 1691, -1362, 16223, 8613, -2655,
    -12353, -7936, 9050, 10266, 15109, 13398, -9431, 15300, 10871, -10292, -3295, 10689, 1865, 9055, -9535, 2112,
    7853, -989, 14022, 13725, -12093, -4987, 3759, -12774, -9489, -8934, 13982, 2601, 13913, -16193, -2278, 12888,
    -3568, 13638, 6880, 4899, -2061, -9366, 1449, 3170, -8458, -10549, 3691, 249, 7745, -11293, -15689, -13536,
    -10812, 12851, 11087, -12223, -12877, -2901, 9716, 8289, -13141, -6182, -6948, -8495, -1971, 9918, -15165, 9830,
    10646, -16066, -4124, -13293, -15618, 4087, -12079, 8895, 1123, 4929, -7146, -1854, 13294, -2918, -12571, 9956,
    13774, -12886, -15773, -15905, -12826, 9848, 2822, 8211, 6448, -4270, -9009, -2908, 11616, 15897, -2710, 15383,
    -8258, 1733, 3617, -8143, 4195, 4429, -9167, -3075, -7039, 14546, -5492, 5417, -6667, -6380, 10798, 6743,
    -7319, 10155, 13993, 6155, 10530, -6763, -1936, 10857, 14705, -10979, 1367, 14315, 1970, 2757, 8155, 7293,
    6192, -1593, -4789, 440, 14940, 13723, 13119, 8081, 7797, 2009, -986, 15775, -7057, 6818, -5173, -16255,
    -16010, -15701, -16120, 8656, 2019, -9690, 6459, -2209, 2947, -14356, -15139, 6023, 10397, -1440, 4798, -9304
};

int16_t input_unpacked[M_d * K_d] = {
    13187, -9232, -10210, 1219, -9967, 5542, 6644, -9632, -975, 7751, 8242, 831, 7711, 5675, -7748, 16354, -3910, 14285, 15738, -6813, 1682, 1566, 10549, -8636, -1269, -1495, -7766, 7874, 5659, 5585, 5342, 12796,
    7990, 2445, -8154, -9984, 14875, 14570, -8417, 6974, -7390, 11005, -1072, 14860, 4058, 6347, -6593, 2080, 9641, -4731, -244, 12609, 16035, -2542, 4894, 6034, 12979, 14909, -14665, 5494, 10046, 5831, 12877, -11954,
    2647, 14344, 917, -8968, 5739, -16229, -15795, -8523, -16239, -3154, 2476, -4201, -13354, 9291, -12033, -12198, -9799, 4550, -4909, -10001, 15033, -15798, -189, 10408, 9206, 14873, 16338, -7772, -15617, 13896, 3813, -14459,
    -9446, 8323, 7080, -10821, -4188, -4494, -2963, -8288, -14452, -16371, 7717, -11332, -6999, -11822, -6065, -5523, -10923, -15837, -10326, -6678, 10877, -13809, -14298, 9255, 3937, 13526, 15218, -2891, -11113, -1035, 5991, 8448,
    12265, -329, -12578, 7061, 5311, 11889, -960, -5353, 11114, -2029, 9432, -8211, 5488, -5442, -7781, 15249, -6071, 12449, 15812, 5187, -11124, 128, 11244, -12996, 8937, 16342, -13953, 8783, -13978, 2664, -1824, -15408,
    -4246, 9750, 9469, 3850, -11379, 4217, 10620, 12148, -3812, -14292, -224, -14689, -13144, 7660, -3970, 1931, 16363, 10213, -1280, -14354, -12922, 7601, 1428, 10607, -1872, 2520, -13618, 8976, 14570, -5085, -11247, -11494,
    -753, 15384, 2495, -5635, -15932, 14307, 12126, -7450, -15384, -1693, -1205, -257, -5277, 7948, -12513, 1032, -6294, 11942, -15576, -7316, -8220, 13275, 13939, 6890, -6743, -5581, -15828, -10027, -2137, -5979, 4696, -14735,
    1339, 14345, -10281, 10083, -3437, -10312, 7616, -11125, 14910, 9744, -13127, 14869, 1741, 7790, -8128, 5895, 9756, -1065, 14447, -4846, 1806, -6370, -7721, -8184, -5744, 13430, 9688, -2253, 13635, 11712, 9356, -10133,
    830, -7222, 5380, -6031, 5663, -14441, 3468, -10109, -8305, 10706, -13251, -15739, 14637, -14014, -7880, -747, -13781, -15104, 4776, 7999, 7815, 9584, -5224, 10257, -8446, -8851, 11367, -7019, -6418, -8777, -8123, 10832,
    9361, 15970, 14014, 7402, 15421, -11662, -2277, 6763, -13649, -1543, 12985, -1103, 12598, 7872, 9664, 976, 8903, -5461, -1800, -12193, -8614, 8092, -9449, 11699, 8966, -13306, 15413, 5102, 9948, -4578, 4809, -4275,
    -2066, -7198, -11411, -3360, 8989, 11016, -8492, -2462, 3152, 3372, -13123, -2684, -2774, -2219, 740, -10762, -6593, 9002, 5924, -8869, -6897, 10329, 6190, -11001, 8176, 7876, -3583, 7313, 7120, 3579, 12923, -14904,
    -8957, 1841, 6098, -2229, 12509, 12590, 3169, -14969, -5272, 7626, 3135, -11641, 5674, 3640, 15149, -3159, 11856, 7128, -12865, -8538, 15543, 15205, -2439, -10245, -2344, 6268, 43, -1498, 9657, -4192, 15555, -4643,
    -2671, 8542, -14693, -10007, -923, 16257, 10205, -7228, 13219, 3278, -3778, -11730, 6291, -14181, -6836, 3165, -280, -805, -2193, -2022, -9842, -8064, -9575, 1214, 1053, 7926, -4845, 2399, -7642, 5543, -13927, 12030,
    10052, -13537, -15800, -4990, 14909, 11036, 3686, 1946, -4850, 6858, -853, -6601, 7379, 6303, 3409, -6779, 6206, -12813, 12896, -3252, -12717, 14702, 7857, -4829, -1536, -12177, -9001, 6151, -9916, -2760, 8715, -2519,
    -8362, 9494, -11238, -14745, 11561, 12533, -7090, -16376, -7128, 8322, -10685, -2504, -7426, 2392, 5537, -2954, 969, 3849, 5326, 3147, -3662, -14098, 6249, -5218, -14881, 9539, 12733, 12148, -489, 15197, -1403, 3660,
    -7814, 12467, -4641, 7513, -5989, 14935, -2372, -11456, 5778, 2772, 11242, -8565, -5317, 9497, -12366, -3108, -12462, -2685, 13930, 3645, -1280, -7492, 11205, -10567, 8000, -16263, 10570, 9223, 11108, 6867, -7542, -5692,
    985, -5258, -16085, 8212, 5900, 9293, 1636, 5368, -15644, 12368, 13976, -13446, -12780, -13419, -3287, 5685, -6416, -9536, -5724, 9782, -4706, -16298, 3065, 16284, -13336, -7935, 15364, -5276, -13981, -3869, 11151, -15209,
    2166, 2300, -16342, -4637, 7325, 10078, 7788, 2789, 2960, 5973, 5692, 1339, -9031, -6029, 7203, -15360, -8112, 15953, 12290, -15363, 3673, -15410, 934, -1989, 6089, -12315, -3012, 12378, -7030, -15158, 9641, -14045,
    2554, 7741, 15055, 10799, -15512, -2687, -16129, 1184, 2093, -1867, -9475, 12541, -7451, 10388, -10031, -4706, 8425, 5701, 5301, 10354, -8217, 3100, 4119, 1864, 4816, 2536, -9765, -11256, -7493, -5943, -13674, -9795,
    12059, 6880, 16266, 15412, -8216, -5276, -12914, -6412, -13894, -5549, 12710, -14962, 989, -15923, 2759, -1932, 6172, -286, 13594, 2713, -15473, 12441, -2342, 6264, 4386, 8003, -1349, -16365, 15902, 12805, -11610, -10180,
    -10624, 15006, 13442, -16189, 5356, 4433, -12638, -9537, 14771, 5883, 15054, 4522, 3659, 8215, 13602, -6376, -12535, 7306, -6970, -10013, -14044, -2222, -12523, 8603, -71, -1706, -4158, 1093, -12220, 3493, 4949, 4514,
    1482, -16029, -478, 9944, 4937, 11762, -15418, -8597, -8953, 7918, -9072, -14451, -9670, -5040, 1153, 5358, -3633, 314, -15200, 9696, 1219, -4901, 13626, 579, -3781, 6248, 16183, 10117, 8680, 9015, 10710, -4545,
    8578, -8997, 2446, 7050, 2556, -13650, -13282, 882, 15572, -3529, -117, -5655, -5545, -9257, 2734, 5586, 1422, -2774, -4012, -12365, -10850, 3351, -14138, -102, -8364, -10960, 13359, 6336, -5387, -8158, -4731, 7091,
    11294, -10640, 6041, -12441, -222, -14567, -12302, 7975, 2030, -11808, 15299, -12824, 5255, 3102, 12379, 9745, -13286, -286, -16002, 5267, 6433, -84, 9785, -8561, -2921, 13035, 9753, 2278, -3197, -15032, 5300, 13752,
    7766, -7571, 13158, -14747, 15534, -6374, 1135, 6951, 53, -3004, -4309, 5814, 2593, -12458, 14104, 4074, -10147, 13399, 8947, 4234, -12579, -10767, -12597, -6013, 10570, 10979, -12240, -15652, 15383, -6894, -10101, -3761,
    -7514, -16043, -1318, 11807, 1298, -6139, 1275, 711, -11083, -10962, 10682, -7436, -618, 2581, -15908, -8816, -14115, 14506, -16286, 750, 9177, 1145, 7667, 10285, 2341, -1179, 748, -14989, 4615, 6450, -1125, -13594,
    -5357, -8582, -10771, -622, -251, -10748, 12453, 8967, 16134, 2709, -2489, 5574, 5504, -2241, -13326, 4681, 74, -16336, 3841, 9786, 9876, -8722, -5079, -9447, -1997, -4981, -12987, 1691, -1362, 16223, 8613, -2655,
    -12353, -7936, 9050, 10266, 15109, 13398, -9431, 15300, 10871, -10292, -3295, 10689, 1865, 9055, -9535, 2112, 7853, -989, 14022, 13725, -12093, -4987, 3759, -12774, -9489, -8934, 13982, 2601, 13913, -16193, -2278, 12888,
    -3568, 13638, 6880, 4899, -2061, -9366, 1449, 3170, -8458, -10549, 3691, 249, 7745, -11293, -15689, -13536, -10812, 12851, 11087, -12223, -12877, -2901, 9716, 8289, -13141, -6182, -6948, -8495, -1971, 9918, -15165, 9830,
    10646, -16066, -4124, -13293, -15618, 4087, -12079, 8895, 1123, 4929, -7146, -1854, 13294, -2918, -12571, 9956, 13774, -12886, -15773, -15905, -12826, 9848, 2822, 8211, 6448, -4270, -9009, -2908, 11616, 15897, -2710, 15383,
    -8258, 1733, 3617, -8143, 4195, 4429, -9167, -3075, -7039, 14546, -5492, 5417, -6667, -6380, 10798, 6743, -7319, 10155, 13993, 6155, 10530, -6763, -1936, 10857, 14705, -10979, 1367, 14315, 1970, 2757, 8155, 7293,
    6192, -1593, -4789, 440, 14940, 13723, 13119, 8081, 7797, 2009, -986, 15775, -7057, 6818, -5173, -16255, -16010, -15701, -16120, 8656, 2019, -9690, 6459, -2209, 2947, -14356, -15139, 6023, 10397, -1440, 4798, -9304
};

int32_t weights[1024] = {
    -8419, -8888, 3433, 8938, -14377, 8538, 1777, 5372, -14161, -14943, -2700, -2023, -15032, -7787, 11542, -14360,
    6710, -9771, 4242, 4422, 4943, -6039, 4765, 11637, -6554, 6997, 5084, -8789, -9125, 12208, 7634, -14465,
    -6097, -4436, 1568, 2101, -15406, 2451, 6329, -13431, -3075, 7224, 5042, 14685, 2146, 7262, 7007, 3198,
    8904, -7262, 5551, -4802, -11247, -15418, -1819, -7479, 4112, 2909, -3070, 632, -6572, -12350, -10117, -5071,
    6962, 1682, 3646, 829, -5309, -11886, -11014, 10843, -10537, 11698, -11362, 11741, -11294, 4545, -8231, 8613,
    14187, 9507, -5280, -78, 9829, -10976, -6113, -3554, 12542, 5967, -2531, 7875, -1925, -12732, -5004, -12572,
    9230, -5393, 10560, 15823, -3880, -11791, 7943, -14952, -6864, -9755, -2199, 8043, -1930, 14491, 14575, -15250,
    14984, -13888, -11729, 8372, -5117, -2137, 1225, -11530, 4710, 10403, -13331, -12531, 158, -1374, -2815, -8874,
    9858, 11581, 15870, -1844, 5601, 14514, 12858, 5695, 12795, -11934, -7054, -612, 4636, 10960, -7633, -11800,
    -298, 9267, 15479, 16346, 2378, -7622, 10642, -10391, -8185, 4847, 14234, -12901, 10712, 9556, -11374, -10491,
    -7315, 2347, 11427, -15476, 11825, -10057, 9548, 6416, -13314, 3574, 5310, -11754, 13147, -10154, 12305, 7679,
    -3650, 16346, 2350, -7748, 16281, 9602, 6830, -14535, -13708, -936, 11053, 13903, -9771, 3196, 10316, -4934,
    -10784, 7189, 13459, 2281, 2871, 161, -11300, 10242, 14944, 9167, 4728, -1913, 14156, 5536, 3974, 2902,
    -13737, -5315, -9888, -10485, 2691, 1748, 5828, -5778, -11625, 8640, 4664, 11291, 4797, 5236, 7278, -7810,
    -8220, -414, -7572, 14279, -11509, -2271, 2549, -6898, -6010, 9589, 3450, 15051, 7040, 2529, 5202, 3662,
    2784, 2651, -5310, 3541, 7465, 9003, -4096, -2437, -291, 382, 7441, -12438, 6320, 416, 13257, 11631,
    -2874, -13604, 6605, 13353, -15190, -11848, 5102, -1505, 192, 2536, -1410, 15711, -7010, 5898, -11057, 3107,
    470, 4580, 7846, -4490, 12218, 15371, -16086, 14601, -7794, -7220, -5453, -14536, 4898, -9259, 4319, -14705,
    12988, 11817, 6937, -4702, -8495, 12996, 5985, 53, -8823, -14406, 5650, 12294, 8892, -9111, 376, 7274,
    -8140, -15264, 3277, -15645, 13464, -5182, 7055, 1508, 6415, 10496, 13151, 14935, -3799, -14733, -7798, -10107,
    2082, 3390, 2754, 404, 12104, -1342, 11492, 12095, 291, 9911, -8005, -1552, 5576, -9205, -1098, -15403,
    6848, -4956, -10598, 9107, 1888, -13733, -13605, 9385, 10916, -10197, 10784, 13245, -10484, -12347, -10113, -5844,
    -9661, -5940, 9921, 16306, 9563, -4614, -11394, 7993, -8426, -5103, 13741, -1342, -10367, 4635, -5622, 357,
    4949, -8995, 3680, -10915, -9356, 14539, 8748, 3337, 9752, -1548, 5919, -2371, 14452, 13443, 3, -8670,
    5295, -9132, -14521, 6901, -15334, -4728, -12987, 2440, -3700, -8954, 8053, 14020, 14168, 10652, 7639, 10486,
    -5302, -15002, 15853, -15700, -2089, -14054, 10317, -5105, -14528, -5735, -16375, 11502, -3413, 11214, 15034, 10970,
    -7664, -557, -7017, 1930, 3127, -2084, 1534, -4280, -4730, -13602, 11469, 9879, 7632, 2625, 15747, 1488,
    -15663, 946, 15422, -11100, -6158, 10773, -14171, 5767, -3755, -1757, -6669, -4764, -6644, -14031, 161, 11888,
    -3689, 4049, 15242, 8684, -11741, 11880, -11930, -4869, 10697, -3077, 14515, 13610, -7485, -12846, -77, -1717,
    -11315, 4713, -5361, -11806, 174, -5380, 5105, -7733, 13322, 14643, 4761, -16347, 12857, -9797, -4040, 15854,
    12166, -6791, 10052, -9694, 2474, 10435, 15513, 9050, -3034, -3560, -5627, -2073, 1645, -5714, 1967, 10892,
    5451, -11129, 7809, 525, -5342, -5315, 59, -14984, 6667, 12863, -8375, -4559, 10495, 864, 2497, -5511,
    10552, -10539, -5313, 460, -5421, -1121, 1328, 7898, -10747, 9684, 7333, 4700, -14181, -13773, -10755, -8214,
    13209, -10544, -10057, -14690, -3559, 7243, -39, -5552, 11719, 552, 8944, -287, 7123, -2162, 5495, 14038,
    -10715, 1212, -8785, -11857, 967, -13412, 1851, -623, 9807, -12705, 2496, 3366, 12473, 135, 13687, 11330,
    3810, 4894, -5362, 13381, -13898, 5239, 12366, 10484, -13589, 2005, -13969, -759, -9709, 9956, -156, 11879,
    -1204, 1447, 4225, 12949, 976, 896, -2969, 6922, 557, -6630, -10651, 10436, 3210, -14321, 6897, 4938,
    -5753, 11376, -11677, -10820, 16069, -11147, -15493, -16373, 8149, -3744, 2945, -5513, -1003, 13164, 12931, 13295,
    -2666, 5324, -14133, 4240, 9450, 12435, 4152, 5213, -9370, -11619, -2693, -10110, -8211, -5782, -11127, 10909,
    -2172, 12731, -7225, 7859, -12997, 9246, 8629, -13288, 11498, 3599, 16032, 2958, 4855, -6963, -14504, 16125,
    -13874, -15893, 5969, -5514, -7209, 9096, -14988, -5804, -5722, -13832, -15393, 4966, -4773, -2642, -4875, -7357,
    -14904, -12432, 14770, 14616, 8149, 6374, 7614, 14215, -8108, 14267, -11322, -7824, 13887, -13764, -13075, 13431,
    -10794, 4327, 11573, -6909, 12984, -4201, -2998, -363, 10575, 3673, -15482, -14043, -9075, -8736, 12711, -12069,
    -15142, 12371, 9398, -1120, 3809, 8239, -5881, 6911, -8447, -10110, 8034, 2649, 1873, -11993, -5985, -8102,
    -3776, 7554, 10718, -6250, 8751, 7347, -13504, -8767, 11583, 11165, -9898, 5962, 11142, 8814, 9539, 12140,
    -10531, 1810, 2074, -7938, 9818, -1130, -10549, -15578, -4890, -1789, 8319, -3238, 3854, -14809, 10815, -13222,
    11510, 4649, -2451, -14586, 8046, -3584, -6762, -6206, -5799, -16064, 1424, -13947, 13879, 10716, 3637, 7780,
    7568, -7627, 3164, 7078, 14054, -11808, -10896, 7511, -14421, -12375, -13848, 3039, 5725, 16308, -9351, 14427,
    15595, -13732, -6428, 3081, -12484, -784, -12741, -14699, 15746, 6697, 7416, 187, -1910, 4139, 14705, -11932,
    2402, -10057, -12873, 6987, -13135, 13974, -9032, -4720, -10755, 15858, -13433, -9206, 8287, -10223, 14660, 7484,
    11789, -7950, -8383, 14886, 14472, -14839, 13940, 2229, 13158, 9909, -6767, 7901, 13543, 15064, -15529, -8887,
    -6862, 3805, -13145, -12119, -6986, -11616, -3259, 7867, 16254, 6403, -8501, 9011, 15668, 12223, 15394, -10263,
    11009, 7050, 12132, 10204, 824, -8421, 16019, -351, 4038, -5904, 9361, -13163, -13109, 11806, 7903, 8263,
    6724, -16030, 6435, -3258, -14945, 10417, -5962, 15026, -7049, -8351, -15176, 14809, -4579, -1064, -15514, -14761,
    -15949, -15903, -10492, -13238, -10098, 1682, 14613, 16166, 8305, 10835, -8286, 15273, -10744, 14102, -6219, 12963,
    -5981, 10266, 2497, 3756, 11156, 6327, 7243, 14612, 4860, 4823, -3609, -13566, -5908, 1047, -12676, 9535,
    9656, -12678, 5525, -13829, -13699, 11438, 908, -13458, 6921, -11344, -10317, 549, 2833, 2143, -6766, 9368,
    -6935, 7366, 13069, -13944, -9647, 2005, -9210, 6149, 7375, 16031, -12187, 9757, 16149, 13099, -12645, -5634,
    -3120, 716, -8657, -14595, 9085, 9835, -15335, 3051, 3194, 6480, -1597, 16304, 14394, 10382, -639, -9004,
    -9299, -13496, 15328, -5266, -9066, 5786, -5670, -15096, 845, 9854, -13798, 3242, 15149, 10828, -10557, -5194,
    -1421, -5773, -5880, -12519, 633, -11239, 5008, -6845, -1596, -5670, 1071, -2813, 6236, -1224, 6092, 14515,
    -6553, 13636, 6483, -13362, 2769, -10724, 12776, 1631, 6384, -7217, -13381, -5405, 8926, 16305, -13384, 15034,
    15825, -13545, 6148, 5304, 4569, 14874, -2370, -9954, -14921, 2556, -11264, -1573, -10316, -10780, -5238, 8854,
    -2136, 11849, 12961, 11914, -4915, 61, -14081, -7046, 8550, -3933, -15025, -2294, 13996, 1953, -6754, 5836
};

int32_t weights_unpacked[N_d * K_d] = {
    -8419, -8888, 3433, 8938, -14377, 8538, 1777, 5372, -14161, -14943, -2700, -2023, -15032, -7787, 11542, -14360, 6710, -9771, 4242, 4422, 4943, -6039, 4765, 11637, -6554, 6997, 5084, -8789, -9125, 12208, 7634, -14465,
    -6097, -4436, 1568, 2101, -15406, 2451, 6329, -13431, -3075, 7224, 5042, 14685, 2146, 7262, 7007, 3198, 8904, -7262, 5551, -4802, -11247, -15418, -1819, -7479, 4112, 2909, -3070, 632, -6572, -12350, -10117, -5071,
    6962, 1682, 3646, 829, -5309, -11886, -11014, 10843, -10537, 11698, -11362, 11741, -11294, 4545, -8231, 8613, 14187, 9507, -5280, -78, 9829, -10976, -6113, -3554, 12542, 5967, -2531, 7875, -1925, -12732, -5004, -12572,
    9230, -5393, 10560, 15823, -3880, -11791, 7943, -14952, -6864, -9755, -2199, 8043, -1930, 14491, 14575, -15250, 14984, -13888, -11729, 8372, -5117, -2137, 1225, -11530, 4710, 10403, -13331, -12531, 158, -1374, -2815, -8874,
    9858, 11581, 15870, -1844, 5601, 14514, 12858, 5695, 12795, -11934, -7054, -612, 4636, 10960, -7633, -11800, -298, 9267, 15479, 16346, 2378, -7622, 10642, -10391, -8185, 4847, 14234, -12901, 10712, 9556, -11374, -10491,
    -7315, 2347, 11427, -15476, 11825, -10057, 9548, 6416, -13314, 3574, 5310, -11754, 13147, -10154, 12305, 7679, -3650, 16346, 2350, -7748, 16281, 9602, 6830, -14535, -13708, -936, 11053, 13903, -9771, 3196, 10316, -4934,
    -10784, 7189, 13459, 2281, 2871, 161, -11300, 10242, 14944, 9167, 4728, -1913, 14156, 5536, 3974, 2902, -13737, -5315, -9888, -10485, 2691, 1748, 5828, -5778, -11625, 8640, 4664, 11291, 4797, 5236, 7278, -7810,
    -8220, -414, -7572, 14279, -11509, -2271, 2549, -6898, -6010, 9589, 3450, 15051, 7040, 2529, 5202, 3662, 2784, 2651, -5310, 3541, 7465, 9003, -4096, -2437, -291, 382, 7441, -12438, 6320, 416, 13257, 11631,
    -2874, -13604, 6605, 13353, -15190, -11848, 5102, -1505, 192, 2536, -1410, 15711, -7010, 5898, -11057, 3107, 470, 4580, 7846, -4490, 12218, 15371, -16086, 14601, -7794, -7220, -5453, -14536, 4898, -9259, 4319, -14705,
    12988, 11817, 6937, -4702, -8495, 12996, 5985, 53, -8823, -14406, 5650, 12294, 8892, -9111, 376, 7274, -8140, -15264, 3277, -15645, 13464, -5182, 7055, 1508, 6415, 10496, 13151, 14935, -3799, -14733, -7798, -10107,
    2082, 3390, 2754, 404, 12104, -1342, 11492, 12095, 291, 9911, -8005, -1552, 5576, -9205, -1098, -15403, 6848, -4956, -10598, 9107, 1888, -13733, -13605, 9385, 10916, -10197, 10784, 13245, -10484, -12347, -10113, -5844,
    -9661, -5940, 9921, 16306, 9563, -4614, -11394, 7993, -8426, -5103, 13741, -1342, -10367, 4635, -5622, 357, 4949, -8995, 3680, -10915, -9356, 14539, 8748, 3337, 9752, -1548, 5919, -2371, 14452, 13443, 3, -8670,
    5295, -9132, -14521, 6901, -15334, -4728, -12987, 2440, -3700, -8954, 8053, 14020, 14168, 10652, 7639, 10486, -5302, -15002, 15853, -15700, -2089, -14054, 10317, -5105, -14528, -5735, -16375, 11502, -3413, 11214, 15034, 10970,
    -7664, -557, -7017, 1930, 3127, -2084, 1534, -4280, -4730, -13602, 11469, 9879, 7632, 2625, 15747, 1488, -15663, 946, 15422, -11100, -6158, 10773, -14171, 5767, -3755, -1757, -6669, -4764, -6644, -14031, 161, 11888,
    -3689, 4049, 15242, 8684, -11741, 11880, -11930, -4869, 10697, -3077, 14515, 13610, -7485, -12846, -77, -1717, -11315, 4713, -5361, -11806, 174, -5380, 5105, -7733, 13322, 14643, 4761, -16347, 12857, -9797, -4040, 15854,
    12166, -6791, 10052, -9694, 2474, 10435, 15513, 9050, -3034, -3560, -5627, -2073, 1645, -5714, 1967, 10892, 5451, -11129, 7809, 525, -5342, -5315, 59, -14984, 6667, 12863, -8375, -4559, 10495, 864, 2497, -5511,
    10552, -10539, -5313, 460, -5421, -1121, 1328, 7898, -10747, 9684, 7333, 4700, -14181, -13773, -10755, -8214, 13209, -10544, -10057, -14690, -3559, 7243, -39, -5552, 11719, 552, 8944, -287, 7123, -2162, 5495, 14038,
    -10715, 1212, -8785, -11857, 967, -13412, 1851, -623, 9807, -12705, 2496, 3366, 12473, 135, 13687, 11330, 3810, 4894, -5362, 13381, -13898, 5239, 12366, 10484, -13589, 2005, -13969, -759, -9709, 9956, -156, 11879,
    -1204, 1447, 4225, 12949, 976, 896, -2969, 6922, 557, -6630, -10651, 10436, 3210, -14321, 6897, 4938, -5753, 11376, -11677, -10820, 16069, -11147, -15493, -16373, 8149, -3744, 2945, -5513, -1003, 13164, 12931, 13295,
    -2666, 5324, -14133, 4240, 9450, 12435, 4152, 5213, -9370, -11619, -2693, -10110, -8211, -5782, -11127, 10909, -2172, 12731, -7225, 7859, -12997, 9246, 8629, -13288, 11498, 3599, 16032, 2958, 4855, -6963, -14504, 16125,
    -13874, -15893, 5969, -5514, -7209, 9096, -14988, -5804, -5722, -13832, -15393, 4966, -4773, -2642, -4875, -7357, -14904, -12432, 14770, 14616, 8149, 6374, 7614, 14215, -8108, 14267, -11322, -7824, 13887, -13764, -13075, 13431,
    -10794, 4327, 11573, -6909, 12984, -4201, -2998, -363, 10575, 3673, -15482, -14043, -9075, -8736, 12711, -12069, -15142, 12371, 9398, -1120, 3809, 8239, -5881, 6911, -8447, -10110, 8034, 2649, 1873, -11993, -5985, -8102,
    -3776, 7554, 10718, -6250, 8751, 7347, -13504, -8767, 11583, 11165, -9898, 5962, 11142, 8814, 9539, 12140, -10531, 1810, 2074, -7938, 9818, -1130, -10549, -15578, -4890, -1789, 8319, -3238, 3854, -14809, 10815, -13222,
    11510, 4649, -2451, -14586, 8046, -3584, -6762, -6206, -5799, -16064, 1424, -13947, 13879, 10716, 3637, 7780, 7568, -7627, 3164, 7078, 14054, -11808, -10896, 7511, -14421, -12375, -13848, 3039, 5725, 16308, -9351, 14427,
    15595, -13732, -6428, 3081, -12484, -784, -12741, -14699, 15746, 6697, 7416, 187, -1910, 4139, 14705, -11932, 2402, -10057, -12873, 6987, -13135, 13974, -9032, -4720, -10755, 15858, -13433, -9206, 8287, -10223, 14660, 7484,
    11789, -7950, -8383, 14886, 14472, -14839, 13940, 2229, 13158, 9909, -6767, 7901, 13543, 15064, -15529, -8887, -6862, 3805, -13145, -12119, -6986, -11616, -3259, 7867, 16254, 6403, -8501, 9011, 15668, 12223, 15394, -10263,
    11009, 7050, 12132, 10204, 824, -8421, 16019, -351, 4038, -5904, 9361, -13163, -13109, 11806, 7903, 8263, 6724, -16030, 6435, -3258, -14945, 10417, -5962, 15026, -7049, -8351, -15176, 14809, -4579, -1064, -15514, -14761,
    -15949, -15903, -10492, -13238, -10098, 1682, 14613, 16166, 8305, 10835, -8286, 15273, -10744, 14102, -6219, 12963, -5981, 10266, 2497, 3756, 11156, 6327, 7243, 14612, 4860, 4823, -3609, -13566, -5908, 1047, -12676, 9535,
    9656, -12678, 5525, -13829, -13699, 11438, 908, -13458, 6921, -11344, -10317, 549, 2833, 2143, -6766, 9368, -6935, 7366, 13069, -13944, -9647, 2005, -9210, 6149, 7375, 16031, -12187, 9757, 16149, 13099, -12645, -5634,
    -3120, 716, -8657, -14595, 9085, 9835, -15335, 3051, 3194, 6480, -1597, 16304, 14394, 10382, -639, -9004, -9299, -13496, 15328, -5266, -9066, 5786, -5670, -15096, 845, 9854, -13798, 3242, 15149, 10828, -10557, -5194,
    -1421, -5773, -5880, -12519, 633, -11239, 5008, -6845, -1596, -5670, 1071, -2813, 6236, -1224, 6092, 14515, -6553, 13636, 6483, -13362, 2769, -10724, 12776, 1631, 6384, -7217, -13381, -5405, 8926, 16305, -13384, 15034,
    15825, -13545, 6148, 5304, 4569, 14874, -2370, -9954, -14921, 2556, -11264, -1573, -10316, -10780, -5238, 8854, -2136, 11849, 12961, 11914, -4915, 61, -14081, -7046, 8550, -3933, -15025, -2294, 13996, 1953, -6754, 5836
};

int32_t bias[N_d] = {
    0, 0, 0, 0, 0, 0, 0, 0, 0, 0, 0, 0, 0, 0, 0, 0,
    0, 0, 0, 0, 0, 0, 0, 0, 0, 0, 0, 0, 0, 0, 0, 0
};

int32_t golden[M_d * N_d] = {
    -931926816, 232191426, -239574143, -672342232, -115673005, 297551884, -231462984, 410584198, 33450155, 32941662, -1247520263, -324820340, 1420905365, 223767287, 72969242, 288394784,
    125422643, 121388879, -9496868, 291991092, -270215398, -933193066, -90962842, 293854133, 104020562, 396155077, -301088204, 453649645, 999801486, 255903072, 1153883912, 806244668,
    -75602617, -302767343, 937009046, 22097667, 140292664, -310206311, 72503262, 10843736, -237122288, 303865934, 107096236, 46479589, 86662483, -836370216, -428925415, 687596692,
    75814814, -331810093, -173374451, -429654571, 222875172, -940245790, 276789624, 276604050, -21430796, 1008159081, -751174689, 332883034, 194685859, 1168053942, -361993231, 430552091,
    782040204, -428129075, 859984813, 34088016, 113942577, 301648529, 62723652, -406936551, -128986906, 486445363, 128562703, 363859656, -549511485, -568655537, 17961658, -834018390,
    -65724272, -816235316, 196593168, -465915897, -447090398, 121680318, 22448043, 81404898, -1024779216, 419646373, -649060495, -320063546, -286070507, -413461095, -53900115, -844100416,
    931908072, -178032620, -219101626, -198543908, -654159120, 277838700, -41378645, -158995743, -429000851, 1087242502, 389664802, -146539605, -420700827, 278526703, 683732492, -262278954,
    401375667, -449952167, 538003321, -14164917, 490747577, 41638547, -251038403, 392394401, -433197571, -826283757, -488179860, -659727202, -260096822, -863600918, -282490983, -671512711,
    -519653582, 186089182, -82943750, -334761312, 440347943, 37177058, -3187403, -741136095, -783709486, 327905395, -662480367, -191392204, 424734034, -59104515, -64783135, 650059008,
    -715317745, 266398382, -507669229, 724896373, -579013690, -570627191, -20384125, -473546486, -779106, 354900565, 333464476, -302606994, 982254761, 537960123, 236199167, 677548876,
    390701186, 58481596, 399665209, 220200214, 305856547, -295277197, -148049194, -779356483, 450872707, 143718609, -197459287, 842267439, -573659006, -204974200, -150053784, 377143352,
    31504982, -65739929, -863642637, 458043067, -67058263, 179183795, -868060385, -95746699, -461008459, -34774291, 1827279696, 17021913, 1031792296, -430840555, 64233399, 109475847,
    242410170, 103168320, -58103691, 182895454, 91852177, -74529395, -198323116, 60325853, 644675215, 253294759, -735558461, -94719584, -450270408, -96973157, -3028924, -105697334,
    -190430336, 76935252, -741579954, 204703073, -39213035, -230612635, -200744910, -606966931, -89452358, -196233703, 466878618, 405005657, 320646443, -475357327, -73983496, -38671508,
    -317162085, 415456851, 442028499, 301569205, 831442287, -458786000, 288123214, 699900751, 658494108, -117121001, -462576759, -118730729, 391484671, -473350584, -128088586, 206530012,
    -243065431, -368517581, 339595527, -599672234, -733735678, -412222601, 804961075, -330405036, 112921087, 1351241344, -259749112, -41029385, 505433109, 655208290, -194700876, -237266831,
    -365381265, -514973903, -602105987, -573236527, -360620798, 644431166, -231800390, 19980277, 293100040, -51791947, 735460708, -564636150, -720801950, 253470495, -745574530, -328386142,
    -61066213, -32714219, -400340341, -91406323, 1002683720, 1023048480, 112927111, 600890447, -245044573, -656087480, -107768027, -33699221, -481878038, -470824231, 13289260, 165720019,
    -480354484, -239107631, 122644350, 186155861, -291473166, 567170034, 388394880, 84412718, 45968020, 551299022, 726741580, 1191139029, -246985492, 484684948, -339468563, -213311404,
    340404988, -452740491, -81857265, -166947175, -1394308185, 165281090, 332771264, 323058758, -507609252, 566508971, 1093631202, -1486597905, -708425870, -228070232, -396778156, -509596641,
    -12715231, -388074101, -75232908, -299721719, 49781149, 197186762, 327355628, -294651076, -364732806, -302965061, -452281990, 343321260, -95850225, -196994588, -116477145, 272319249,
    81298507, -483857431, 13741128, 261367321, 43609594, 528447269, 560777967, -983555404, 367397069, 794371799, -725130416, -306624300, 741758708, 1080267673, -204288116, 418493675,
    -113752384, -281410096, -325941884, 398813618, -213340331, 1302242145, 583257300, 601829924, -148870828, -191428875, -335977241, 96774387, -857762009, -61208794, 45015938, 120209988,
    10920214, -394894686, 349054986, -140713849, -536291086, 421693990, 1126781106, -78489245, 651850086, -146167459, -469621898, -755009035, -378512143, -99784756, -372984520, -104394797,
    -556472083, 164219532, -692565663, -854268257, 13491930, -451398804, -289614855, -478891051, -1149368432, 46383981, 418047133, -1109084839, -418367597, -23706170, 78655229, 253321576,
    -115607849, 459548353, -35492361, 758948728, -124427841, -106404392, -388958373, 429782095, -87353093, -168524759, -100965276, 214145244, 823211516, 309551867, 466933515, 233879496,
    -186161224, -27582756, -719227541, -22013835, -415497152, 179679501, -358883332, -380838715, -471461547, -347831589, 46498270, 136265160, 788732151, 380917125, -1456441826, 396082412,
    320551778, 153176262, -1002897089, -12966989, -334115163, -168759229, -176582600, 130935476, 485505418, 184900310, 572807161, -326193370, -211357959, 837694984, -254489358, 199197768,
    155765741, 37775250, -293836365, -639299746, 508194785, 538552775, 169766788, -299980952, -1514945661, -172057895, -171470750, -520756452, 61230201, -498592904, -513172392, -200361012,
    -486019747, 223795996, -216859299, 445063037, 98049958, 371983165, 374003629, 528186464, -440360290, -569288511, -789049910, -314247682, 183305564, 677974711, 220528650, 44124674,
    -273487059, 225941906, -554247978, -663276866, 999024174, -491331013, 241736713, -215674944, -565472131, 260823968, -285278241, 543691439, 131901893, -420628955, 403007525, -365825243,
    -355403970, -883768018, -523759369, 665879394, -133104410, 79250657, 172575467, -131933294, -880523650, -113147663, 91864113, -436352783, 172798222, 487565330, 106238891, 110948805,
    1176292389, -153996419, -182855356, -775889788, -623779407, 82578042, -284973303, -100910220, -127268834, 28000294, 761969466, 81369554, -165165348, -386772931, -773352375, -378778993,
    311763683, -406338893, -565548621, 152118377, -621423739, -34538114, -504629094, -427685982, -388931705, -445621141, 151684655, -307498795, -1509547304, -1311582263, -900729089, -249403118,
    -17415727, 262247117, 236380033, -851327506, -203937404, 502960539, -246585330, -565508516, -242752835, 489232038, 761394309, -654432327, 130566605, 421581790, -209043858, -213963257,
    -15839815, -845469183, 94398176, -230935363, -977632634, 842827975, 403462026, -791538715, -645501534, 458222408, -208014206, -216576579, -274794412, -41496144, -24374639, -88724531,
    336722148, 598577358, 1075420110, 1016994342, 710180356, -1373312222, -358595110, -104543329, 927937313, -223543716, -202275257, 306801158, -361038352, -357876883, 544523921, -232816826,
    -389085172, -152186570, -502849066, -247549961, 772308464, -136702740, -116073344, -603938463, 192652203, -410846023, 442369126, 352779598, 258860586, 113854256, -573176278, 361272109,
    748994419, -180846160, -328821438, 787577200, 497891255, -480759458, -359697102, -90822882, 348504566, -96168221, -775661061, 1467807293, -513760483, -12797702, 728871734, 368843135,
    213805398, -317793200, -498103452, 73740517, 359900446, -43176249, -770970081, 108153622, 466693938, -665126833, 984343319, -1440126009, 767408072, 48120763, 53014470, 1049201670,
    -633102088, 211328487, -666979453, -438436765, -443388377, 185192204, 980043713, -219707780, -543219273, -287919868, -68777496, -270765800, -21450103, 907018791, 655721861, -787874462,
    -786423901, 689081791, 41872981, -859831231, -570908069, 708974840, 945947596, 114710644, 541374825, -105261281, 144748451, -334371627, 140800842, 582934068, 77650529, -812262607,
    654705458, -579667335, 55770897, -211931425, -181583863, 185867815, 423741859, 61576290, -703626374, -302742743, -174056546, 507509882, -282992996, -1273144734, -42390586, -103910911,
    305857991, -518789869, 143668201, 626060497, 263826962, 63779269, 111592847, -338772872, 294807029, 102051894, -767292522, -620372443, -143614447, -597641291, -444401594, 528948456,
    -518482876, -150064475, -6533892, -403607018, -835260158, -75413364, 201428393, -281094986, 199300105, -214458548, 339082036, 178424002, 103642673, 368222941, 119142588, -535119682,
    468670459, -42302148, 307898412, 66247814, -516648490, 662765305, 250948285, -9657586, 578761892, -195048661, 616787464, -725177242, -139657752, -563429965, -248168932, -141184386,
    -483572600, -481063748, -118226147, -23572622, -439990409, 1056979623, 725951895, -135544187, -865785955, 490204113, -427433673, -303232254, 358582284, 269785934, 599732620, 68086964,
    69164715, 656143800, 98645856, 402964562, 217688425, -76621030, 301093038, 383707883, 905340624, -641339350, -491699030, -256768829, -520284672, -607678042, 220438985, -739141604,
    -550639618, 128949361, 338420659, 311839102, 619799752, 41394255, -339720974, -590125904, -152673662, -196317354, 120093886, -274168236, -772982141, 534924824, 730242618, 1261838289,
    -405590487, 117856093, 409659208, 47919640, 551585091, 707113032, 517664870, 51469545, 144489195, 214234851, -253127792, 72871161, 1038068594, 860709693, 852643197, 1375949484,
    710074200, -691502506, -155255884, 215827291, 137392067, -24216054, -81479634, 178225633, 900705893, -471626797, -266863301, 889577713, -615429515, -238101641, 204467831, -645232193,
    -26272864, -254080198, 82115672, 221483620, 317596446, -61468095, -763532693, -342313004, -426177025, 823388100, -461485133, 435373459, -193283878, -791932308, 268942251, -102346300,
    -99821461, -105093743, -109400740, -26584852, 25430228, -204944697, 150072289, 75303403, 303935898, -582313008, 131928117, -331335765, 918817685, -488077229, -877497467, 454639394,
    -122247587, 410743986, 410459052, -802263362, -296280420, -721309216, -242398940, 498612851, -141215717, 1082565724, -105196292, 615576042, -122648242, 497894041, 210760681, -259372083,
    -450261120, 74027395, -156047031, -391910547, 1287040688, -522168809, 268739609, -25478545, -198883238, -344593994, 118191878, 564352469, 106186797, 109225682, 502589010, 221448905,
    -175162437, -128573354, -81628670, 1038189115, 951964092, 237663466, 536581080, -210433522, -313548503, -477107630, -481499877, 16729187, -503835637, 567788731, -653912288, 348683343,
    52049853, -310296316, -725193491, -489803044, 629420843, 91674635, -117550846, -390745989, 16681340, -82997992, -340879302, 336224581, 339902868, 554903009, 407939566, -560702051,
    -254224730, 524881612, -76257719, 225360123, 428791912, 305309909, -1053669324, 314817999, -1044431012, -170907956, 152161837, -188746512, 248045892, 59410408, 969578564, -66425412,
    -506028303, -205762973, -56534729, -359327411, -1046559974, -908372386, 16077502, 65720746, -141743973, -323070458, -546665774, 454152242, 910829842, -608050854, 67740082, 469663841,
    1335640964, 465475115, -6607786, 20641786, 176010413, -1330390188, -775469951, 676194834, 759658067, 586552716, -239441582, 511301638, 1228964902, 688013143, 804595421, 252981998,
    -169028469, -139831227, 456522205, -1198510519, -631523095, 518196663, -144274391, 108579959, -203163101, -57295705, 326480644, -228193498, 4012695, 109689468, -40999972, -341137966,
    -231846614, -245044526, 475923092, -196164303, 254910235, 749560864, 485033087, 95539782, -926792374, -356455311, -643393742, 386904532, 31823228, -40471135, 477997666, 723732776,
    -125818183, -155329951, -194007589, 473594382, 485070990, -941026831, 208096044, -382137369, -212168071, 101050722, 820764805, -122447935, 18335672, -471886438, -202225675, 340572472,
    76629425, -468443603, -56959054, -314644583, 30353966, -160067783, -17380933, -182992379, 126577864, 1502294379, 152114571, 102705859, -442078184, 743798353, -483671865, 18627005
};

#endif  // __ARRAY_MODE7_16B_32B_32_32_32_RANDOM_H__
