#ifndef __ARRAY_MODE5_8B_32B_32_32_32_RANDOM_H__
#define __ARRAY_MODE5_8B_32B_32_32_32_RANDOM_H__

#include <stdint.h>

// Pattern type      : random
// Input  bitwidth   : 8
// Weights bitwidth  : 32

#define M_d 32
#define K_d 32
#define N_d 32

#define I_TYPE int8_t
#define W_TYPE int32_t
#define C_TYPE int32_t

const int8_t zp_input   = 0;
const int32_t zp_weights = 0;

int8_t input[1024] = {
    107, -22, -1, 67, -101, -67, -65, -6, -50, 111, 17, 57, 10, -120, 117, -41,
    8, -94, 123, -77, 41, 94, 87, -91, 3, -78, 10, 54, 104, -128, 25, 100,
    34, 86, 74, -103, -55, -40, 65, -63, 95, 116, -78, 9, -66, 22, -107, -128,
    103, -95, 29, 15, -94, 124, 37, -48, 82, -45, -127, 17, -90, -56, 125, -63,
    -14, -127, 8, -96, 91, -67, -30, -27, -103, 25, -108, -121, 100, 35, 19, -68,
    -52, 9, 108, 40, 49, 59, 11, -42, 83, -3, -50, -72, 11, 56, -22, 14,
    -5, 43, -102, -73, -45, 114, -65, -111, -103, 40, 19, -27, 87, -117, -6, -111,
    -84, 124, -47, 104, -7, 108, -66, -63, 123, 66, 2, 38, -68, -69, 84, -16,
    115, -56, 82, 8, 120, 107, 106, 6, -24, 73, -36, 81, 23, 113, 90, -51,
    92, -43, 52, -17, 48, 123, -32, -121, 67, 101, -55, -72, -11, 84, 49, 98,
    -43, -89, -28, -24, 49, 39, 125, -56, -105, -2, -98, 86, 98, 54, -87, 0,
    103, -92, -21, 35, 69, 44, 59, -104, -68, -51, -55, 49, 24, 123, 15, -92,
    -125, -56, 56, -111, -12, 58, 20, 44, -33, -11, -115, 111, 16, 74, -123, -67,
    21, -21, 62, 95, -51, -65, 16, 28, -109, -93, 25, -128, -55, -24, -17, 6,
    16, 69, 109, 35, -31, -61, -99, 8, -75, 24, 40, 20, -128, 105, -31, 102,
    28, 78, -42, 49, -3, -118, -109, -7, 16, 107, -28, 33, -117, -100, 109, 105,
    -94, -39, 74, -106, -34, -71, 113, 25, -71, 44, -66, -108, -31, 8, -122, 62,
    -116, -7, -113, -57, -52, 110, 18, -8, -101, 42, 93, -61, -15, 22, -30, 34,
    -117, -57, -65, 86, 80, -6, -88, 102, 108, 20, -4, -90, 52, -94, -120, 23,
    118, 81, 5, 105, -51, -70, 28, 50, -7, 31, -58, -127, -73, -113, 39, -79,
    -72, 56, 22, -9, -13, 78, -98, -108, 45, 118, -69, -42, -54, 96, 111, 115,
    82, -69, 112, 40, -81, 2, 99, -82, 91, 64, -19, 3, -92, 80, -70, -48,
    38, 81, -77, -68, -110, -10, -41, -24, -27, -73, 73, -31, -107, -65, -87, 81,
    22, 119, 50, 65, -24, 27, 113, -53, -24, 60, -10, -10, -48, -112, -67, -88,
    -56, 110, 61, 125, -40, -30, -18, -19, -12, -47, 23, -123, -31, 34, -66, 83,
    -115, -88, 25, 19, 34, -106, -58, -117, -17, -17, -48, 73, -52, 4, 26, 8,
    48, 39, 85, 44, 0, 125, -69, 52, 90, -4, -12, -127, -20, -49, -19, -9,
    -78, -113, -119, 89, 94, -30, -34, 95, 67, -72, 29, 60, -66, 113, 24, -31,
    34, 111, -21, -123, 100, 40, 123, 52, -45, -45, -83, -7, 57, 2, -76, -85,
    -76, -32, -14, 6, 39, -127, 102, -94, 84, -10, 118, -71, 97, -5, -49, 34,
    91, 31, 35, 20, -63, -72, -104, -18, -124, 39, -126, 110, 123, 81, -71, 10,
    -124, -74, 77, -105, -76, -73, 90, 29, 62, -107, -92, 106, -24, -95, -126, -56,
    14, -18, -61, 71, -121, 77, -101, -3, -64, -88, -91, 124, 91, -85, -51, 87,
    -8, 42, -8, 59, -20, 117, -84, -105, -62, -94, -91, 54, -36, 99, -69, 18,
    -68, -63, -109, -90, -98, 100, -122, 84, 59, -105, 67, 24, -80, -8, -50, -123,
    -42, 124, 25, 101, 73, -21, -88, 55, -61, 71, 113, 76, 109, 47, 43, -77,
    24, 95, 23, -22, 100, -81, -109, -43, -12, -97, 104, 95, -36, 12, 118, -128,
    102, 25, -34, -75, 20, 9, -44, -41, -57, 117, -72, -117, 116, -66, 82, 85,
    34, -111, 65, -35, 59, 107, 6, -108, -45, -79, 75, -63, 34, 90, 54, 106,
    120, 62, -16, 0, 25, -49, -103, -18, 98, 10, -79, 51, 10, -91, 21, -2,
    73, 44, -86, 23, -16, -5, 122, -56, 60, 65, -30, 94, 28, -55, -12, 111,
    -42, 46, 89, -87, -16, -86, 45, -78, 38, -126, -34, 33, 19, -47, -14, 71,
    117, 35, -21, 90, 75, -100, 63, 6, 22, -36, 58, 31, -5, -46, 51, -48,
    -59, -69, 54, -106, 110, 30, 40, 45, 22, -95, 21, -34, 65, 47, 123, 74,
    58, -16, 105, -60, 113, -23, 110, 96, -23, -10, 107, 121, 7, -125, 98, -113,
    102, -113, 87, -65, 39, -126, 58, -124, 68, 100, 82, -47, -8, -122, 2, -59,
    118, 21, -128, -115, -103, -51, -70, -44, 62, -44, 102, 87, -96, 91, 40, -60,
    -84, 3, -81, -124, 18, -12, -39, -80, 72, -3, 45, 44, 4, 4, 116, -57,
    120, 71, 49, -56, 11, 34, -94, 59, 18, -103, -31, -112, 122, 87, 112, -37,
    103, 17, 46, 120, 39, 3, -67, 22, -9, -6, -36, -128, 45, -39, -93, 13,
    30, -73, -90, -43, 82, -72, 100, 80, -96, -120, -76, 60, -18, 21, 27, 42,
    -57, 92, 30, -12, 70, -24, -32, 82, -36, -65, -89, 47, 5, -44, 4, 13,
    107, -53, -86, -24, 111, -48, 50, -116, -29, 36, 38, -104, -83, 88, 99, -36,
    -39, 100, 107, 116, 96, -27, 21, -58, 44, -67, 88, -83, -116, 36, -58, -75,
    97, 8, -28, -82, 69, -46, -32, 38, -69, 39, -112, -9, -50, -13, -110, 84,
    95, 40, -109, -17, 83, 28, -65, 70, 42, -58, -96, -44, -115, 122, -31, -50,
    -36, -105, 43, -78, -58, -2, -75, -12, -23, 110, 88, 24, 72, -51, -28, -53,
    124, -119, -112, -27, 100, 14, 98, -35, -86, 126, 7, 113, 127, 40, -115, -13,
    76, 37, 30, -38, 96, -29, -67, 125, -128, 0, -23, -95, 123, -35, 42, -108,
    -33, -74, -82, 0, -123, -81, 32, -24, 47, -83, 56, -85, -86, -105, -12, 106,
    38, -30, -34, -118, 76, 70, -111, 20, -88, 69, -49, -71, -97, -9, 92, -37,
    75, 50, -38, 106, 27, -30, 73, 65, -125, -87, -114, -118, -6, 57, -89, 123,
    30, 86, 106, 20, -118, 6, -123, 64, 53, -127, -13, 25, -96, -8, -55, 105,
    -93, -62, -1, 88, 5, 109, -23, 16, 39, 9, 0, -101, -4, 91, -117, -51
};

int8_t input_unpacked[M_d * K_d] = {
    107, -22, -1, 67, -101, -67, -65, -6, -50, 111, 17, 57, 10, -120, 117, -41, 8, -94, 123, -77, 41, 94, 87, -91, 3, -78, 10, 54, 104, -128, 25, 100,
    34, 86, 74, -103, -55, -40, 65, -63, 95, 116, -78, 9, -66, 22, -107, -128, 103, -95, 29, 15, -94, 124, 37, -48, 82, -45, -127, 17, -90, -56, 125, -63,
    -14, -127, 8, -96, 91, -67, -30, -27, -103, 25, -108, -121, 100, 35, 19, -68, -52, 9, 108, 40, 49, 59, 11, -42, 83, -3, -50, -72, 11, 56, -22, 14,
    -5, 43, -102, -73, -45, 114, -65, -111, -103, 40, 19, -27, 87, -117, -6, -111, -84, 124, -47, 104, -7, 108, -66, -63, 123, 66, 2, 38, -68, -69, 84, -16,
    115, -56, 82, 8, 120, 107, 106, 6, -24, 73, -36, 81, 23, 113, 90, -51, 92, -43, 52, -17, 48, 123, -32, -121, 67, 101, -55, -72, -11, 84, 49, 98,
    -43, -89, -28, -24, 49, 39, 125, -56, -105, -2, -98, 86, 98, 54, -87, 0, 103, -92, -21, 35, 69, 44, 59, -104, -68, -51, -55, 49, 24, 123, 15, -92,
    -125, -56, 56, -111, -12, 58, 20, 44, -33, -11, -115, 111, 16, 74, -123, -67, 21, -21, 62, 95, -51, -65, 16, 28, -109, -93, 25, -128, -55, -24, -17, 6,
    16, 69, 109, 35, -31, -61, -99, 8, -75, 24, 40, 20, -128, 105, -31, 102, 28, 78, -42, 49, -3, -118, -109, -7, 16, 107, -28, 33, -117, -100, 109, 105,
    -94, -39, 74, -106, -34, -71, 113, 25, -71, 44, -66, -108, -31, 8, -122, 62, -116, -7, -113, -57, -52, 110, 18, -8, -101, 42, 93, -61, -15, 22, -30, 34,
    -117, -57, -65, 86, 80, -6, -88, 102, 108, 20, -4, -90, 52, -94, -120, 23, 118, 81, 5, 105, -51, -70, 28, 50, -7, 31, -58, -127, -73, -113, 39, -79,
    -72, 56, 22, -9, -13, 78, -98, -108, 45, 118, -69, -42, -54, 96, 111, 115, 82, -69, 112, 40, -81, 2, 99, -82, 91, 64, -19, 3, -92, 80, -70, -48,
    38, 81, -77, -68, -110, -10, -41, -24, -27, -73, 73, -31, -107, -65, -87, 81, 22, 119, 50, 65, -24, 27, 113, -53, -24, 60, -10, -10, -48, -112, -67, -88,
    -56, 110, 61, 125, -40, -30, -18, -19, -12, -47, 23, -123, -31, 34, -66, 83, -115, -88, 25, 19, 34, -106, -58, -117, -17, -17, -48, 73, -52, 4, 26, 8,
    48, 39, 85, 44, 0, 125, -69, 52, 90, -4, -12, -127, -20, -49, -19, -9, -78, -113, -119, 89, 94, -30, -34, 95, 67, -72, 29, 60, -66, 113, 24, -31,
    34, 111, -21, -123, 100, 40, 123, 52, -45, -45, -83, -7, 57, 2, -76, -85, -76, -32, -14, 6, 39, -127, 102, -94, 84, -10, 118, -71, 97, -5, -49, 34,
    91, 31, 35, 20, -63, -72, -104, -18, -124, 39, -126, 110, 123, 81, -71, 10, -124, -74, 77, -105, -76, -73, 90, 29, 62, -107, -92, 106, -24, -95, -126, -56,
    14, -18, -61, 71, -121, 77, -101, -3, -64, -88, -91, 124, 91, -85, -51, 87, -8, 42, -8, 59, -20, 117, -84, -105, -62, -94, -91, 54, -36, 99, -69, 18,
    -68, -63, -109, -90, -98, 100, -122, 84, 59, -105, 67, 24, -80, -8, -50, -123, -42, 124, 25, 101, 73, -21, -88, 55, -61, 71, 113, 76, 109, 47, 43, -77,
    24, 95, 23, -22, 100, -81, -109, -43, -12, -97, 104, 95, -36, 12, 118, -128, 102, 25, -34, -75, 20, 9, -44, -41, -57, 117, -72, -117, 116, -66, 82, 85,
    34, -111, 65, -35, 59, 107, 6, -108, -45, -79, 75, -63, 34, 90, 54, 106, 120, 62, -16, 0, 25, -49, -103, -18, 98, 10, -79, 51, 10, -91, 21, -2,
    73, 44, -86, 23, -16, -5, 122, -56, 60, 65, -30, 94, 28, -55, -12, 111, -42, 46, 89, -87, -16, -86, 45, -78, 38, -126, -34, 33, 19, -47, -14, 71,
    117, 35, -21, 90, 75, -100, 63, 6, 22, -36, 58, 31, -5, -46, 51, -48, -59, -69, 54, -106, 110, 30, 40, 45, 22, -95, 21, -34, 65, 47, 123, 74,
    58, -16, 105, -60, 113, -23, 110, 96, -23, -10, 107, 121, 7, -125, 98, -113, 102, -113, 87, -65, 39, -126, 58, -124, 68, 100, 82, -47, -8, -122, 2, -59,
    118, 21, -128, -115, -103, -51, -70, -44, 62, -44, 102, 87, -96, 91, 40, -60, -84, 3, -81, -124, 18, -12, -39, -80, 72, -3, 45, 44, 4, 4, 116, -57,
    120, 71, 49, -56, 11, 34, -94, 59, 18, -103, -31, -112, 122, 87, 112, -37, 103, 17, 46, 120, 39, 3, -67, 22, -9, -6, -36, -128, 45, -39, -93, 13,
    30, -73, -90, -43, 82, -72, 100, 80, -96, -120, -76, 60, -18, 21, 27, 42, -57, 92, 30, -12, 70, -24, -32, 82, -36, -65, -89, 47, 5, -44, 4, 13,
    107, -53, -86, -24, 111, -48, 50, -116, -29, 36, 38, -104, -83, 88, 99, -36, -39, 100, 107, 116, 96, -27, 21, -58, 44, -67, 88, -83, -116, 36, -58, -75,
    97, 8, -28, -82, 69, -46, -32, 38, -69, 39, -112, -9, -50, -13, -110, 84, 95, 40, -109, -17, 83, 28, -65, 70, 42, -58, -96, -44, -115, 122, -31, -50,
    -36, -105, 43, -78, -58, -2, -75, -12, -23, 110, 88, 24, 72, -51, -28, -53, 124, -119, -112, -27, 100, 14, 98, -35, -86, 126, 7, 113, 127, 40, -115, -13,
    76, 37, 30, -38, 96, -29, -67, 125, -128, 0, -23, -95, 123, -35, 42, -108, -33, -74, -82, 0, -123, -81, 32, -24, 47, -83, 56, -85, -86, -105, -12, 106,
    38, -30, -34, -118, 76, 70, -111, 20, -88, 69, -49, -71, -97, -9, 92, -37, 75, 50, -38, 106, 27, -30, 73, 65, -125, -87, -114, -118, -6, 57, -89, 123,
    30, 86, 106, 20, -118, 6, -123, 64, 53, -127, -13, 25, -96, -8, -55, 105, -93, -62, -1, 88, 5, 109, -23, 16, 39, 9, 0, -101, -4, 91, -117, -51
};

int32_t weights[1024] = {
    -5017, -11961, -12220, 14503, -13607, -10016, 15141, 9681, -10292, 3076, 9364, -3055, -6792, -6322, -8202, -15852,
    762, 13297, -9737, 2064, 9043, 8795, -1895, 5222, 8187, 12846, 1429, -12998, -7176, 6298, -16238, 6665,
    11767, -955, -12868, -10062, 122, -1962, -9763, -15755, 16002, 7178, -9535, 15969, 546, 11454, -6532, -160,
    -11839, 7012, 11926, -5868, -3359, -5080, 2589, -3848, -2319, 9143, 11939, -4783, 13951, 3353, 7099, 9632,
    -16367, 14095, 15514, 6514, -847, 1247, 1911, 10342, -13323, -3609, 1668, -1092, -7349, 11635, 4982, -14486,
    -5398, 11065, -10031, 9216, -10417, 15434, -12449, -6910, -15577, 3011, -8063, 12892, 1821, -15628, 11104, 10591,
    8802, 10344, -12689, 4936, 3502, 2563, -14513, 14972, -14238, -3431, 6429, -3570, -3652, -4469, -5208, 122,
    -9713, 6709, 13501, -1987, 14454, -2192, 15562, -10216, -7569, 1623, -2269, -9396, 4044, 4004, -10052, 15723,
    -7194, -1787, 6259, -11396, 14661, 16139, 13339, -3601, 7172, -7, -14366, 12239, -15290, 6829, 1534, -1136,
    -11018, 11893, 2606, -8244, -10124, -10431, -11934, 4978, 2497, -3865, -737, 1141, -9830, 8233, 12052, -915,
    8069, 14410, 8499, -11566, -13296, 11108, 2081, 9468, 7936, -12517, -3658, 1678, 5606, 9304, 13027, -2792,
    1065, -485, -11985, 8044, -8939, 11847, 9281, -3487, 9033, 11046, -12670, 10234, 2632, -12497, 4418, 5532,
    -2136, 10609, -6874, 11044, -11640, -2682, 12452, -9322, 13001, -10788, -15216, 11553, 14242, -5456, 15654, 10021,
    -387, 3546, -3556, -9264, 13493, -2632, -8143, 10051, 8788, 12128, 3568, -4825, 561, 9190, 5987, -14508,
    11572, 942, 13866, -11849, 10238, 15153, 8737, 6500, 4976, -4768, 5716, 15118, 5417, -13101, -3554, -1666,
    10840, -6273, -4888, 16135, -5863, -13486, -7514, 904, 15365, -9083, -7225, 6405, 7623, -962, -9504, 11565,
    3771, 7081, 13739, 8561, -7737, -6072, -11518, -11262, -6569, -3726, 4878, -15158, -8709, -8406, -3890, 3745,
    -8476, -9771, 1588, -15118, 15063, 2076, 6057, 9191, -13953, -10187, -16063, 13865, -13795, -5187, -11834, 994,
    -9563, 4357, 1094, 1586, 7431, 2705, 9500, -12994, -5732, 9, 3031, 8186, -11627, -11749, 4639, 14048,
    -11919, -14306, 7996, 9174, -2617, -3705, 15086, -6762, -14501, 11453, 5292, 10515, -16004, 3506, 13760, -3893,
    5043, 9489, 8786, -11447, 12631, -3278, 209, -2580, 8620, -11174, -4437, -3171, 15964, -4338, 6906, -11686,
    4859, -11526, 15508, 15254, -461, -14131, -7956, -12325, 11785, 15295, -8164, 14756, 7043, -5394, 4392, -13016,
    15948, 3560, 10079, -2029, 7994, 14813, 8834, -12179, -8537, 9116, -8228, -15571, -14615, -9580, -8688, -6537,
    12731, -10997, 1177, 9665, 15280, -10696, 10572, -1287, -14893, -12146, -16177, 9044, -1977, 5612, -13316, -14779,
    14509, -10498, -15126, 4087, -8226, -2540, -14721, -6485, 2958, 4248, -15243, 12592, 8998, -998, -10208, -9069,
    -5129, 1111, -13960, 3151, -1579, -9517, 16180, 7606, 3000, 1386, 9489, 5136, -15141, -1538, 4880, -2010,
    8275, -9499, -6447, 12832, -5685, -9918, -6678, -8213, 3697, -4472, -7153, 15500, -12071, 1700, 15712, -11595,
    6194, 11125, 4936, -6871, 8983, -15698, 1855, 7611, -1126, 15127, -3808, 12937, -9869, -15149, -6627, -1249,
    2375, -10130, -11711, -6446, 1891, -10247, 5535, 9307, -4951, -7202, -2020, 15265, -2351, 816, -12534, 2361,
    -10173, 9431, -6067, 5920, -1505, 11871, 8635, -12212, -8024, -146, 7006, 1555, 5170, -12808, 4851, 7622,
    -727, -1508, 118, 3937, 9563, 11906, -11162, 6829, 8675, 8884, -4308, -6790, -13201, -1729, -9816, 13867,
    7344, -3637, -5995, -945, -2220, -12122, -1383, 5541, -4616, -8971, -962, -10993, -8997, 12106, 10041, -10588,
    -9387, 2924, 8870, -7663, 13146, -528, -14237, 13676, 16119, 8980, 10507, 8773, -6164, -13351, 6336, -12877,
    2874, 8875, -5835, -703, -1124, 11359, -5309, -4080, 2865, 4233, -4970, -7616, -1520, -3244, -12620, -57,
    20, -10657, -2679, -3715, -15671, -4725, -15850, -8497, -8063, 8493, -6247, 3490, 5459, -2186, 10308, 2431,
    -3151, -1723, -13398, -5502, -6683, -9131, -11616, 6534, 16098, -15948, -15542, -13057, 10546, 2204, -14291, -6907,
    -16247, -6973, 4057, 8804, 16033, 16106, 10498, 1048, -12422, -16300, 2056, 3322, -1480, 8384, 13838, -10442,
    -8380, -8425, 10919, -9555, 1145, 9312, 2397, 14125, 11218, 9913, 12110, -3807, 1918, 9211, 4721, 1500,
    -10915, -2959, -3452, -1430, 3058, -12001, 15655, 15459, -3329, 10600, 13306, -9552, -8052, 4748, -15170, -12937,
    -825, -13266, 7062, -11582, 3211, 2303, 14833, -5931, 15847, 11023, 13803, 3531, -6992, 11670, -13312, 15178,
    -9091, -12678, -10173, -5743, -7145, -3274, 11328, -4396, 7212, -8548, -949, 6790, -10692, -10521, -4952, 6697,
    10034, -3644, 15442, 978, 2899, 5126, 8642, 4860, -5886, -8495, 11545, -1114, -5412, -5348, 4186, 15698,
    6705, 4230, 10613, -5532, 9014, -8200, -1278, -15953, 8232, -13774, -9950, 10227, -8027, -8527, -12325, 4659,
    3977, 14781, -2369, -12425, -1141, 14227, -5479, -10172, 8766, 12623, -12596, 7492, 13514, 10522, 8764, -4721,
    299, -6892, 16027, 3004, -37, 3872, 13436, 11790, -10947, -12394, 6148, -3116, -4915, -9010, 10343, -4685,
    3258, -7747, 3995, -12456, 1893, -6378, -2505, 16216, 10081, 6297, 3597, 2953, -6441, 9835, -5179, 4716,
    5603, -1178, -2714, 535, -15834, -14798, -11351, 7983, 2339, -4680, -13894, 10917, -12409, -2861, 9657, 5953,
    1999, -2093, -5659, -11291, -15116, 629, -147, 15232, -2362, -8325, -1688, -10119, -10737, 11244, 3923, -3925,
    -14277, 353, -4898, 2029, 3555, 2672, -13288, 10058, -14922, -3020, -11456, 208, 2537, -13670, 16187, 12339,
    -8792, 5669, -14190, -5449, -8900, -10570, 16011, 953, -848, -10658, 2648, -4405, -8045, 1620, -15140, -334,
    -7121, 1790, -10871, 16333, -11507, -9327, 8979, -1791, 7098, -14625, -13298, 10146, 3140, 2803, 12729, 13959,
    13658, 5165, 6308, -784, -6150, 977, 1002, -1594, 2048, -5447, -2552, 3425, 11720, -2722, -7917, 10502,
    -14655, 12066, -903, -5312, -15870, 6281, 11916, -2269, -118, -8408, -9294, 16036, 15628, -8582, 10866, 5252,
    11778, 8600, -14489, 6386, 14444, -13489, -5272, -7011, 7402, 6008, -8344, -8023, -1457, 15345, 9988, -1898,
    -1655, 1709, -7309, 123, -5578, -2246, 15436, -1132, -8890, 13670, 6913, -15617, -11932, 15393, -7683, -12629,
    14961, -2277, 3345, 6310, 3019, 9839, -6906, 5176, -6952, -322, -10657, 12790, 4611, -2139, -11942, -8277,
    -1802, 9202, -291, 2113, -6834, -11985, -6720, -5577, -12868, -13459, -15633, 1352, -2710, -11471, 8325, 7074,
    13375, 1818, 12976, 15436, -2303, -16003, -2886, 7081, -5371, -9710, -8987, -15255, 5550, 4199, 6591, 1498,
    -7229, -6477, 11656, 240, 3708, -14579, -14028, -2387, 15390, 2518, 15787, 12278, 9447, 11376, 16265, 9739,
    -4617, 13827, -12108, -2685, 12806, -1670, -12825, -16083, -15643, -1398, -11341, 298, 1939, 1808, 16368, 14867,
    -15389, -13689, 1118, -6207, -15646, -2426, -2666, 10716, -15332, 5018, 10879, 9984, -11627, -13030, -10009, -5535,
    -13303, -15797, 4088, 13877, 7818, 7178, -9357, -4582, 5992, 159, 1639, -16065, -11697, 9290, 7709, 13701,
    -2565, -7956, -7360, 6609, 4315, 407, -1172, 5464, -14595, 2375, 3003, 827, -15889, 2975, -16384, -12879,
    8611, -13488, -4708, -6120, -15221, -13472, 5926, -3985, 3242, -13711, 5919, -10941, -2643, 6733, -5426, -15593
};

int32_t weights_unpacked[N_d * K_d] = {
    -5017, -11961, -12220, 14503, -13607, -10016, 15141, 9681, -10292, 3076, 9364, -3055, -6792, -6322, -8202, -15852, 762, 13297, -9737, 2064, 9043, 8795, -1895, 5222, 8187, 12846, 1429, -12998, -7176, 6298, -16238, 6665,
    11767, -955, -12868, -10062, 122, -1962, -9763, -15755, 16002, 7178, -9535, 15969, 546, 11454, -6532, -160, -11839, 7012, 11926, -5868, -3359, -5080, 2589, -3848, -2319, 9143, 11939, -4783, 13951, 3353, 7099, 9632,
    -16367, 14095, 15514, 6514, -847, 1247, 1911, 10342, -13323, -3609, 1668, -1092, -7349, 11635, 4982, -14486, -5398, 11065, -10031, 9216, -10417, 15434, -12449, -6910, -15577, 3011, -8063, 12892, 1821, -15628, 11104, 10591,
    8802, 10344, -12689, 4936, 3502, 2563, -14513, 14972, -14238, -3431, 6429, -3570, -3652, -4469, -5208, 122, -9713, 6709, 13501, -1987, 14454, -2192, 15562, -10216, -7569, 1623, -2269, -9396, 4044, 4004, -10052, 15723,
    -7194, -1787, 6259, -11396, 14661, 16139, 13339, -3601, 7172, -7, -14366, 12239, -15290, 6829, 1534, -1136, -11018, 11893, 2606, -8244, -10124, -10431, -11934, 4978, 2497, -3865, -737, 1141, -9830, 8233, 12052, -915,
    8069, 14410, 8499, -11566, -13296, 11108, 2081, 9468, 7936, -12517, -3658, 1678, 5606, 9304, 13027, -2792, 1065, -485, -11985, 8044, -8939, 11847, 9281, -3487, 9033, 11046, -12670, 10234, 2632, -12497, 4418, 5532,
    -2136, 10609, -6874, 11044, -11640, -2682, 12452, -9322, 13001, -10788, -15216, 11553, 14242, -5456, 15654, 10021, -387, 3546, -3556, -9264, 13493, -2632, -8143, 10051, 8788, 12128, 3568, -4825, 561, 9190, 5987, -14508,
    11572, 942, 13866, -11849, 10238, 15153, 8737, 6500, 4976, -4768, 5716, 15118, 5417, -13101, -3554, -1666, 10840, -6273, -4888, 16135, -5863, -13486, -7514, 904, 15365, -9083, -7225, 6405, 7623, -962, -9504, 11565,
    3771, 7081, 13739, 8561, -7737, -6072, -11518, -11262, -6569, -3726, 4878, -15158, -8709, -8406, -3890, 3745, -8476, -9771, 1588, -15118, 15063, 2076, 6057, 9191, -13953, -10187, -16063, 13865, -13795, -5187, -11834, 994,
    -9563, 4357, 1094, 1586, 7431, 2705, 9500, -12994, -5732, 9, 3031, 8186, -11627, -11749, 4639, 14048, -11919, -14306, 7996, 9174, -2617, -3705, 15086, -6762, -14501, 11453, 5292, 10515, -16004, 3506, 13760, -3893,
    5043, 9489, 8786, -11447, 12631, -3278, 209, -2580, 8620, -11174, -4437, -3171, 15964, -4338, 6906, -11686, 4859, -11526, 15508, 15254, -461, -14131, -7956, -12325, 11785, 15295, -8164, 14756, 7043, -5394, 4392, -13016,
    15948, 3560, 10079, -2029, 7994, 14813, 8834, -12179, -8537, 9116, -8228, -15571, -14615, -9580, -8688, -6537, 12731, -10997, 1177, 9665, 15280, -10696, 10572, -1287, -14893, -12146, -16177, 9044, -1977, 5612, -13316, -14779,
    14509, -10498, -15126, 4087, -8226, -2540, -14721, -6485, 2958, 4248, -15243, 12592, 8998, -998, -10208, -9069, -5129, 1111, -13960, 3151, -1579, -9517, 16180, 7606, 3000, 1386, 9489, 5136, -15141, -1538, 4880, -2010,
    8275, -9499, -6447, 12832, -5685, -9918, -6678, -8213, 3697, -4472, -7153, 15500, -12071, 1700, 15712, -11595, 6194, 11125, 4936, -6871, 8983, -15698, 1855, 7611, -1126, 15127, -3808, 12937, -9869, -15149, -6627, -1249,
    2375, -10130, -11711, -6446, 1891, -10247, 5535, 9307, -4951, -7202, -2020, 15265, -2351, 816, -12534, 2361, -10173, 9431, -6067, 5920, -1505, 11871, 8635, -12212, -8024, -146, 7006, 1555, 5170, -12808, 4851, 7622,
    -727, -1508, 118, 3937, 9563, 11906, -11162, 6829, 8675, 8884, -4308, -6790, -13201, -1729, -9816, 13867, 7344, -3637, -5995, -945, -2220, -12122, -1383, 5541, -4616, -8971, -962, -10993, -8997, 12106, 10041, -10588,
    -9387, 2924, 8870, -7663, 13146, -528, -14237, 13676, 16119, 8980, 10507, 8773, -6164, -13351, 6336, -12877, 2874, 8875, -5835, -703, -1124, 11359, -5309, -4080, 2865, 4233, -4970, -7616, -1520, -3244, -12620, -57,
    20, -10657, -2679, -3715, -15671, -4725, -15850, -8497, -8063, 8493, -6247, 3490, 5459, -2186, 10308, 2431, -3151, -1723, -13398, -5502, -6683, -9131, -11616, 6534, 16098, -15948, -15542, -13057, 10546, 2204, -14291, -6907,
    -16247, -6973, 4057, 8804, 16033, 16106, 10498, 1048, -12422, -16300, 2056, 3322, -1480, 8384, 13838, -10442, -8380, -8425, 10919, -9555, 1145, 9312, 2397, 14125, 11218, 9913, 12110, -3807, 1918, 9211, 4721, 1500,
    -10915, -2959, -3452, -1430, 3058, -12001, 15655, 15459, -3329, 10600, 13306, -9552, -8052, 4748, -15170, -12937, -825, -13266, 7062, -11582, 3211, 2303, 14833, -5931, 15847, 11023, 13803, 3531, -6992, 11670, -13312, 15178,
    -9091, -12678, -10173, -5743, -7145, -3274, 11328, -4396, 7212, -8548, -949, 6790, -10692, -10521, -4952, 6697, 10034, -3644, 15442, 978, 2899, 5126, 8642, 4860, -5886, -8495, 11545, -1114, -5412, -5348, 4186, 15698,
    6705, 4230, 10613, -5532, 9014, -8200, -1278, -15953, 8232, -13774, -9950, 10227, -8027, -8527, -12325, 4659, 3977, 14781, -2369, -12425, -1141, 14227, -5479, -10172, 8766, 12623, -12596, 7492, 13514, 10522, 8764, -4721,
    299, -6892, 16027, 3004, -37, 3872, 13436, 11790, -10947, -12394, 6148, -3116, -4915, -9010, 10343, -4685, 3258, -7747, 3995, -12456, 1893, -6378, -2505, 16216, 10081, 6297, 3597, 2953, -6441, 9835, -5179, 4716,
    5603, -1178, -2714, 535, -15834, -14798, -11351, 7983, 2339, -4680, -13894, 10917, -12409, -2861, 9657, 5953, 1999, -2093, -5659, -11291, -15116, 629, -147, 15232, -2362, -8325, -1688, -10119, -10737, 11244, 3923, -3925,
    -14277, 353, -4898, 2029, 3555, 2672, -13288, 10058, -14922, -3020, -11456, 208, 2537, -13670, 16187, 12339, -8792, 5669, -14190, -5449, -8900, -10570, 16011, 953, -848, -10658, 2648, -4405, -8045, 1620, -15140, -334,
    -7121, 1790, -10871, 16333, -11507, -9327, 8979, -1791, 7098, -14625, -13298, 10146, 3140, 2803, 12729, 13959, 13658, 5165, 6308, -784, -6150, 977, 1002, -1594, 2048, -5447, -2552, 3425, 11720, -2722, -7917, 10502,
    -14655, 12066, -903, -5312, -15870, 6281, 11916, -2269, -118, -8408, -9294, 16036, 15628, -8582, 10866, 5252, 11778, 8600, -14489, 6386, 14444, -13489, -5272, -7011, 7402, 6008, -8344, -8023, -1457, 15345, 9988, -1898,
    -1655, 1709, -7309, 123, -5578, -2246, 15436, -1132, -8890, 13670, 6913, -15617, -11932, 15393, -7683, -12629, 14961, -2277, 3345, 6310, 3019, 9839, -6906, 5176, -6952, -322, -10657, 12790, 4611, -2139, -11942, -8277,
    -1802, 9202, -291, 2113, -6834, -11985, -6720, -5577, -12868, -13459, -15633, 1352, -2710, -11471, 8325, 7074, 13375, 1818, 12976, 15436, -2303, -16003, -2886, 7081, -5371, -9710, -8987, -15255, 5550, 4199, 6591, 1498,
    -7229, -6477, 11656, 240, 3708, -14579, -14028, -2387, 15390, 2518, 15787, 12278, 9447, 11376, 16265, 9739, -4617, 13827, -12108, -2685, 12806, -1670, -12825, -16083, -15643, -1398, -11341, 298, 1939, 1808, 16368, 14867,
    -15389, -13689, 1118, -6207, -15646, -2426, -2666, 10716, -15332, 5018, 10879, 9984, -11627, -13030, -10009, -5535, -13303, -15797, 4088, 13877, 7818, 7178, -9357, -4582, 5992, 159, 1639, -16065, -11697, 9290, 7709, 13701,
    -2565, -7956, -7360, 6609, 4315, 407, -1172, 5464, -14595, 2375, 3003, 827, -15889, 2975, -16384, -12879, 8611, -13488, -4708, -6120, -15221, -13472, 5926, -3985, 3242, -13711, 5919, -10941, -2643, 6733, -5426, -15593
};

int32_t bias[N_d] = {
    0, 0, 0, 0, 0, 0, 0, 0, 0, 0, 0, 0, 0, 0, 0, 0,
    0, 0, 0, 0, 0, 0, 0, 0, 0, 0, 0, 0, 0, 0, 0, 0
};

int32_t golden[M_d * N_d] = {
    -2064423, 2513600, -482787, 5833098, -10200793, 955904, -3284462, -1335104, 5345799, 105092, -733201, -463993, 705959, 4353106, 2684591, -7738815,
    248846, 2206213, -3210341, 979442, 4179295, -1982679, -1160964, 454486, -667352, 4046010, -6200003, -1188667, 735616, 1540681, 2392804, -2949564,
    -4219032, -15869, 3106691, -9280984, 3076941, 7002446, -3665790, 1784322, 333956, 576252, 5342614, 6270028, 1231007, -2923732, -1360931, 845769,
    1882308, -1773731, -6485102, 1815910, 979166, 6190676, -4712550, 2008569, -10582359, -3918589, -1531015, 6764632, -1689561, -5308856, 879755, 2727907,
    1395945, 956650, -3132408, 2645434, -1001911, -3251877, -3608628, -2606431, -1944431, -3942276, 4669078, 1138695, -1006011, -3737327, -42791, -3325530,
    -762914, 3850131, 3922968, 3460883, -1810930, 399277, -247135, -3585358, 421000, -3423819, -2516470, 769010, 1959786, -1694832, 3404924, -755507,
    3397592, 554423, 5131024, -225997, -429306, 4802151, 74052, -54982, -3837385, 310814, 3744278, -3383883, 4921991, -1352467, 2167064, -5555426,
    2164512, 1547633, -793909, -4650375, -3770325, 2177628, -5225575, -6407240, -579067, -6551203, 4310279, -757248, -2905136, -2470002, 4902628, -5009412,
    322252, 2251817, 1196904, -301068, 4322339, 4126996, 13073, 4576589, -8036027, -900088, 3429357, 1073198, -4818457, -1321015, -1072574, -2210996,
    1853857, -4491169, 7914048, 3490866, -2365989, 4458989, 3069379, -4825691, -8339213, -1106387, 2312619, 981412, -4814398, 3548362, 1134063, -3063079,
    -1525600, -1829047, -2652933, -3025283, 441590, -2858886, 952437, 1308549, -3072160, 3900069, 1925273, 9416908, 1199912, -4900283, 2876207, 122387,
    -6724187, -1509714, 1686755, 468935, 1361493, 2820204, -2288234, -4196895, -1963247, 1089214, 6438725, 4697086, 229400, -2379890, 310012, 4842754,
    -1717656, 1531460, 2004633, -1409138, 6500927, -2683094, -5534105, 3058284, -5030720, 388849, -1971694, 1805056, 2157153, -3711448, 3535405, 3188673,
    -297277, -19066, 772878, -966841, 5215469, -5943790, -2044325, 1728907, 1727261, -1479119, 1878255, -517348, 5127320, -3450414, 6948376, 6533812,
    -1266669, -399030, 9557699, -55545, 2761457, 2365928, -3546042, -491122, 2756029, 2458649, -677456, -4032938, -184453, 6310457, -171387, 2784947,
    -865782, -2046640, -5215246, -2890711, -2897346, 1095062, -349978, 1672774, -2187351, -1809848, 627765, -840750, 3179367, 8978364, 2807952, -2761621,
    5199855, -1366749, 4517884, -1623285, 1455782, -2017304, -4046318, -6987237, 1454624, 2519333, -9468954, -1909992, -2299750, -9823274, 5998792, -268906,
    -1548908, -2411465, 99383, 7792822, 1899963, 283663, 327654, 989353, 2679546, -4394365, -3460013, 1890863, -5195913, -2417095, 5839511, 1264154,
    3012463, -4518241, -2155731, -110115, -2763266, -4147601, -2062854, -742746, -3917983, -2403187, 991894, -1130996, 2910252, -210013, -367220, 8956045,
    5586602, -1171852, -5241853, -2723945, 1357613, -3833729, -4478508, -442314, 3110105, -671243, -166258, -1460790, 4193994, -1571142, -572250, 3746608,
    -7145113, 1929956, -5127707, -1849818, 1336213, 2143691, 380519, -3027632, -208484, 6195378, 3217173, 3547332, -1176772, 179044, -8797609, 4469745,
    9047, 1740832, 462897, 1231301, -1344530, -1051087, -2824640, 1213115, 3230281, 1984520, 452201, 672133, 1308979, -3226109, -3157628, 409962,
    2544312, -172254, -746720, 6065143, -5371112, 3079266, -3040535, -3298007, 3460014, 3469679, -1285280, 2643784, 985980, 2458037, 4821266, -1117781,
    200158, -3179062, -8182793, -1440693, 3346612, 2135794, -4886016, -117056, 1351166, 245583, -1859141, 2259845, 2430820, -6030685, -780007, 208646,
    -3721109, -4033415, 4457317, 2518990, -1497341, -1489694, -831809, -3202574, 9214096, 5891235, 3296087, 3190713, -4045504, -2536601, -3512034, 2185651,
    -5714110, -2635003, -2827636, 1161251, -3485441, -1296813, -788611, -3296432, -329740, -427017, -479901, 262433, 1574347, 2904108, 1749300, 4544,
    -2418768, -6200396, -2681713, -2092542, 842115, 1381304, 988776, 4708784, 5794108, -105022, 1127963, 7636281, 2734855, -5374244, -7959909, 8148768,
    125221, 531034, 660551, -1000015, -4855068, -3935753, 3983546, 266713, 915512, -7553303, 400157, -1834985, -2679108, -3182172, 2329223, 52168,
    -1118928, 4307567, -4162047, 5866790, 2378438, 1352362, -894052, 6663620, -7544614, -981311, 6222874, 2779179, 856999, -6135119, 3851238, -2826561,
    -2244373, -3393758, 2942858, 7795201, -1316329, -1199038, 544267, -7085244, 2147238, -2765044, 3012805, -3588184, -778853, -8805741, -1546462, 3927223,
    -6701797, 2949332, -3355728, 2200144, -2410772, 1132964, -1843404, 105454, 8919492, -2564695, 1771422, 2007599, 9016481, 4774405, 434570, -4236784,
    -6003606, 9779216, -4353387, -1639917, -5183061, -1713625, -1916964, 4513904, 6152885, 1665382, -6134018, -1688260, 995955, -5982252, -4927456, 3765942,
    138912, -1232836, 1560396, 3362617, -2709259, 949086, 2352569, 1697767, 2303036, -900445, -3730510, -368981, 3194732, -2123866, 3613399, -774845,
    -1413679, 5389708, -5441492, -9709025, 488917, 4096284, -4628654, 3980364, 4914959, 6554803, 6321050, -3277083, 4570688, 2231375, 4163584, -2288748,
    3396937, 4885781, 2765244, 2207637, 1634005, -98918, -180697, -1289895, -6176537, -3022660, 1333742, -4563882, 2103943, 2955493, 3667267, -1432,
    3325223, -2935242, 1893297, -2728497, 1778120, 103222, -1578247, -1639807, -3845593, -3323808, 1450020, 1442983, -1339636, 435241, 4757685, -813009,
    -1577428, 3667521, 7250278, 3626545, -2266267, 3869637, 43368, 330094, -2227829, -3331138, 4655915, -6094045, -5153085, 5794829, 696526, -4604664,
    7891224, -732777, 2264741, -4498465, -3017144, 7378522, -567533, 8197, -4000339, 728329, 2325098, -2972266, 4130598, 11679638, -2324726, -3001371,
    -4658520, -3434483, 285816, -5753287, 2207762, 3069398, -543889, 5961739, -550744, -3481172, 5140195, 1850026, -5098983, 2118280, -3827722, -259354,
    -2909234, 3025822, 1625816, -7198152, -2174164, 3313647, 2156723, -6518875, -3524625, 859076, 1914303, 1597029, -315843, 4871979, -6223685, -3646463,
    -3801427, 6238065, -6844602, 2204502, 3102568, -2115419, 3160538, 3443659, -70629, 1907650, -1485753, 448557, 1309113, 1638106, 2644114, -1375191,
    -4350286, 1221296, -5897898, -771685, 4750778, 1484661, -3382261, -359608, 1029775, 7102755, 1628786, -3442584, 1006624, 275923, -4702016, -1845918,
    -204153, 2417576, -3974621, 4375336, -1462963, -3754594, 3541900, -1094996, 2826651, 350051, -1454637, -1539134, -957256, 222375, 695393, -1811392,
    -2342719, -3164307, 4939277, 3134455, 2711385, 1663652, 3790581, 1520984, -3986484, 1025158, -2641445, -3695336, 733095, 2813705, 394286, -1079004,
    -883098, -2713874, -4074493, 519512, -817298, 538516, -630927, 8967292, -5364408, 4306314, 12065834, 1665746, -3561441, 5116817, 78951, -4143415,
    5977203, -5870759, 4947127, 7597975, 1289988, -1479770, 8558897, -5119090, -1999974, -3574409, 1471226, -4094797, -1649992, -2370749, 1493861, 4073129,
    -1906387, 8928641, -2169820, -1089969, 2212447, 3701863, 2722705, -3991631, -2003529, -1787270, -491363, -7665621, 5468003, 4837200, 3642492, -2055123,
    -513528, 2889992, -2991826, -681311, -1627783, 4669289, -3612132, 4801084, -4841647, -2804016, 193920, -2234574, -5853480, 5883680, 292559, 1058100,
    -3150459, -1956476, 465248, 3434972, -5988719, 6832479, 59111, 4630168, -1985236, -10851830, 7987736, 1910924, -4184856, -1372257, -4971758, -1699452,
    2230114, 3114395, -1664930, -7686582, -5358684, -3746364, -380522, -1480808, -1246266, 1403617, 1463027, 601380, 6898741, 797284, -5922555, -5091982,
    1533654, -1224870, 1299144, 2463945, 4614684, -1390448, 1641952, 577393, 319850, -1026253, -1157899, -381131, -468604, 4788761, 6544270, -2839231,
    -3853734, 24603, 2316749, -3435291, 3037756, 1207805, 2499631, 2024790, 2738097, 4269923, 565484, 551866, 4144286, 729472, -1564339, -2029262,
    3243981, 2149756, -7008427, 3311666, 1760804, -7561140, -2120233, -4421488, -1630948, 1781976, 564160, 6357705, 399741, 3162899, -954769, 399938,
    -2168679, -1649668, 1161161, 2016844, 606699, -4678161, -2119695, -3732961, -1485315, -3811138, -4915220, 3700945, 841574, -2255447, -1278325, 2230856,
    2690370, -3603013, -6026795, 116255, 2601414, -3979004, 554289, 1566218, 2860510, -4791034, -4752536, 7818646, 3185215, -2311396, -1377513, 8346773,
    505279, 5098134, -6260179, -1660133, -2594874, 5046798, 59914, 6456158, 2171541, -3808071, 2985371, 2298243, 3058343, -2797697, 638704, 3616765,
    2349259, -1200964, -3021142, 140643, -11027398, 370206, -4016651, 1859410, 2930997, -725146, 1384568, 6071287, 1882610, 782603, -304433, -3366035,
    3809391, 1725588, -3599685, 6073267, -1418682, -371438, 328688, -5325408, -938453, -3744237, 634648, 4993928, -6699140, 2193378, 1055519, 527586,
    -1276803, -4843239, 2700876, 4138293, -3181509, 2459518, -8841491, 4873038, -828517, -4409583, 2136221, -1952442, 3877798, -4278118, 574773, -658199,
    1762567, 3046965, -221601, 3080474, -4700116, -9941300, 2736586, 883699, 8916869, -5334927, -4727487, -5438152, 1276824, -3731503, 1303238, 5400680,
    462794, -1843216, 98457, 8110706, 15628, -1228522, -10320359, 2801153, 2460906, -3036685, -6024620, 10852327, -390047, -786020, -1730064, 5279377,
    4276931, 5066102, -3574998, -3881782, 243847, -6203163, -1385512, 2627554, 7659652, -3210104, -1576166, 2744062, 7485179, 289878, 1741934, 1970282,
    809932, -1621139, -1157415, 3448434, -3256775, 3713516, 1928996, 431666, 4367572, -964998, -2510956, -1308749, -2287930, -4957232, -1156405, 2793297,
    3148549, 3054484, -1060411, -2130978, -1804658, 3127722, 770169, 6814759, 1751184, 441794, -156588, -3898656, 3022894, -2659871, 6595131, -546767
};

#endif  // __ARRAY_MODE5_8B_32B_32_32_32_RANDOM_H__
