#ifndef __ARRAY_MODE2_8B_8B_32_32_32_RANDOM_H__
#define __ARRAY_MODE2_8B_8B_32_32_32_RANDOM_H__

#include <stdint.h>

// Pattern type      : random
// Input  bitwidth   : 8
// Weights bitwidth  : 8

#define M_d 32
#define K_d 32
#define N_d 32

#define I_TYPE int8_t
#define W_TYPE int8_t
#define C_TYPE int16_t

const int8_t zp_input   = 0;
const int8_t zp_weights = 0;

int8_t input[1024] = {
    0, -109, 125, 110, -110, -119, -70, 44, -20, -21, 33, 43, -27, 2, -21, 53,
    -44, 60, 80, 68, 18, 2, 54, -76, 45, -121, 28, 122, -58, 61, -74, 109,
    -41, 27, -20, 55, 35, 65, 89, -45, -29, 90, 97, -121, 76, -3, -19, 21,
    -19, 127, 30, 81, 26, -79, -22, -102, -11, 93, 93, 64, -79, -26, -108, 127,
    92, 4, 33, -88, 44, 74, -11, 39, 116, 45, -84, 2, -47, 21, -73, -10,
    -17, 111, 54, 112, -61, -71, 109, 16, 21, 41, 4, -108, -37, 80, 117, -122,
    -11, 19, -62, -57, -108, 92, -11, -67, -20, -109, 102, 75, 85, -72, 5, 121,
    -73, 68, -31, -8, -48, -5, 62, -108, 80, 86, -2, 61, 1, 2, -58, -92,
    12, 5, 110, 75, 126, -80, 53, 18, 114, 64, -112, -37, 6, -119, -93, 70,
    43, 82, 16, -114, -69, 101, -43, 90, -14, 43, 19, -78, 109, -12, -7, 92,
    -103, -18, -102, -12, -45, 107, 29, 66, 104, 62, 75, -69, 109, -104, -128, -39,
    -84, -124, 103, 125, 35, 0, 98, 20, 11, 32, 122, -46, -79, 86, -88, 80,
    38, -93, 1, -3, 44, -26, 11, -93, -46, 107, 61, 107, 10, 122, 87, -108,
    25, -76, 7, 21, 98, 86, -27, -11, -27, 124, -100, 23, 91, -10, -14, -49,
    27, 13, 28, -46, -33, 66, 116, -128, 126, 53, 7, 120, 96, -86, -47, 4,
    34, -121, -97, 94, 55, -8, -5, -33, 96, 4, 44, 106, -127, -101, -107, 98,
    -73, -127, 107, -5, -35, 15, 12, -43, -122, 103, 0, -106, 18, 79, 36, 41,
    -45, 62, -103, 1, 49, 21, -19, 17, 68, 52, -97, -65, -14, 115, 54, -52,
    -80, -70, 34, 16, -7, -20, 53, -9, 96, 52, -47, 31, 19, 118, -98, -34,
    -36, -16, -21, 32, -6, -16, 82, -68, -69, 17, -24, -36, 90, -78, 15, -106,
    57, -63, -44, 74, 61, 82, -41, -115, 120, 34, -74, -116, -29, -110, -125, -71,
    -77, -69, 61, 49, 36, -23, -44, -107, -127, -59, 92, 116, 111, 68, 15, -90,
    -82, -90, -37, 78, 102, 63, 122, -97, 33, 6, 99, -67, 114, 3, 16, -33,
    49, -116, 1, 88, -92, 118, 120, -68, 2, -109, 86, 42, 0, 112, -96, -127,
    -86, 26, -92, -65, 53, 109, -20, -120, 34, 41, 27, -68, -37, -89, -12, 125,
    -83, -61, -127, 31, 115, 73, 65, -66, -61, -107, 40, 65, -4, 45, -13, -118,
    -107, -43, 33, -77, -10, -83, -62, 32, -100, -115, -26, 44, -127, -39, -72, 13,
    -24, 4, -64, -119, 110, 69, 11, -29, 104, -48, 11, 64, 18, 34, 59, 59,
    -84, -52, -69, -105, 7, -100, 94, 111, 38, 74, -75, 34, 46, 9, -9, -27,
    -107, -70, -96, 114, -9, -38, -107, -32, -3, 9, -5, -42, -105, 5, 33, 3,
    -19, 30, 78, -126, -84, 32, -122, -68, 104, -13, 62, -22, 97, 13, 9, -84,
    -57, 113, 36, 74, -36, 25, 0, -29, 109, -97, -115, 12, -11, -98, -47, 45,
    -104, 6, -66, -105, 16, 119, 71, -125, -62, -80, 92, 48, 118, 94, -19, -93,
    59, 112, -84, 107, 0, -84, 96, 78, 40, -74, 121, -100, -51, -7, -121, -43,
    -20, -70, -113, 119, 12, 87, -92, 15, 127, 76, -14, -68, 12, 85, -76, -114,
    -128, 110, 90, -104, -91, -2, 127, 12, -17, -108, -22, 84, 123, 87, -103, -121,
    -116, 90, -93, -39, 13, 99, -114, -75, 125, 75, -73, 53, -43, -35, 41, -14,
    21, -80, -102, -78, -96, 16, -104, 6, 68, -3, -87, 77, 106, -75, -108, -96,
    103, 119, -108, -99, 85, -19, 3, -11, 33, -41, 110, -91, -54, 68, 77, 71,
    -8, -32, 59, 35, 107, -5, 46, 52, -35, 127, 65, -19, 105, -128, -4, -34,
    -30, 36, -109, -67, -4, -42, -125, -1, -48, 28, 44, 22, -17, -14, 11, 76,
    78, 45, -100, 91, 37, 1, -33, -61, -54, -59, 21, 99, -64, -3, 101, -93,
    -63, -76, 70, 21, -7, 91, -112, 120, -12, -49, -7, 23, 90, -24, -3, 95,
    67, 98, -34, -23, -41, 70, 74, 95, -77, -105, -110, 42, -103, 118, -89, -6,
    112, -125, -32, 29, 30, 85, -116, -119, -36, 122, 16, -89, -62, 91, -78, 62,
    100, 56, 4, 92, -112, 73, -57, 74, 42, 28, -11, -13, 53, 79, -110, 119,
    127, 32, -123, -53, -84, 106, -88, -119, -103, 2, -11, -79, 66, -20, -108, 80,
    42, 27, 49, -108, 86, -26, -72, -42, -17, -15, 70, -12, 28, 31, 37, 42,
    -80, 116, -89, 35, 27, -98, 11, 102, -31, 121, 29, 46, -54, -117, -22, -64,
    78, 45, 62, -122, 82, -49, -47, 126, 126, -20, 15, 80, 43, -13, 48, -119,
    48, -38, 23, -116, -87, -128, -34, -99, 28, 52, 6, -123, -54, 50, -115, -5,
    -27, -99, -61, -4, -92, -87, -115, 56, -69, -38, -84, -83, 83, 52, -82, 109,
    113, 119, 105, -113, -106, 72, 102, 88, 82, 60, -127, -9, 118, 15, -13, 120,
    127, 37, 86, -94, -70, 97, 124, -16, 15, 50, 114, 13, -104, -55, -124, -24,
    13, -102, -28, -121, 5, -77, 102, 22, 97, 44, 63, 67, -14, 17, -93, 49,
    1, -72, -85, 38, -87, -72, -93, 103, 54, -87, -58, -92, 100, 88, 14, 23,
    -123, -43, 98, 45, 122, 3, 109, 103, -96, 15, 111, 119, 58, 101, -23, -22,
    77, -122, -70, -122, -108, 63, -9, 69, -76, -114, 68, 94, -51, -39, 1, 127,
    -70, 28, -98, 57, -39, -64, -86, -108, 124, 106, 115, 118, 120, 113, -115, 53,
    119, -28, 105, 117, -120, -4, -75, 103, 102, -57, -81, 61, -100, -37, 125, 100,
    18, -64, -79, 7, -29, -101, -19, 95, -25, 59, 114, 76, -63, 121, -37, -57,
    -60, 74, -85, 21, -118, -42, -125, -24, 115, 36, -14, -57, -123, 32, -110, 2,
    121, 33, -97, 92, -71, -6, -68, 120, 83, -60, 111, -78, 28, 104, 123, -61,
    -74, 96, 121, -65, 64, -59, -106, 41, 111, -25, 7, 60, 68, 98, 0, 66
};

int8_t input_unpacked[M_d * K_d] = {
    0, -109, 125, 110, -110, -119, -70, 44, -20, -21, 33, 43, -27, 2, -21, 53, -44, 60, 80, 68, 18, 2, 54, -76, 45, -121, 28, 122, -58, 61, -74, 109,
    -41, 27, -20, 55, 35, 65, 89, -45, -29, 90, 97, -121, 76, -3, -19, 21, -19, 127, 30, 81, 26, -79, -22, -102, -11, 93, 93, 64, -79, -26, -108, 127,
    92, 4, 33, -88, 44, 74, -11, 39, 116, 45, -84, 2, -47, 21, -73, -10, -17, 111, 54, 112, -61, -71, 109, 16, 21, 41, 4, -108, -37, 80, 117, -122,
    -11, 19, -62, -57, -108, 92, -11, -67, -20, -109, 102, 75, 85, -72, 5, 121, -73, 68, -31, -8, -48, -5, 62, -108, 80, 86, -2, 61, 1, 2, -58, -92,
    12, 5, 110, 75, 126, -80, 53, 18, 114, 64, -112, -37, 6, -119, -93, 70, 43, 82, 16, -114, -69, 101, -43, 90, -14, 43, 19, -78, 109, -12, -7, 92,
    -103, -18, -102, -12, -45, 107, 29, 66, 104, 62, 75, -69, 109, -104, -128, -39, -84, -124, 103, 125, 35, 0, 98, 20, 11, 32, 122, -46, -79, 86, -88, 80,
    38, -93, 1, -3, 44, -26, 11, -93, -46, 107, 61, 107, 10, 122, 87, -108, 25, -76, 7, 21, 98, 86, -27, -11, -27, 124, -100, 23, 91, -10, -14, -49,
    27, 13, 28, -46, -33, 66, 116, -128, 126, 53, 7, 120, 96, -86, -47, 4, 34, -121, -97, 94, 55, -8, -5, -33, 96, 4, 44, 106, -127, -101, -107, 98,
    -73, -127, 107, -5, -35, 15, 12, -43, -122, 103, 0, -106, 18, 79, 36, 41, -45, 62, -103, 1, 49, 21, -19, 17, 68, 52, -97, -65, -14, 115, 54, -52,
    -80, -70, 34, 16, -7, -20, 53, -9, 96, 52, -47, 31, 19, 118, -98, -34, -36, -16, -21, 32, -6, -16, 82, -68, -69, 17, -24, -36, 90, -78, 15, -106,
    57, -63, -44, 74, 61, 82, -41, -115, 120, 34, -74, -116, -29, -110, -125, -71, -77, -69, 61, 49, 36, -23, -44, -107, -127, -59, 92, 116, 111, 68, 15, -90,
    -82, -90, -37, 78, 102, 63, 122, -97, 33, 6, 99, -67, 114, 3, 16, -33, 49, -116, 1, 88, -92, 118, 120, -68, 2, -109, 86, 42, 0, 112, -96, -127,
    -86, 26, -92, -65, 53, 109, -20, -120, 34, 41, 27, -68, -37, -89, -12, 125, -83, -61, -127, 31, 115, 73, 65, -66, -61, -107, 40, 65, -4, 45, -13, -118,
    -107, -43, 33, -77, -10, -83, -62, 32, -100, -115, -26, 44, -127, -39, -72, 13, -24, 4, -64, -119, 110, 69, 11, -29, 104, -48, 11, 64, 18, 34, 59, 59,
    -84, -52, -69, -105, 7, -100, 94, 111, 38, 74, -75, 34, 46, 9, -9, -27, -107, -70, -96, 114, -9, -38, -107, -32, -3, 9, -5, -42, -105, 5, 33, 3,
    -19, 30, 78, -126, -84, 32, -122, -68, 104, -13, 62, -22, 97, 13, 9, -84, -57, 113, 36, 74, -36, 25, 0, -29, 109, -97, -115, 12, -11, -98, -47, 45,
    -104, 6, -66, -105, 16, 119, 71, -125, -62, -80, 92, 48, 118, 94, -19, -93, 59, 112, -84, 107, 0, -84, 96, 78, 40, -74, 121, -100, -51, -7, -121, -43,
    -20, -70, -113, 119, 12, 87, -92, 15, 127, 76, -14, -68, 12, 85, -76, -114, -128, 110, 90, -104, -91, -2, 127, 12, -17, -108, -22, 84, 123, 87, -103, -121,
    -116, 90, -93, -39, 13, 99, -114, -75, 125, 75, -73, 53, -43, -35, 41, -14, 21, -80, -102, -78, -96, 16, -104, 6, 68, -3, -87, 77, 106, -75, -108, -96,
    103, 119, -108, -99, 85, -19, 3, -11, 33, -41, 110, -91, -54, 68, 77, 71, -8, -32, 59, 35, 107, -5, 46, 52, -35, 127, 65, -19, 105, -128, -4, -34,
    -30, 36, -109, -67, -4, -42, -125, -1, -48, 28, 44, 22, -17, -14, 11, 76, 78, 45, -100, 91, 37, 1, -33, -61, -54, -59, 21, 99, -64, -3, 101, -93,
    -63, -76, 70, 21, -7, 91, -112, 120, -12, -49, -7, 23, 90, -24, -3, 95, 67, 98, -34, -23, -41, 70, 74, 95, -77, -105, -110, 42, -103, 118, -89, -6,
    112, -125, -32, 29, 30, 85, -116, -119, -36, 122, 16, -89, -62, 91, -78, 62, 100, 56, 4, 92, -112, 73, -57, 74, 42, 28, -11, -13, 53, 79, -110, 119,
    127, 32, -123, -53, -84, 106, -88, -119, -103, 2, -11, -79, 66, -20, -108, 80, 42, 27, 49, -108, 86, -26, -72, -42, -17, -15, 70, -12, 28, 31, 37, 42,
    -80, 116, -89, 35, 27, -98, 11, 102, -31, 121, 29, 46, -54, -117, -22, -64, 78, 45, 62, -122, 82, -49, -47, 126, 126, -20, 15, 80, 43, -13, 48, -119,
    48, -38, 23, -116, -87, -128, -34, -99, 28, 52, 6, -123, -54, 50, -115, -5, -27, -99, -61, -4, -92, -87, -115, 56, -69, -38, -84, -83, 83, 52, -82, 109,
    113, 119, 105, -113, -106, 72, 102, 88, 82, 60, -127, -9, 118, 15, -13, 120, 127, 37, 86, -94, -70, 97, 124, -16, 15, 50, 114, 13, -104, -55, -124, -24,
    13, -102, -28, -121, 5, -77, 102, 22, 97, 44, 63, 67, -14, 17, -93, 49, 1, -72, -85, 38, -87, -72, -93, 103, 54, -87, -58, -92, 100, 88, 14, 23,
    -123, -43, 98, 45, 122, 3, 109, 103, -96, 15, 111, 119, 58, 101, -23, -22, 77, -122, -70, -122, -108, 63, -9, 69, -76, -114, 68, 94, -51, -39, 1, 127,
    -70, 28, -98, 57, -39, -64, -86, -108, 124, 106, 115, 118, 120, 113, -115, 53, 119, -28, 105, 117, -120, -4, -75, 103, 102, -57, -81, 61, -100, -37, 125, 100,
    18, -64, -79, 7, -29, -101, -19, 95, -25, 59, 114, 76, -63, 121, -37, -57, -60, 74, -85, 21, -118, -42, -125, -24, 115, 36, -14, -57, -123, 32, -110, 2,
    121, 33, -97, 92, -71, -6, -68, 120, 83, -60, 111, -78, 28, 104, 123, -61, -74, 96, 121, -65, 64, -59, -106, 41, 111, -25, 7, 60, 68, 98, 0, 66
};

int8_t weights[1024] = {
    -97, 29, -8, 66, -90, -36, 13, -91, -30, 81, 45, -43, 94, 89, 78, 94,
    58, -122, 73, -118, -14, 48, -42, 1, 90, -90, 36, 81, -6, 78, 79, 116,
    -4, -7, 95, -96, 56, 76, 66, 99, -88, 49, 17, -99, -57, -36, 11, 114,
    -33, -63, 86, -86, -89, -88, 77, -82, 120, -86, 57, -56, 46, 15, 43, 85,
    -5, 105, 84, 3, 18, 58, 97, 92, -11, -104, -100, -119, 96, 84, 0, 114,
    -116, -82, 16, 56, -125, 55, -56, 38, 64, 118, 4, -37, -123, -98, -40, -34,
    48, 116, 66, -19, -50, 15, -66, 22, -125, 103, -83, 67, -123, 118, -22, -88,
    8, -113, 36, 87, 36, -114, -122, 127, 42, 108, -55, 45, 66, -24, 99, 56,
    65, 14, -84, 82, -62, -80, 109, -42, 123, -57, -113, -39, 23, -33, -69, 107,
    -68, 62, -3, -98, 21, -65, -33, 54, -49, 97, 4, 77, -19, 38, -57, -43,
    35, -11, -62, -38, 24, -92, 108, 109, 112, 91, 51, -79, 43, -111, -120, -45,
    19, -124, 51, 54, -77, 119, 104, -47, -58, -74, -53, 58, 36, -119, 28, -121,
    -97, -106, -87, -35, -8, 54, -18, 51, 21, -120, 95, 106, 72, 125, 37, -101,
    26, -86, -52, 9, 75, 72, -11, -116, 93, -116, -10, -79, -11, -114, 116, 39,
    -76, 112, 55, 1, -8, -96, 102, 119, 69, 1, -63, 82, -4, 91, -19, -112,
    -122, 45, 85, 88, -42, -47, 5, 66, -12, 43, -61, -70, -9, -2, 9, -70,
    -75, 55, 110, 90, 98, 68, -7, 92, -83, 11, 36, -128, -50, 99, -101, -125,
    52, 122, -99, -122, 108, 67, 51, -79, 106, -32, 28, 126, 87, -98, 35, 121,
    37, -103, -78, 87, -57, 74, -52, 19, 124, 86, -125, -19, -102, -40, 56, -95,
    47, 1, -115, 41, 44, -55, -75, -127, 54, 68, -18, 116, 79, -43, 54, -24,
    -46, -126, -124, 5, -66, 18, -74, -17, -23, 4, 41, 112, 42, 77, -27, 8,
    78, -113, -12, 80, 32, 69, -56, 46, 24, -112, -100, 84, -90, 106, -22, -89,
    14, -84, -7, -43, -127, -72, 0, -47, -48, 43, 18, -108, 101, -8, 16, -115,
    65, 90, -110, -39, 24, 96, -102, 127, -114, 85, 92, 59, -71, -12, 1, -20,
    -8, -113, 82, 76, -62, -77, 49, 45, -70, 80, -59, -103, 15, -126, -121, -55,
    46, -21, -80, 20, -118, -28, -24, -92, 102, -41, -28, -35, -124, -5, 11, -79,
    -127, 21, 81, -92, 44, 3, 99, -125, -88, 49, 4, -27, 66, -122, -77, 48,
    29, -126, -25, 37, -74, -53, -36, 125, 113, 88, -14, -99, 53, -88, -13, -105,
    32, -93, 122, -109, -125, -85, -51, -86, 80, 122, -57, -9, 80, -128, -68, 77,
    -12, 44, -127, 36, -104, -29, 106, 34, -120, 56, 26, -60, -88, -126, 35, 114,
    -23, 96, 127, 119, -103, 69, -35, -35, 62, -44, -113, 18, 56, -2, 21, -19,
    -118, 94, 56, -50, -121, 45, -47, -55, 75, 105, 83, 109, -67, -13, 108, 77,
    85, 3, 57, 87, 55, -111, -127, -80, 19, -87, -117, -22, 4, 33, -70, -31,
    -53, 34, 5, 114, -51, -49, 78, 40, 15, 2, -61, 72, 121, 10, 83, 105,
    3, -58, -114, -122, -117, 26, -107, 80, -14, -26, 5, 14, -88, -100, 64, -107,
    109, -123, -43, 112, -47, -48, -76, 93, 113, -60, 77, 49, 30, -47, 20, 74,
    -25, -77, 11, -29, -87, -116, 2, -8, 107, 14, 16, 89, 0, -51, 68, 13,
    -113, 72, -37, 106, -72, -20, -10, -15, -17, 28, 42, -58, -10, 71, -78, -114,
    -81, -93, -7, 121, -126, 127, 125, -47, -85, -112, 51, -93, -50, 104, 63, 105,
    94, -9, -67, -36, 93, -37, -64, 25, -21, 68, 121, 116, 79, -14, -94, -103,
    -98, -69, -22, 121, -79, -69, -85, 13, 113, 71, -73, 4, 72, 0, -47, 30,
    78, 50, 11, 19, 56, -43, 45, 79, 106, 20, 49, 122, 116, 77, 98, 20,
    -15, -93, -105, -125, -35, -60, 11, -77, 9, -34, 40, 38, 106, -70, -51, 120,
    64, 9, -127, -89, -118, -124, 88, -53, 116, -9, 113, -83, -29, -13, 49, 57,
    -106, -111, -124, 85, -34, 70, -114, 48, -94, 120, -111, 100, -18, 93, -37, 108,
    -62, 108, 55, 23, 21, 76, 88, 67, -74, 66, -10, -98, 95, 33, -64, -29,
    -101, -86, 84, -73, 47, 94, -54, -116, -92, 72, 85, -3, -89, 65, -123, 40,
    87, -101, -87, 58, 106, 106, -118, -125, -15, -9, 40, -52, 117, -58, -22, -115,
    -15, -15, -55, -36, -97, 101, 109, -123, -114, -111, -52, 119, 102, 45, 56, 18,
    -75, -25, -37, -77, -102, 85, 21, 73, 57, 45, 91, 23, 120, -119, 124, -111,
    -79, -47, 21, 48, -77, -22, 61, -47, 100, 2, 86, -99, -11, 104, -111, -31,
    7, -24, 61, -127, 21, -94, -63, 102, -124, -69, -56, -111, -126, -56, -10, 37,
    -101, -87, 75, 50, 107, 66, 29, -25, -17, 124, 100, -4, -103, 68, -120, 108,
    15, 76, -50, 70, 50, 84, 103, 47, 37, 72, -42, 29, -74, -40, -104, 44,
    103, 37, -49, -54, 56, 62, -53, 54, -26, -71, -71, -99, 2, -69, 53, 10,
    -82, -82, -105, -10, 91, 123, 45, -9, -110, 0, -63, 25, -123, -74, 117, 120,
    -52, 124, -111, 71, -40, -63, -29, 18, -41, -12, 122, -39, -43, 17, 124, -25,
    -58, -107, 89, 83, -58, 25, 116, -105, 87, -28, 105, 91, 22, 104, -73, -79,
    5, -87, 13, -10, 65, 93, 56, 123, -17, -32, 110, 117, -22, -59, -78, 118,
    -108, 47, 1, 40, -54, -117, 67, -128, 94, 3, 62, -1, -99, -30, 106, -109,
    -86, -17, 4, -84, 119, 67, 75, 45, 12, 38, 9, 107, 92, 111, 79, -73,
    50, -57, -70, 59, -118, -86, 101, 41, 35, 29, 12, 33, 123, 100, 54, -75,
    17, -119, -119, 111, 97, -6, 23, -27, -28, 103, -63, 3, -107, -57, -19, -45,
    -37, -11, -32, 84, -21, 13, -103, -65, 79, 82, 5, -67, -101, 102, -19, 70
};

int8_t weights_unpacked[N_d * K_d] = {
    -97, 29, -8, 66, -90, -36, 13, -91, -30, 81, 45, -43, 94, 89, 78, 94, 58, -122, 73, -118, -14, 48, -42, 1, 90, -90, 36, 81, -6, 78, 79, 116,
    -4, -7, 95, -96, 56, 76, 66, 99, -88, 49, 17, -99, -57, -36, 11, 114, -33, -63, 86, -86, -89, -88, 77, -82, 120, -86, 57, -56, 46, 15, 43, 85,
    -5, 105, 84, 3, 18, 58, 97, 92, -11, -104, -100, -119, 96, 84, 0, 114, -116, -82, 16, 56, -125, 55, -56, 38, 64, 118, 4, -37, -123, -98, -40, -34,
    48, 116, 66, -19, -50, 15, -66, 22, -125, 103, -83, 67, -123, 118, -22, -88, 8, -113, 36, 87, 36, -114, -122, 127, 42, 108, -55, 45, 66, -24, 99, 56,
    65, 14, -84, 82, -62, -80, 109, -42, 123, -57, -113, -39, 23, -33, -69, 107, -68, 62, -3, -98, 21, -65, -33, 54, -49, 97, 4, 77, -19, 38, -57, -43,
    35, -11, -62, -38, 24, -92, 108, 109, 112, 91, 51, -79, 43, -111, -120, -45, 19, -124, 51, 54, -77, 119, 104, -47, -58, -74, -53, 58, 36, -119, 28, -121,
    -97, -106, -87, -35, -8, 54, -18, 51, 21, -120, 95, 106, 72, 125, 37, -101, 26, -86, -52, 9, 75, 72, -11, -116, 93, -116, -10, -79, -11, -114, 116, 39,
    -76, 112, 55, 1, -8, -96, 102, 119, 69, 1, -63, 82, -4, 91, -19, -112, -122, 45, 85, 88, -42, -47, 5, 66, -12, 43, -61, -70, -9, -2, 9, -70,
    -75, 55, 110, 90, 98, 68, -7, 92, -83, 11, 36, -128, -50, 99, -101, -125, 52, 122, -99, -122, 108, 67, 51, -79, 106, -32, 28, 126, 87, -98, 35, 121,
    37, -103, -78, 87, -57, 74, -52, 19, 124, 86, -125, -19, -102, -40, 56, -95, 47, 1, -115, 41, 44, -55, -75, -127, 54, 68, -18, 116, 79, -43, 54, -24,
    -46, -126, -124, 5, -66, 18, -74, -17, -23, 4, 41, 112, 42, 77, -27, 8, 78, -113, -12, 80, 32, 69, -56, 46, 24, -112, -100, 84, -90, 106, -22, -89,
    14, -84, -7, -43, -127, -72, 0, -47, -48, 43, 18, -108, 101, -8, 16, -115, 65, 90, -110, -39, 24, 96, -102, 127, -114, 85, 92, 59, -71, -12, 1, -20,
    -8, -113, 82, 76, -62, -77, 49, 45, -70, 80, -59, -103, 15, -126, -121, -55, 46, -21, -80, 20, -118, -28, -24, -92, 102, -41, -28, -35, -124, -5, 11, -79,
    -127, 21, 81, -92, 44, 3, 99, -125, -88, 49, 4, -27, 66, -122, -77, 48, 29, -126, -25, 37, -74, -53, -36, 125, 113, 88, -14, -99, 53, -88, -13, -105,
    32, -93, 122, -109, -125, -85, -51, -86, 80, 122, -57, -9, 80, -128, -68, 77, -12, 44, -127, 36, -104, -29, 106, 34, -120, 56, 26, -60, -88, -126, 35, 114,
    -23, 96, 127, 119, -103, 69, -35, -35, 62, -44, -113, 18, 56, -2, 21, -19, -118, 94, 56, -50, -121, 45, -47, -55, 75, 105, 83, 109, -67, -13, 108, 77,
    85, 3, 57, 87, 55, -111, -127, -80, 19, -87, -117, -22, 4, 33, -70, -31, -53, 34, 5, 114, -51, -49, 78, 40, 15, 2, -61, 72, 121, 10, 83, 105,
    3, -58, -114, -122, -117, 26, -107, 80, -14, -26, 5, 14, -88, -100, 64, -107, 109, -123, -43, 112, -47, -48, -76, 93, 113, -60, 77, 49, 30, -47, 20, 74,
    -25, -77, 11, -29, -87, -116, 2, -8, 107, 14, 16, 89, 0, -51, 68, 13, -113, 72, -37, 106, -72, -20, -10, -15, -17, 28, 42, -58, -10, 71, -78, -114,
    -81, -93, -7, 121, -126, 127, 125, -47, -85, -112, 51, -93, -50, 104, 63, 105, 94, -9, -67, -36, 93, -37, -64, 25, -21, 68, 121, 116, 79, -14, -94, -103,
    -98, -69, -22, 121, -79, -69, -85, 13, 113, 71, -73, 4, 72, 0, -47, 30, 78, 50, 11, 19, 56, -43, 45, 79, 106, 20, 49, 122, 116, 77, 98, 20,
    -15, -93, -105, -125, -35, -60, 11, -77, 9, -34, 40, 38, 106, -70, -51, 120, 64, 9, -127, -89, -118, -124, 88, -53, 116, -9, 113, -83, -29, -13, 49, 57,
    -106, -111, -124, 85, -34, 70, -114, 48, -94, 120, -111, 100, -18, 93, -37, 108, -62, 108, 55, 23, 21, 76, 88, 67, -74, 66, -10, -98, 95, 33, -64, -29,
    -101, -86, 84, -73, 47, 94, -54, -116, -92, 72, 85, -3, -89, 65, -123, 40, 87, -101, -87, 58, 106, 106, -118, -125, -15, -9, 40, -52, 117, -58, -22, -115,
    -15, -15, -55, -36, -97, 101, 109, -123, -114, -111, -52, 119, 102, 45, 56, 18, -75, -25, -37, -77, -102, 85, 21, 73, 57, 45, 91, 23, 120, -119, 124, -111,
    -79, -47, 21, 48, -77, -22, 61, -47, 100, 2, 86, -99, -11, 104, -111, -31, 7, -24, 61, -127, 21, -94, -63, 102, -124, -69, -56, -111, -126, -56, -10, 37,
    -101, -87, 75, 50, 107, 66, 29, -25, -17, 124, 100, -4, -103, 68, -120, 108, 15, 76, -50, 70, 50, 84, 103, 47, 37, 72, -42, 29, -74, -40, -104, 44,
    103, 37, -49, -54, 56, 62, -53, 54, -26, -71, -71, -99, 2, -69, 53, 10, -82, -82, -105, -10, 91, 123, 45, -9, -110, 0, -63, 25, -123, -74, 117, 120,
    -52, 124, -111, 71, -40, -63, -29, 18, -41, -12, 122, -39, -43, 17, 124, -25, -58, -107, 89, 83, -58, 25, 116, -105, 87, -28, 105, 91, 22, 104, -73, -79,
    5, -87, 13, -10, 65, 93, 56, 123, -17, -32, 110, 117, -22, -59, -78, 118, -108, 47, 1, 40, -54, -117, 67, -128, 94, 3, 62, -1, -99, -30, 106, -109,
    -86, -17, 4, -84, 119, 67, 75, 45, 12, 38, 9, 107, 92, 111, 79, -73, 50, -57, -70, 59, -118, -86, 101, 41, 35, 29, 12, 33, 123, 100, 54, -75,
    17, -119, -119, 111, 97, -6, 23, -27, -28, 103, -63, 3, -107, -57, -19, -45, -37, -11, -32, 84, -21, 13, -103, -65, 79, 82, 5, -67, -101, 102, -19, 70
};

int32_t bias[N_d] = {
    0, 0, 0, 0, 0, 0, 0, 0, 0, 0, 0, 0, 0, 0, 0, 0,
    0, 0, 0, 0, 0, 0, 0, 0, 0, 0, 0, 0, 0, 0, 0, 0
};

int16_t golden[M_d * N_d] = {
    35066, 13139, -32804, -25245, -3695, -17456, -5726, -8655, 21503, -7881, 29045, -17103, 34924, -76234, 18863, 37547,
    44406, -1464, 31548, 457, 46740, -11246, 8509, -29293, -63961, -4634, 31006, -30930, 41175, 23504, -53093, 4649,
    9929, 13739, 22622, -30762, 16695, -23335, -37934, -19845, 47864, -319, -47597, 23810, 7271, -4793, 15507, 30581,
    -23970, -40231, -8742, 42941, -7216, 7130, -9664, -4641, -48214, 12660, 62222, -16396, 20199, 19965, -24162, 37581,
    -77849, 19528, 12994, 11470, 2342, 17293, -35230, 56965, -45032, 9488, -26105, -38016, 13029, 20, 31379, 9472,
    27584, -19095, 35596, -70583, 8096, 7106, 22928, -27964, -18073, -15851, 4599, -15060, -25834, 65094, 44143, 10855,
    -9708, -1673, 19398, -65069, 25197, -16672, 8229, -31315, -38163, -9806, 10948, -16572, -12556, 18214, 6339, 34063,
    -29508, -13962, 39817, 43069, -11860, 67231, 6837, 996, 74020, -52945, -241, -20210, 44114, 74022, 4060, -30378,
    -6159, 18768, 14837, -27490, 48206, 26107, -77090, 7525, 30892, -12897, -82008, 5617, 18828, 33752, 54164, 30565,
    34080, -54246, -9429, -46089, 34883, 264, 13356, -21411, -24413, 11950, 24238, -10955, -81677, -40953, -27066, 14223,
    6371, 19982, 22919, -43641, -770, 57665, 5959, 10777, -39875, -25588, 18573, -9613, 10018, 21936, 19539, -8719,
    -38952, 29826, 16712, -21646, 21102, 18458, 19041, -19344, -45692, 26327, 28733, 149, 55396, 28554, 3849, 32824,
    4807, -60024, -46784, 52827, -35091, -1731, 33939, 1921, -4071, 30587, 44823, 24879, -40028, 5393, -35972, -44736,
    -5289, -16323, 412, 15969, -6463, -56080, 30409, 68888, 24364, -20420, 25005, -16868, -1780, -46839, 42949, 19045,
    13829, -25335, 17462, -12719, 12127, 23640, 22662, -29458, -23259, 26490, 25823, 2147, 17048, 46402, 66599, 16571,
    -27049, 33598, 5892, -309, -3763, 46232, -76642, 14990, 7551, -9575, 35017, 9943, -16902, 14041, -1496, 15116,
    24134, 15369, 7582, 13115, -20433, -53887, -7742, -9511, 23781, 1759, 18632, 39130, 47468, 35704, 13135, -7982,
    -12054, -41660, 11975, 36680, 14899, -2944, 42490, 52331, 2993, 7372, 53055, -12182, -32179, -937, 16322, 29728,
    -30192, -19873, -570, -9082, 7188, 53251, 27155, 49021, 8201, 24353, -2152, -16401, 11295, 14512, 26018, -12912,
    13914, -49285, 25532, 5728, 20899, -5974, 41366, 46625, 20863, 28057, 25371, -37969, -18874, 16407, 42547, -19798,
    -24031, -18209, -48775, -24139, 39493, 59235, -43631, -37436, -7638, 78156, -862, -6408, 11791, -23671, -14739, 7289,
    40811, -9919, 1844, 11990, 29283, -42425, -10394, 47021, -26377, -6460, -29785, 5415, 17856, -6303, -21244, 32063,
    37149, 4168, 1702, -112650, -26336, 77522, 28159, -32041, -16055, -23796, 59035, -6937, 31109, 28169, -44491, -40145,
    -34773, -26770, 18385, 48099, -2859, 12368, -12964, 45893, 20269, -14524, 33854, -40087, 91716, 14161, 70958, 14929,
    1824, -1471, -26826, -70567, 2303, 31672, 661, -65246, -10803, 12507, 33899, -14422, -19885, 13691, -2822, -47344,
    -40059, -16554, 5850, 33953, -13284, 11895, 10309, 80682, 6202, -27230, 34750, 47221, 37154, 21491, -6067, -2783,
    16856, 26338, -41214, 3532, -17383, -34378, 41900, -29130, 75536, -4604, 11324, -8606, 6448, -11750, -23258, -126,
    10196, 27368, -24525, 4826, 19691, 23995, -3434, 36494, 8458, -23876, 10598, 23766, -7366, 12076, -31268, -5677,
    -19794, -10009, 40157, 13248, 4323, 33249, 34388, 59023, -55777, 17997, 26474, 14537, 44292, 22284, 33027, -20415,
    -29283, 29274, 50850, -47963, -12440, 22173, -9108, -7654, -18033, 6048, -14898, 17915, -15934, 30498, 27701, 53257,
    -4793, -10816, 1899, -15676, -43397, 4201, 41388, 14969, 14863, -6584, 6021, -977, -3578, -3290, 42476, 35441,
    26612, 22528, 20619, -65947, -2461, 2101, -34767, -7281, -10979, 7890, -2327, -7853, -8681, -14583, -15458, -48873,
    -28133, -20827, -6559, -46019, -39330, -47560, 54297, 6342, -3226, -63065, 24876, 25715, -22886, 49909, -3897, -49092,
    -39061, 15145, 18978, 45111, -28500, 68294, 9632, 26063, 53222, 17857, 31649, -56039, 9306, 19198, 71734, -25697,
    -9485, -12839, -49576, -57486, 33550, 40829, -24320, 19272, 34942, 33469, 19763, -20369, -11199, -70523, -53279, 11850,
    29792, -44327, 18564, -2349, 56096, -38024, 84098, -37069, -9156, 22425, 8405, -58404, 48952, -6836, 28607, -7903,
    6690, -32188, -6974, 19813, 3093, 9367, 1404, -15622, -9236, 74277, 30976, -20973, -19053, 46010, -21683, 5263,
    -20716, 47490, 4738, 4973, 13950, -2850, 10039, 46259, 32172, -25791, -12925, -24266, 8571, -44969, 31927, -4575,
    -28582, -5, 21530, 21328, 9144, 19446, -9929, -3630, -6662, -19409, -53055, -9775, -101873, 8190, -33849, -52429,
    -4615, 1387, -22527, 26886, -34239, -15028, -11791, 12065, 15325, -15817, -1372, 30470, 35290, -16008, -1853, -42376,
    -941, -36455, -44689, -2520, -22296, 8460, 20175, -38608, -12565, 25358, 55602, 24163, -70, -24920, 6930, -30954,
    -10640, 36805, 7958, 1099, 13826, 23036, 1119, 40753, -11863, -38425, -4509, 25078, 22070, 25258, -2516, -5574,
    -3042, -10851, 609, -65086, -9659, -17572, -13447, -20471, -2539, -44950, 62563, 13178, 9627, -40801, 19563, -8000,
    -10156, -19462, 4716, -1185, 15624, -10707, 55297, -31599, -40824, 8697, 43121, 15317, -31248, 4766, 4401, -32522,
    15479, -1565, -21992, 26227, -18657, -39320, -49633, -69283, 4416, 17392, 34023, 23870, 4497, -3430, 20875, -20670,
    40142, 23367, -16211, 14087, 19052, -602, 64064, 52413, -39597, -5042, 76754, -30166, -23938, -52252, -13881, 66390,
    36604, 13895, -31030, 4794, 24878, -41916, -14903, -88971, 2390, -2806, 2499, 28913, -20773, -11773, -467, 1176,
    -8866, 5280, -55784, 28574, 566, 43848, 13204, 30916, 25267, 8306, -39309, 23820, -24774, -19796, -63928, -7751,
    18374, -2646, -55651, 42316, 13053, 30027, -27062, 27243, 39734, 14016, 3461, 6507, 10999, 32404, -68669, -21017,
    -35100, 35146, -19514, -8832, 60428, -14684, -3380, -24849, -8695, -8087, -15129, -52341, 25545, -987, 4972, -5798,
    11988, 8364, -13838, 45017, 16506, 2691, -42891, -4704, -45075, -13164, 1201, 28489, 23953, 36141, 68611, -51417,
    37265, 30215, 15579, -28381, -16528, 25851, -24598, 28685, -49922, 74069, -17945, -17788, -40819, -79647, -25625, 8501,
    10618, 43046, 89238, -45065, 39922, 40408, -59544, 4765, -11811, -43475, -48176, 15910, 7871, 3517, 65935, 54199,
    -57697, -37265, -8505, 458, -15948, 27148, -10026, -51301, 21887, -12249, 3380, -1185, -14050, -426, -9072, -68999,
    934, 22445, -23505, 11696, 3098, 29846, 16578, 21602, -65627, -13650, 38692, -17412, 17427, 53420, 23883, -75792,
    -2206, 43518, 40712, -32730, 11427, 62083, -16088, 18308, -6109, 32147, -3384, -52151, -41953, 14818, 54391, 16766,
    67554, 34357, 10091, -6905, -54830, 16164, 58073, -8454, 73340, -67480, 28751, 12275, 3068, 7390, -12692, -11121,
    -39565, -3590, -53672, 21095, -20984, 9373, -24635, 18960, 23520, 40053, 43715, -1115, -14645, 9324, 60996, -26290,
    93430, -48245, -13974, 40879, -17219, 21018, 46214, 12289, -43913, -19346, 95376, -7335, -3081, 17249, 27652, 25779,
    36071, 35141, -9496, -63309, 79054, 37365, -1356, -17403, -9995, 53817, 27353, -53895, -635, -7294, 14390, 7794,
    -20724, -19012, 7627, 13987, -6876, -28648, 23044, 37074, -12933, 4858, 39089, 16210, 46977, -23137, -13856, -12586,
    -30552, 24856, 56208, -20129, -24927, 26965, 13392, -9552, -39596, 20239, 29463, -55741, 17430, 40422, 140, 71786,
    41125, -4299, -17208, 17109, 27035, -49950, 13492, 11582, 27778, 24017, 100, 1318, -59677, -106787, -105292, 35217,
    16033, 23882, -4477, 19660, 43000, -42747, -15868, -91776, -31415, 11133, -62787, -19341, 54323, -23630, -22517, -7043
};

#endif  // __ARRAY_MODE2_8B_8B_32_32_32_RANDOM_H__
