#ifndef __ARRAY_MODE9_16B_8B_32_32_32_RANDOM_H__
#define __ARRAY_MODE9_16B_8B_32_32_32_RANDOM_H__

#include <stdint.h>

// Pattern type      : random
// Input  bitwidth   : 16
// Weights bitwidth  : 8

#define M_d 32
#define K_d 32
#define N_d 32

#define I_TYPE int16_t
#define W_TYPE int8_t
#define C_TYPE int32_t

const int16_t zp_input   = 0;
const int8_t zp_weights = 0;

int16_t input[1024] = {
    -9635, 15581, -1995, 16053, 8078, 9782, 10106, 5748, -1915, -2107, -3023, 5826, -10318, -1064, 2710, -11109,
    16104, 1420, 4372, 12175, -8388, -10618, 4012, -8948, -5774, -15912, -13290, 562, -15558, 9989, 6106, -14389,
    7216, -4145, -15997, 4217, -9622, 704, 8674, 5661, 9695, 11577, 12903, 12752, -5854, -12635, 8082, 6677,
    -7020, 5591, 6179, 10974, 6499, -3433, 8292, -5802, 3565, 12764, -8581, 14322, -7893, 15634, -3263, -9978,
    -13245, -9088, -7096, -15685, 4630, -1701, 7809, 7709, -3705, 1573, 9242, 9931, -6766, -3857, -5713, 11454,
    9623, -5352, 13781, -10033, -89, -1301, -3356, 13214, -9793, 13659, -536, 4452, -7476, 13252, -11461, -14109,
    -15483, -11470, 8530, 14558, 4590, -9591, 3787, -4964, 2957, 11409, 10213, -10255, 4790, 8974, 11453, -3583,
    -11672, -11807, 563, 7757, 13176, -5377, -8475, 2379, -920, -13521, -352, 10480, -2771, 15300, -5729, 2457,
    -13114, 4375, -2253, 12363, -10279, 13736, -8158, -8669, -9335, 7728, -9936, -2037, 6367, -15463, 3186, 830,
    -7793, -11637, -7871, -12680, -1473, -860, 4041, 6524, -7541, -3955, -13360, 5529, -4132, 13518, 12260, -6560,
    -1566, 3534, -7619, -845, -4263, 12589, -13391, 15259, 11873, 7424, 7585, 6045, 8395, 10132, 9888, 4200,
    -1186, -1237, -15557, -3202, -14366, 15508, 11805, 196, -9640, 6866, 378, 13908, -6093, 5348, -12580, 5107,
    -874, 13121, 5776, 10084, 12002, 6187, 6748, 5301, 13805, -7318, 9859, -14150, 15768, 11300, 9731, -10874,
    16245, -1393, -14279, -14562, 6128, -6533, -3832, -9264, 4380, 8959, -14888, -14541, -12511, -3973, -15054, 9873,
    2460, -10405, 13724, 14676, -2856, -4289, -9214, -8869, -5496, -5809, -2045, -12557, -15431, 1177, -4023, -2394,
    4871, -12917, -10224, -333, 8786, 10430, 15421, 9333, 1207, -4251, -14180, -3292, 5135, -9569, -3257, 11177,
    11431, 15279, -9270, 15070, -7660, -1454, -9636, -3915, 88, 6605, -7288, 14711, 5564, 9610, -5229, -3212,
    -9317, 11362, 12983, 8494, 3814, -8156, 9570, 6675, -15206, 15209, -10597, -7425, 16191, 16225, -4442, -15085,
    5053, 8651, -15906, -6892, 9543, -14732, 6485, -12720, -9194, -502, 1567, 2858, -4858, 9747, -2404, -15813,
    13891, -12304, 4138, 6563, 5490, -6438, 6446, 2039, 15439, -10586, -8729, -1180, -340, 5247, -16257, 15476,
    -12626, -1864, -9968, 10381, 6657, 11374, -5286, -16022, -6708, 11508, -12798, -14632, -2462, 4185, 14635, 3909,
    4071, 11715, 1539, 7625, 12804, 15220, -3245, 5727, 13759, -12069, -16093, -12448, 14260, 10961, -13261, 7299,
    -2980, 5554, 2087, 10906, -3872, -4221, -8527, 4330, -5101, -7641, 5170, 8749, -3502, -7289, 2795, -3018,
    -11107, 16181, 11460, -10465, 5243, -4479, -14052, 9033, 8205, 5185, -12203, -13109, -12487, 14101, -13302, -12260,
    -14390, 11592, -10701, 9068, 6960, 8969, 13923, -15722, 14200, 3559, -14468, -10837, 661, 4054, 12563, 4778,
    644, 12110, -7262, 636, -5422, 9213, 2486, 7129, -9900, 5255, -10082, -6228, -1365, 11991, -8425, 10232,
    -15053, 15792, -2893, 6892, 838, 2858, 3512, 1333, -15494, 3990, -3689, -10440, 6149, 15847, -13464, -4877,
    10682, 8468, -9471, -9817, 4213, -10396, 15827, 3745, 10855, -2691, 11891, 10535, -1946, -4601, -14893, -8152,
    1994, -1840, 9553, 13896, -9546, -14473, -7374, 3073, -388, 2586, -14136, 10301, 3503, -14034, 6328, 4794,
    8786, -11501, 5586, -7415, 8542, 4680, -12529, 14052, -1515, 2223, 2461, 13709, 12621, -4905, 6985, -2804,
    5325, 13998, -15456, 8472, -11433, -920, 10007, 9797, 1860, 6723, 9749, 2674, -6940, 87, 12406, 167,
    -6333, 11893, 4938, -3174, -8050, -2682, -8624, 1702, 9735, 14485, -8471, -6324, 6484, 3212, 4347, -9251,
    -2299, 134, 15232, 2917, -8294, 3435, 1733, -14953, 11403, -12490, 9017, 278, 11966, 5315, -7581, 11064,
    671, -5174, 1930, -15422, 7001, 3453, 11475, 10979, 2924, -3957, -7871, 15105, 2026, -11883, 3888, -13237,
    -981, -4571, -15600, -14005, -16363, -9785, 11802, -15392, 15349, -2242, 172, 2682, 5969, -9613, -14426, -3102,
    2330, 15534, -12640, 5686, 4406, -13550, 3110, -10381, -9500, -917, 15907, 6532, 8616, -7556, 847, -2486,
    -4340, -793, 6204, 14722, -4355, 10311, -3696, 6216, -13720, 7963, 3756, 2781, -9418, 16170, -11542, 1054,
    12475, 10064, -13467, -2802, -192, -15912, -15908, -12784, -2950, 3293, 10064, 9928, -14367, -11316, 16121, 4844,
    7353, -11344, -1266, -9666, 8308, -9377, -3468, -15110, -14978, -12060, -11531, -12916, -12186, 2922, 4894, -15901,
    9860, 10904, -935, 15247, 5315, 2076, -14515, 2875, 369, -9692, -12207, -2766, -9811, 426, 13394, -4181,
    -2014, 6430, -10585, 10500, -10741, -10923, 1471, -1147, -1786, -10662, 2083, 14112, -5725, -5297, -8191, 5002,
    -16005, 72, 6063, -9372, 13092, 9250, 4348, 12571, -8609, 3508, -12084, 7842, 5654, 1393, -7309, -9582,
    -5057, 34, 15811, 3684, 14054, 13525, 11561, 858, 11575, -15576, 7893, -10781, 15, -699, -10490, 322,
    969, 333, -11610, 12765, 7400, 2908, -15726, 10430, 1132, -10358, -1602, 12502, 14968, -11472, 8777, 15635,
    10326, 2655, 9174, 16306, 6871, 4678, -8321, 8467, 2668, 13766, -3340, 15790, 12616, -7142, -13711, -11804,
    10928, -3126, 9685, -1646, -14602, -8914, -10458, -12210, -14058, -3939, 6621, -1848, 9051, -12388, -5401, -14755,
    -13008, 4027, -5189, -15735, 6194, 15097, 13047, 114, -10401, -9653, -15267, -2805, 8198, 9673, 15275, 9163,
    -14900, 8461, 5314, -9874, 9714, -7247, -3154, -12085, -12524, 6007, 6413, -12225, 3017, -2740, 2213, 5179,
    -3298, 75, 9921, -10534, 14345, -5716, 15903, -7237, 11698, -6008, -6108, 6013, -10951, -1405, 11985, -420,
    8940, 1725, -16212, -7521, 4713, -10338, -185, 466, 11397, -5495, 5866, -11476, -3920, -10264, -1299, -5928,
    -6112, 13978, -14218, 10272, 3455, -12504, 2778, 12565, -12246, 8918, 5617, 14719, -9123, -5420, -13486, -4209,
    517, -631, 14640, -7623, -10870, 9343, -10231, -15204, 7675, -1772, 13061, 3994, 8208, -11009, 11071, -5520,
    -4393, -5961, -9864, -14948, -7693, 11193, -1386, 1208, 8383, -12842, -8099, -10773, -16309, -1432, 1265, -11176,
    -5750, -328, 1879, -14785, 3476, -10486, 3751, 13419, -14704, 10750, -1283, 1503, 12773, -10142, -4577, -12236,
    -5423, -14301, 5197, -11560, -9544, -11092, -8308, 14347, 2768, 8751, -15829, -13906, 12570, -3245, -2735, 3850,
    9824, 5380, -743, -15405, -15222, -13313, 4467, -3878, 6313, -5086, -12214, 14496, 8277, 7972, 12248, -4362,
    2699, 6958, -15258, -1817, -14298, 12917, -1943, -14062, 15587, 9099, 5637, -14035, 12372, 3146, 11183, 2416,
    12832, 5176, -596, 14875, -7018, -15243, -14093, 12031, 2050, 2274, -1748, 4930, 8618, 1656, -10657, 15681,
    10890, 2188, -11391, -2237, 13531, 2255, 3889, 15000, -13799, -9903, 6208, 790, 4702, 15635, -1594, -14305,
    11412, -9107, -2732, -1162, -12923, -31, -14200, 15296, 14102, -3399, -13541, -2728, 12255, -1193, -11098, 15906,
    -6367, -10420, 232, -3640, -3386, -11508, -3159, -11088, 4110, -9105, 14853, -8044, 1788, 3082, 9506, -8530,
    6087, 13865, -6382, 2702, -14424, 12845, 7990, -11161, -14574, 6206, -1803, -4641, -15154, -12369, 9595, 15417,
    -15686, 13423, 3359, -12599, 15035, 10140, -14709, 4997, 15496, 14365, 10315, -8964, 10775, 4547, -1457, -3104,
    -4693, -11410, 10250, -13834, 5682, -4014, -8660, 8346, 8623, 1477, 6950, 11448, -15866, -10598, 10772, 8468
};

int16_t input_unpacked[M_d * K_d] = {
    -9635, 15581, -1995, 16053, 8078, 9782, 10106, 5748, -1915, -2107, -3023, 5826, -10318, -1064, 2710, -11109, 16104, 1420, 4372, 12175, -8388, -10618, 4012, -8948, -5774, -15912, -13290, 562, -15558, 9989, 6106, -14389,
    7216, -4145, -15997, 4217, -9622, 704, 8674, 5661, 9695, 11577, 12903, 12752, -5854, -12635, 8082, 6677, -7020, 5591, 6179, 10974, 6499, -3433, 8292, -5802, 3565, 12764, -8581, 14322, -7893, 15634, -3263, -9978,
    -13245, -9088, -7096, -15685, 4630, -1701, 7809, 7709, -3705, 1573, 9242, 9931, -6766, -3857, -5713, 11454, 9623, -5352, 13781, -10033, -89, -1301, -3356, 13214, -9793, 13659, -536, 4452, -7476, 13252, -11461, -14109,
    -15483, -11470, 8530, 14558, 4590, -9591, 3787, -4964, 2957, 11409, 10213, -10255, 4790, 8974, 11453, -3583, -11672, -11807, 563, 7757, 13176, -5377, -8475, 2379, -920, -13521, -352, 10480, -2771, 15300, -5729, 2457,
    -13114, 4375, -2253, 12363, -10279, 13736, -8158, -8669, -9335, 7728, -9936, -2037, 6367, -15463, 3186, 830, -7793, -11637, -7871, -12680, -1473, -860, 4041, 6524, -7541, -3955, -13360, 5529, -4132, 13518, 12260, -6560,
    -1566, 3534, -7619, -845, -4263, 12589, -13391, 15259, 11873, 7424, 7585, 6045, 8395, 10132, 9888, 4200, -1186, -1237, -15557, -3202, -14366, 15508, 11805, 196, -9640, 6866, 378, 13908, -6093, 5348, -12580, 5107,
    -874, 13121, 5776, 10084, 12002, 6187, 6748, 5301, 13805, -7318, 9859, -14150, 15768, 11300, 9731, -10874, 16245, -1393, -14279, -14562, 6128, -6533, -3832, -9264, 4380, 8959, -14888, -14541, -12511, -3973, -15054, 9873,
    2460, -10405, 13724, 14676, -2856, -4289, -9214, -8869, -5496, -5809, -2045, -12557, -15431, 1177, -4023, -2394, 4871, -12917, -10224, -333, 8786, 10430, 15421, 9333, 1207, -4251, -14180, -3292, 5135, -9569, -3257, 11177,
    11431, 15279, -9270, 15070, -7660, -1454, -9636, -3915, 88, 6605, -7288, 14711, 5564, 9610, -5229, -3212, -9317, 11362, 12983, 8494, 3814, -8156, 9570, 6675, -15206, 15209, -10597, -7425, 16191, 16225, -4442, -15085,
    5053, 8651, -15906, -6892, 9543, -14732, 6485, -12720, -9194, -502, 1567, 2858, -4858, 9747, -2404, -15813, 13891, -12304, 4138, 6563, 5490, -6438, 6446, 2039, 15439, -10586, -8729, -1180, -340, 5247, -16257, 15476,
    -12626, -1864, -9968, 10381, 6657, 11374, -5286, -16022, -6708, 11508, -12798, -14632, -2462, 4185, 14635, 3909, 4071, 11715, 1539, 7625, 12804, 15220, -3245, 5727, 13759, -12069, -16093, -12448, 14260, 10961, -13261, 7299,
    -2980, 5554, 2087, 10906, -3872, -4221, -8527, 4330, -5101, -7641, 5170, 8749, -3502, -7289, 2795, -3018, -11107, 16181, 11460, -10465, 5243, -4479, -14052, 9033, 8205, 5185, -12203, -13109, -12487, 14101, -13302, -12260,
    -14390, 11592, -10701, 9068, 6960, 8969, 13923, -15722, 14200, 3559, -14468, -10837, 661, 4054, 12563, 4778, 644, 12110, -7262, 636, -5422, 9213, 2486, 7129, -9900, 5255, -10082, -6228, -1365, 11991, -8425, 10232,
    -15053, 15792, -2893, 6892, 838, 2858, 3512, 1333, -15494, 3990, -3689, -10440, 6149, 15847, -13464, -4877, 10682, 8468, -9471, -9817, 4213, -10396, 15827, 3745, 10855, -2691, 11891, 10535, -1946, -4601, -14893, -8152,
    1994, -1840, 9553, 13896, -9546, -14473, -7374, 3073, -388, 2586, -14136, 10301, 3503, -14034, 6328, 4794, 8786, -11501, 5586, -7415, 8542, 4680, -12529, 14052, -1515, 2223, 2461, 13709, 12621, -4905, 6985, -2804,
    5325, 13998, -15456, 8472, -11433, -920, 10007, 9797, 1860, 6723, 9749, 2674, -6940, 87, 12406, 167, -6333, 11893, 4938, -3174, -8050, -2682, -8624, 1702, 9735, 14485, -8471, -6324, 6484, 3212, 4347, -9251,
    -2299, 134, 15232, 2917, -8294, 3435, 1733, -14953, 11403, -12490, 9017, 278, 11966, 5315, -7581, 11064, 671, -5174, 1930, -15422, 7001, 3453, 11475, 10979, 2924, -3957, -7871, 15105, 2026, -11883, 3888, -13237,
    -981, -4571, -15600, -14005, -16363, -9785, 11802, -15392, 15349, -2242, 172, 2682, 5969, -9613, -14426, -3102, 2330, 15534, -12640, 5686, 4406, -13550, 3110, -10381, -9500, -917, 15907, 6532, 8616, -7556, 847, -2486,
    -4340, -793, 6204, 14722, -4355, 10311, -3696, 6216, -13720, 7963, 3756, 2781, -9418, 16170, -11542, 1054, 12475, 10064, -13467, -2802, -192, -15912, -15908, -12784, -2950, 3293, 10064, 9928, -14367, -11316, 16121, 4844,
    7353, -11344, -1266, -9666, 8308, -9377, -3468, -15110, -14978, -12060, -11531, -12916, -12186, 2922, 4894, -15901, 9860, 10904, -935, 15247, 5315, 2076, -14515, 2875, 369, -9692, -12207, -2766, -9811, 426, 13394, -4181,
    -2014, 6430, -10585, 10500, -10741, -10923, 1471, -1147, -1786, -10662, 2083, 14112, -5725, -5297, -8191, 5002, -16005, 72, 6063, -9372, 13092, 9250, 4348, 12571, -8609, 3508, -12084, 7842, 5654, 1393, -7309, -9582,
    -5057, 34, 15811, 3684, 14054, 13525, 11561, 858, 11575, -15576, 7893, -10781, 15, -699, -10490, 322, 969, 333, -11610, 12765, 7400, 2908, -15726, 10430, 1132, -10358, -1602, 12502, 14968, -11472, 8777, 15635,
    10326, 2655, 9174, 16306, 6871, 4678, -8321, 8467, 2668, 13766, -3340, 15790, 12616, -7142, -13711, -11804, 10928, -3126, 9685, -1646, -14602, -8914, -10458, -12210, -14058, -3939, 6621, -1848, 9051, -12388, -5401, -14755,
    -13008, 4027, -5189, -15735, 6194, 15097, 13047, 114, -10401, -9653, -15267, -2805, 8198, 9673, 15275, 9163, -14900, 8461, 5314, -9874, 9714, -7247, -3154, -12085, -12524, 6007, 6413, -12225, 3017, -2740, 2213, 5179,
    -3298, 75, 9921, -10534, 14345, -5716, 15903, -7237, 11698, -6008, -6108, 6013, -10951, -1405, 11985, -420, 8940, 1725, -16212, -7521, 4713, -10338, -185, 466, 11397, -5495, 5866, -11476, -3920, -10264, -1299, -5928,
    -6112, 13978, -14218, 10272, 3455, -12504, 2778, 12565, -12246, 8918, 5617, 14719, -9123, -5420, -13486, -4209, 517, -631, 14640, -7623, -10870, 9343, -10231, -15204, 7675, -1772, 13061, 3994, 8208, -11009, 11071, -5520,
    -4393, -5961, -9864, -14948, -7693, 11193, -1386, 1208, 8383, -12842, -8099, -10773, -16309, -1432, 1265, -11176, -5750, -328, 1879, -14785, 3476, -10486, 3751, 13419, -14704, 10750, -1283, 1503, 12773, -10142, -4577, -12236,
    -5423, -14301, 5197, -11560, -9544, -11092, -8308, 14347, 2768, 8751, -15829, -13906, 12570, -3245, -2735, 3850, 9824, 5380, -743, -15405, -15222, -13313, 4467, -3878, 6313, -5086, -12214, 14496, 8277, 7972, 12248, -4362,
    2699, 6958, -15258, -1817, -14298, 12917, -1943, -14062, 15587, 9099, 5637, -14035, 12372, 3146, 11183, 2416, 12832, 5176, -596, 14875, -7018, -15243, -14093, 12031, 2050, 2274, -1748, 4930, 8618, 1656, -10657, 15681,
    10890, 2188, -11391, -2237, 13531, 2255, 3889, 15000, -13799, -9903, 6208, 790, 4702, 15635, -1594, -14305, 11412, -9107, -2732, -1162, -12923, -31, -14200, 15296, 14102, -3399, -13541, -2728, 12255, -1193, -11098, 15906,
    -6367, -10420, 232, -3640, -3386, -11508, -3159, -11088, 4110, -9105, 14853, -8044, 1788, 3082, 9506, -8530, 6087, 13865, -6382, 2702, -14424, 12845, 7990, -11161, -14574, 6206, -1803, -4641, -15154, -12369, 9595, 15417,
    -15686, 13423, 3359, -12599, 15035, 10140, -14709, 4997, 15496, 14365, 10315, -8964, 10775, 4547, -1457, -3104, -4693, -11410, 10250, -13834, 5682, -4014, -8660, 8346, 8623, 1477, 6950, 11448, -15866, -10598, 10772, 8468
};

int8_t weights[1024] = {
    -19, -128, 105, -31, 103, 75, -95, -44, 42, -63, 44, -51, -40, -108, 5, 10,
    -76, 63, 121, 109, 104, 100, -53, -48, 18, -2, 11, 19, 109, -59, 57, 122,
    70, -123, -97, -115, 113, 58, -39, -19, 60, -1, -18, 44, -81, -41, 1, 81,
    87, -35, -37, 119, 27, 1, 127, -106, -4, 55, 48, 113, -102, -5, -14, 114,
    27, 23, -88, 46, -17, 62, 28, 98, -85, 95, -4, -2, 107, -93, 78, 48,
    103, -78, 59, 61, -27, 80, -28, -5, 54, 55, 2, -115, 55, -66, 116, 45,
    -18, 91, -63, -47, -103, -55, 116, 85, 85, 113, 92, 46, -86, -105, -100, -94,
    117, -56, -62, -104, 54, 122, 63, 44, -60, 123, 89, -33, 18, -120, 10, 13,
    55, 112, -17, -7, 27, 79, -74, 34, 58, -110, -112, 120, 77, -23, 38, -62,
    -15, 97, 125, 74, -32, 23, -80, 106, -76, -9, 56, 10, -85, -60, -29, 2,
    65, -97, 25, 10, -53, -71, 108, 18, 124, 79, 11, -128, 3, -34, -32, 25,
    -105, -87, -44, -87, -84, -109, 60, -76, 126, -118, -68, 95, 31, -94, 103, -89,
    116, 47, 32, 101, -91, 122, 106, 32, 35, 59, -3, 93, -113, 50, -75, -77,
    16, -65, -38, 62, 120, 66, 121, -91, 92, -42, -125, -32, -81, -73, -71, 17,
    -22, 23, 3, -3, 88, 6, -47, 119, 43, -78, 59, 70, 74, 40, 36, 96,
    42, 108, -82, -67, -93, 91, -78, 1, -45, -116, -77, -64, -106, 2, 44, 54,
    -95, -57, -103, 6, -57, 13, -6, -71, -25, 90, 34, 42, -75, -34, 103, -70,
    -92, 97, 15, 61, 31, -124, 55, 17, -106, 28, -6, -74, 25, 46, -102, 95,
    36, 88, 98, 64, -121, -65, 9, 114, 31, 28, 127, -23, 53, 99, -115, 95,
    90, 116, 73, -33, 18, -106, -52, -72, 118, -123, 17, -48, 71, 16, 94, 106,
    77, -22, 14, 62, -105, 87, -47, -75, 15, -117, -90, -84, -62, 31, 77, 29,
    38, 75, -64, -11, -47, -61, -20, 73, -63, -86, -71, -100, -21, 94, 45, -57,
    56, 91, -12, 72, 51, 10, 44, 53, -121, -86, 7, 30, -19, -80, -64, 4,
    72, -128, -21, -84, 6, 45, -7, 39, -88, 52, -99, -56, 10, -84, 90, 62,
    -102, -49, 20, -91, -81, 92, -44, -25, -42, -2, 124, -37, -75, -61, 75, 31,
    -66, 48, 5, 81, -110, 75, -16, 33, 100, -6, -66, -39, -90, 85, 102, -86,
    -33, -44, 58, 90, 123, 78, 30, -40, 115, -6, 28, 2, -82, 83, -74, -107,
    40, 113, -3, -11, -51, -112, 72, 65, -81, -50, -46, 28, -67, -61, 70, 18,
    82, -65, -25, 49, 82, -27, -32, -31, -105, -111, 7, 34, -14, -34, 101, -121,
    55, 91, 96, 124, -10, 81, 75, 13, 120, -64, -103, -8, -94, -82, 58, 10,
    -18, -99, 38, 21, -44, 91, -21, -11, 56, 115, 121, 67, 113, 10, 109, 83,
    -4, -91, -124, -59, -67, 16, -9, -125, -13, 61, -64, 2, -18, -19, -93, 108,
    118, -116, -79, 126, 104, -52, -59, 121, -30, -12, 26, 59, -115, -94, -63, -90,
    88, 122, -97, 109, 127, -60, 99, 94, 0, 101, 47, -124, -112, 77, -33, 29,
    104, 19, 111, 80, 26, 30, -114, 105, -22, -88, 51, 120, -95, -78, -62, 63,
    61, -29, -31, 11, 94, -121, -95, 42, 109, 75, -74, -116, 44, -73, -72, 72,
    72, 80, -126, 14, 35, 100, -109, -56, -106, -95, -40, -15, -126, 96, -13, -1,
    38, 97, 95, 79, -63, 110, -62, -3, 107, -89, -74, 79, 31, 10, 49, -88,
    -85, -46, 54, 108, -121, 99, 45, -70, 82, -113, 126, 42, -114, 109, -101, -124,
    66, 40, 2, -72, 98, -119, -85, 98, 122, 42, 121, 108, -10, -48, 102, -117,
    19, -110, 52, 89, -68, 62, 106, -105, -10, 94, 105, -48, -46, 56, 54, 50,
    78, -88, -125, -9, -22, -31, -10, 93, -112, 75, 11, -21, -101, 81, -27, 50,
    -33, 85, 32, -19, 127, -81, -12, 54, 42, 0, 25, 94, -112, 112, 43, -33,
    -19, -116, -97, -15, -18, -112, 35, 72, -16, -75, 126, -89, -56, -34, 106, 69,
    98, 123, -90, 1, 78, -123, -103, -36, 116, 30, 122, 75, -70, 11, -118, 108,
    -36, -42, -62, -110, -85, -122, -121, -11, 49, 65, 65, 116, 20, -20, -78, 44,
    50, 60, 96, 45, -84, 79, 49, -26, 6, -8, 93, 4, -60, 60, 89, 18,
    54, -111, -69, 42, -34, 74, -118, -106, 68, 102, 117, 46, -117, -50, 48, -21,
    79, 106, -1, -75, -59, 112, -55, 67, -39, -37, -67, -3, -85, 10, 65, 86,
    -117, -67, 74, -110, 119, 127, -60, -41, -84, 123, -8, -87, 63, 118, -118, -114,
    59, 125, 67, 10, 49, 31, -76, -85, -31, 83, -108, -31, 26, -20, -14, -56,
    58, -97, -118, -6, -110, 2, 45, -2, 25, 7, -26, -50, 5, -65, -34, -61,
    47, 68, -77, -107, -123, -115, 81, -34, 103, -120, 12, 64, -78, -73, -27, -124,
    83, 73, -64, -66, -117, 100, -123, -22, -95, 16, 89, 92, 34, 38, -56, 50,
    -62, -50, 61, -19, 94, -31, 107, -14, -88, 124, -6, -72, -97, -56, 43, -79,
    100, 56, 94, 23, -91, 103, -87, 110, 72, 83, -76, 24, -16, -4, -87, -81,
    -67, 12, -2, 72, -122, 43, -54, 94, 85, -89, -80, 108, 88, -122, 79, -80,
    -99, -70, 85, 51, 72, 1, 33, -90, 33, 127, -114, 60, -113, 41, 93, -4,
    -88, -60, 10, 106, 21, 103, -119, 41, 114, -39, 51, 90, 84, -49, 118, -13,
    118, -50, 51, 125, 3, -58, -106, 2, 118, -26, -35, 18, -106, -13, 27, 31,
    59, -41, -40, -30, -17, -36, 59, -5, 112, -3, -51, 66, -32, -20, 116, 116,
    -119, 30, -1, -99, -100, 118, 60, -90, 4, 64, 106, 6, 6, 65, -82, -28,
    70, 45, 6, -124, -95, 37, 50, -96, -71, 78, -23, -85, -55, -101, 19, -78,
    -12, -123, 54, -42, -118, 95, 58, 30, 27, -40, -108, 107, 80, -61, 86, 93
};

int8_t weights_unpacked[N_d * K_d] = {
    -19, -128, 105, -31, 103, 75, -95, -44, 42, -63, 44, -51, -40, -108, 5, 10, -76, 63, 121, 109, 104, 100, -53, -48, 18, -2, 11, 19, 109, -59, 57, 122,
    70, -123, -97, -115, 113, 58, -39, -19, 60, -1, -18, 44, -81, -41, 1, 81, 87, -35, -37, 119, 27, 1, 127, -106, -4, 55, 48, 113, -102, -5, -14, 114,
    27, 23, -88, 46, -17, 62, 28, 98, -85, 95, -4, -2, 107, -93, 78, 48, 103, -78, 59, 61, -27, 80, -28, -5, 54, 55, 2, -115, 55, -66, 116, 45,
    -18, 91, -63, -47, -103, -55, 116, 85, 85, 113, 92, 46, -86, -105, -100, -94, 117, -56, -62, -104, 54, 122, 63, 44, -60, 123, 89, -33, 18, -120, 10, 13,
    55, 112, -17, -7, 27, 79, -74, 34, 58, -110, -112, 120, 77, -23, 38, -62, -15, 97, 125, 74, -32, 23, -80, 106, -76, -9, 56, 10, -85, -60, -29, 2,
    65, -97, 25, 10, -53, -71, 108, 18, 124, 79, 11, -128, 3, -34, -32, 25, -105, -87, -44, -87, -84, -109, 60, -76, 126, -118, -68, 95, 31, -94, 103, -89,
    116, 47, 32, 101, -91, 122, 106, 32, 35, 59, -3, 93, -113, 50, -75, -77, 16, -65, -38, 62, 120, 66, 121, -91, 92, -42, -125, -32, -81, -73, -71, 17,
    -22, 23, 3, -3, 88, 6, -47, 119, 43, -78, 59, 70, 74, 40, 36, 96, 42, 108, -82, -67, -93, 91, -78, 1, -45, -116, -77, -64, -106, 2, 44, 54,
    -95, -57, -103, 6, -57, 13, -6, -71, -25, 90, 34, 42, -75, -34, 103, -70, -92, 97, 15, 61, 31, -124, 55, 17, -106, 28, -6, -74, 25, 46, -102, 95,
    36, 88, 98, 64, -121, -65, 9, 114, 31, 28, 127, -23, 53, 99, -115, 95, 90, 116, 73, -33, 18, -106, -52, -72, 118, -123, 17, -48, 71, 16, 94, 106,
    77, -22, 14, 62, -105, 87, -47, -75, 15, -117, -90, -84, -62, 31, 77, 29, 38, 75, -64, -11, -47, -61, -20, 73, -63, -86, -71, -100, -21, 94, 45, -57,
    56, 91, -12, 72, 51, 10, 44, 53, -121, -86, 7, 30, -19, -80, -64, 4, 72, -128, -21, -84, 6, 45, -7, 39, -88, 52, -99, -56, 10, -84, 90, 62,
    -102, -49, 20, -91, -81, 92, -44, -25, -42, -2, 124, -37, -75, -61, 75, 31, -66, 48, 5, 81, -110, 75, -16, 33, 100, -6, -66, -39, -90, 85, 102, -86,
    -33, -44, 58, 90, 123, 78, 30, -40, 115, -6, 28, 2, -82, 83, -74, -107, 40, 113, -3, -11, -51, -112, 72, 65, -81, -50, -46, 28, -67, -61, 70, 18,
    82, -65, -25, 49, 82, -27, -32, -31, -105, -111, 7, 34, -14, -34, 101, -121, 55, 91, 96, 124, -10, 81, 75, 13, 120, -64, -103, -8, -94, -82, 58, 10,
    -18, -99, 38, 21, -44, 91, -21, -11, 56, 115, 121, 67, 113, 10, 109, 83, -4, -91, -124, -59, -67, 16, -9, -125, -13, 61, -64, 2, -18, -19, -93, 108,
    118, -116, -79, 126, 104, -52, -59, 121, -30, -12, 26, 59, -115, -94, -63, -90, 88, 122, -97, 109, 127, -60, 99, 94, 0, 101, 47, -124, -112, 77, -33, 29,
    104, 19, 111, 80, 26, 30, -114, 105, -22, -88, 51, 120, -95, -78, -62, 63, 61, -29, -31, 11, 94, -121, -95, 42, 109, 75, -74, -116, 44, -73, -72, 72,
    72, 80, -126, 14, 35, 100, -109, -56, -106, -95, -40, -15, -126, 96, -13, -1, 38, 97, 95, 79, -63, 110, -62, -3, 107, -89, -74, 79, 31, 10, 49, -88,
    -85, -46, 54, 108, -121, 99, 45, -70, 82, -113, 126, 42, -114, 109, -101, -124, 66, 40, 2, -72, 98, -119, -85, 98, 122, 42, 121, 108, -10, -48, 102, -117,
    19, -110, 52, 89, -68, 62, 106, -105, -10, 94, 105, -48, -46, 56, 54, 50, 78, -88, -125, -9, -22, -31, -10, 93, -112, 75, 11, -21, -101, 81, -27, 50,
    -33, 85, 32, -19, 127, -81, -12, 54, 42, 0, 25, 94, -112, 112, 43, -33, -19, -116, -97, -15, -18, -112, 35, 72, -16, -75, 126, -89, -56, -34, 106, 69,
    98, 123, -90, 1, 78, -123, -103, -36, 116, 30, 122, 75, -70, 11, -118, 108, -36, -42, -62, -110, -85, -122, -121, -11, 49, 65, 65, 116, 20, -20, -78, 44,
    50, 60, 96, 45, -84, 79, 49, -26, 6, -8, 93, 4, -60, 60, 89, 18, 54, -111, -69, 42, -34, 74, -118, -106, 68, 102, 117, 46, -117, -50, 48, -21,
    79, 106, -1, -75, -59, 112, -55, 67, -39, -37, -67, -3, -85, 10, 65, 86, -117, -67, 74, -110, 119, 127, -60, -41, -84, 123, -8, -87, 63, 118, -118, -114,
    59, 125, 67, 10, 49, 31, -76, -85, -31, 83, -108, -31, 26, -20, -14, -56, 58, -97, -118, -6, -110, 2, 45, -2, 25, 7, -26, -50, 5, -65, -34, -61,
    47, 68, -77, -107, -123, -115, 81, -34, 103, -120, 12, 64, -78, -73, -27, -124, 83, 73, -64, -66, -117, 100, -123, -22, -95, 16, 89, 92, 34, 38, -56, 50,
    -62, -50, 61, -19, 94, -31, 107, -14, -88, 124, -6, -72, -97, -56, 43, -79, 100, 56, 94, 23, -91, 103, -87, 110, 72, 83, -76, 24, -16, -4, -87, -81,
    -67, 12, -2, 72, -122, 43, -54, 94, 85, -89, -80, 108, 88, -122, 79, -80, -99, -70, 85, 51, 72, 1, 33, -90, 33, 127, -114, 60, -113, 41, 93, -4,
    -88, -60, 10, 106, 21, 103, -119, 41, 114, -39, 51, 90, 84, -49, 118, -13, 118, -50, 51, 125, 3, -58, -106, 2, 118, -26, -35, 18, -106, -13, 27, 31,
    59, -41, -40, -30, -17, -36, 59, -5, 112, -3, -51, 66, -32, -20, 116, 116, -119, 30, -1, -99, -100, 118, 60, -90, 4, 64, 106, 6, 6, 65, -82, -28,
    70, 45, 6, -124, -95, 37, 50, -96, -71, 78, -23, -85, -55, -101, 19, -78, -12, -123, 54, -42, -118, 95, 58, 30, 27, -40, -108, 107, 80, -61, 86, 93
};

int32_t bias[N_d] = {
    0, 0, 0, 0, 0, 0, 0, 0, 0, 0, 0, 0, 0, 0, 0, 0,
    0, 0, 0, 0, 0, 0, 0, 0, 0, 0, 0, 0, 0, 0, 0, 0
};

int32_t golden[M_d * N_d] = {
    -7009304, -842451, 89446, -3424078, 3214317, -1184692, 6989738, 3432472, 268940, 402124, 5066582, 2532709, 2830725, 8730285, 6236965, -5031819,
    3342898, -1835434, 6751495, 2418279, 90779, 3113593, -6043848, 1035515, -4950306, 2527973, -1941792, 3256673, 4394893, 6855948, -6263590, -2677781,
    -2095684, 6669853, 562679, 2522106, -1620394, 2474423, 5718186, -3943830, 6147674, -2531199, -2867708, -4923327, 5012301, -2627198, 778545, 3588192,
    6656306, -1291473, -600746, 88142, 2471360, -6596997, 2555120, 1147324, 2878586, -6959188, 502432, 916276, 9834027, 3214741, 6516025, -1670709,
    -4343640, 2337432, -1732202, 5296073, -692735, -5503918, -6039041, -48332, 1481249, -5605519, -4150256, 575280, 3024522, -1835973, -5552914, -662458,
    1875046, -757743, -2924718, 1770110, 3967482, -1823767, 2830496, -2727850, 6397730, -6010403, 2587230, 7958294, -1393668, -1264160, 2569117, -3381066,
    2255878, -3453578, -4655291, -7884968, -6279694, 3677881, -2047922, -2671236, 4369873, 423009, -1731184, -6908322, 584589, 916548, -2458824, 3744455,
    -2771659, -5168570, -5672640, 2333812, 6884563, 1982614, -2142136, 325182, -4324182, -4599754, -6933323, 1642044, 311002, 4910369, -2899288, -3767634,
    -4336498, -5308038, 1853586, -2594401, -2221703, 2033369, -1358174, -1026873, 1650592, -6334891, 5838691, 3953657, 4984307, -1207747, -3617150, 2693170,
    -5065856, -4619692, -684976, -1365701, 4055601, -3411752, -5118960, -2331973, 2966288, 4425058, -5223374, -1913136, 8022680, 1071877, -2208103, 5948843,
    -5162844, 5461545, -274474, 3297780, 2123036, -3411378, 1113706, 7059220, 653441, -4561547, -1760620, -2765627, 1400518, -803445, -4798044, 11727913,
    -1390082, -4843671, -1533316, -6050809, 3845023, -415019, 3603351, 3162986, 3426801, 1504248, 3032904, -3746047, 2797035, 2352881, 7446081, -920514,
    -5425599, -2958338, 275838, 1624518, -1349485, -1538085, 5429592, 7229137, -2456471, 3695243, 1296186, 3901070, -5947331, 4526909, -572261, 8761456,
    1808210, 5495981, -6835084, 367234, 4956718, 2012949, 911897, 4510429, -1127928, 4288251, -1699141, -383701, 614971, 5912572, -3658672, -6669750,
    4400528, 537418, -2065556, 798955, -7119336, 1852995, 7701807, -3201140, -1010873, -2326837, 4028000, 5780124, -1676183, 2881327, 4778608, 349746,
    4366398, 5849031, 70976, 431562, 5236650, 672379, -4810934, -1097776, -2244431, 4239880, -5138047, 877232, -2756471, -2108409, -5224195, 5617895,
    -5399483, -6661325, -830006, -2542198, 5943911, -7594029, 1619681, -5398214, 7009828, -227654, 4056696, -755187, -4330608, 163451, -2063323, -4988708,
    5138474, 1154642, 3899778, -2114457, -2600225, -4482870, 906449, -8056495, 9144406, 1067321, -2583998, -3314911, 4618410, -4543882, 492007, -5127180,
    -4629745, 3910126, -1377151, -102229, -2657303, -2706770, 5901924, -4318015, 2919497, 82297, -3601526, 1158795, -5511635, -680720, 6856730, -3491209,
    3568889, 1102537, 4157853, -2967135, -1042837, 4202485, 3433378, -3865883, -5841084, 2432079, 2057629, 2997540, -5778088, -732357, -5562194, 4221784,
    5888244, -2680462, 3590374, -9167694, -2625608, -6592191, 1734965, -518397, 6568896, -2445744, 5850329, -4492323, 3293601, -2498097, 5049848, 5099,
    -357357, -1824661, 9158510, -6880764, 231906, -7512304, -9862751, -6502236, 3336883, 1329507, -8409245, 7376814, -4791581, 2516257, -2189117, 807925,
    -2084486, -10076085, -3619934, -4719591, 5190340, -6438241, -923921, 3435929, 3790129, 1261742, 4248088, -983736, 5099244, -1488549, 2923992, -3460256,
    6416293, 8070242, 2781040, 3482003, -2600732, -3832574, 1383101, -3153984, 8077572, -3698374, -909249, 4405302, 5865435, 3347042, 267195, -8408644,
    -2639889, -659652, -785227, -1561310, 1833923, -5689953, -1073564, 2912686, 6465352, -6765785, 6081144, -1733489, 25698, 3867747, -2741938, 2017582,
    -2221142, -8497023, 136062, -6318269, 5948436, -2460739, -4107543, -2979704, 1571954, 1784463, 2029872, 3806984, -1363778, -1368263, 4536339, -566362,
    -10316727, -3690766, -4220685, 2265259, -2966615, -581478, 1968984, -3476070, -1260893, 3778508, -2581710, -1967921, -5575287, 3109869, -3240643, -4233612,
    175851, -3417713, 1377279, 7619950, -840007, 970002, 1022681, -1739283, -4379639, 4453217, -3460351, 1058100, -7419840, -4999608, -5170322, -3965396,
    1193359, -5131819, 4162399, 3186411, 2552765, 498668, -3959770, -2919123, -4831522, 182477, -987336, 4480376, -5493842, -5353549, -1538170, -1822457,
    -2239554, 4862763, -2485200, 2495721, -1236346, -1631467, 1462976, 353812, 1343762, 530276, 2101380, 1627889, 4953440, 3374958, -803181, 2522383,
    -5806303, -7293915, 5273241, 3937836, 198313, 1398809, 1188254, 42099, 3143575, 3960169, 1331028, 255956, 4571958, -2884478, -159677, -386059,
    486870, 1543409, 3906182, 2422131, -788234, -2542943, 3590725, 2647851, 5109889, -2544128, 2868216, 3828533, 3221546, -508402, 3837467, 24774,
    3947, -4055896, -5499409, 409303, -1481749, 7316519, 1604857, -268197, -8006471, 2297320, 1071564, 977191, -516350, 3361336, -1767719, 1184945,
    -10297675, -1086867, -1205380, 10590579, 1148768, -3331942, 856317, 781965, -1684719, 178336, -2467955, -3642631, 973005, -241081, -851816, 2366049,
    -1521908, 4473014, -5107204, 7562110, -1161264, 4806388, -2834872, -5299621, 5056251, 1465187, -1229378, -6089202, -4450926, 993651, -6114434, -1844623,
    113790, -6529571, -5818062, 5507611, -1348440, -2778994, 4629343, -3031017, -7657507, -3141086, 12469015, -7347183, -2696235, -5661609, 2348671, -1302508,
    -3242157, 886202, -523347, 258202, -1958063, -495873, 2491186, 2996875, -2055497, 9195664, 631425, 1891827, -1396774, 7393787, -2585114, 2037238,
    3100008, 4360356, 1847715, 12920687, 5528066, 4769514, 4174010, 9690243, -7596206, -141221, -1833157, -2551989, -2807895, 3488409, -7774911, -5908768,
    4821243, 1522511, -2420911, -8791560, 1839558, -2811201, -2486407, 324800, -492211, -4733879, 8126768, 108887, 4620588, 3218492, 13258752, -10576584,
    5268336, -1704424, 11024019, 648737, -1216439, -851728, -8324384, -1400558, -4937929, 467994, 1679732, 7017406, -3413319, 483662, -8256892, 2566648,
    -2269464, -5623014, -4398382, 4191984, 1747012, -2095631, 2388301, -1934632, 1939206, -3668948, -739117, 4187814, -2094362, -2893876, -1295283, -4477318,
    653254, 1489500, 1581729, 2410511, -2888168, -4161822, 3073471, -5857789, 7960005, -4842288, 3411926, -2010592, 5259601, -5780747, 2659259, -578918,
    11658070, -200527, -1618865, -1558164, 798456, 2009286, 163683, 3156799, -5999650, 4460612, -467595, 3184333, -1791950, 7072765, -381122, -1563592,
    -3336215, 4846590, 724701, 8170537, 421562, 1955592, -74522, 2168961, -7920685, -2346959, 768162, -447499, -4427726, 4102731, -8230787, 1139926,
    -2131703, -4405429, 3643812, 2212982, 6293313, 758225, 956563, 281412, -3540249, 3287495, -3370804, 2909777, -8648955, 3730695, -2374990, 1802800,
    -142742, 4674464, -1682269, -84637, -3888508, -881592, 4441414, 2594, -2159582, 6789848, 467360, 294091, -313395, 3747253, -2798521, -3269428,
    1752700, -1050954, 1056611, -5568767, 3045575, -5546908, -5978028, 1470123, 5012991, -3453069, 1245738, -268826, -1643635, -2643878, -4509127, 285853,
    -7943324, -5182835, -2316955, -5221738, -3009263, 507945, -7442641, -2117605, 9569382, -3927160, -3518761, -4558238, 1028976, -5149163, 4229300, -3514103,
    -2247053, 1717529, -3877633, 2314057, -1841809, 3709543, 1229722, 1767769, -1385016, -2012986, 1409950, -1184735, -1765372, 4049680, 619074, -962051,
    1715209, 3224419, -4901782, 4298069, 884596, 9265750, 935926, 2383095, -4106398, 2999501, 1940899, 2060939, -5476574, 399817, 2247661, -3709696,
    -1821606, -4191510, 6467826, 8855897, 144178, 1116303, -310654, 137868, -4129060, 6252433, -10493125, 4989679, -1986340, -3264092, 593418, -5023623,
    -2515660, -74025, 5931679, 2339600, -9748463, 2281612, 7810312, 2482325, -1202512, -1057195, 5240090, 2774128, -589621, -2221758, 963418, 1654610,
    -77118, -1429170, -5649622, 5261741, 1774691, 1344204, -3532920, -6403580, 4660524, -9422883, 4878946, 566665, -831765, 3446475, -5022006, -5423424,
    -1305268, -1206146, -151427, 7268314, -1027229, -1138946, -1148604, -5323324, 7979550, -1151454, 5027831, 300226, -117711, -6498593, 754720, 3247703,
    -3648206, -1602614, -138853, -3990228, -5901502, 12601692, -8785456, 1331773, -4505923, 6435666, 2217671, -3829100, 1051209, -549636, -3659864, 850434,
    -6644554, -5142039, -2504628, -3256236, -4028793, -4843777, -1071786, -7494612, -5907242, 893418, -590126, 913525, 1594349, -894570, -365627, 5030360,
    -828148, 878567, 3262094, -2544346, 3139203, -1757706, -3792278, -2258145, 6562240, 3626707, 4679795, -6177943, 265448, -97086, -3756139, 5409691,
    -4452721, -1217842, 1130987, 1274310, 6197663, -4957360, 4437532, 1216076, -4854694, 610373, 3591257, 57401, -3272683, 7365715, -3380989, 2703981,
    -3283810, -2975044, 4539979, -1899735, 1581261, -3686466, 686947, 4898769, -3554001, 2666911, -1247272, 6801542, -3626888, -334030, 5416753, -16069,
    1788872, 7383562, 6751678, -1769427, -1361438, 2885379, 3630597, -1923082, -2819857, 1826225, 2250146, 5214452, -7048853, 2158923, -6774554, 3174353,
    3488776, 4640227, -994346, 2675641, -793741, -1849799, -3474908, 6532493, 3259700, -1711609, 1040945, -37380, 4514304, 5123242, 6904827, 5166655,
    915415, -7134081, -2546706, -2609038, 4330518, 420461, -3756171, 3411029, -9440101, -1788773, 6967797, -149332, -62128, 538141, 1565014, 1788872,
    3113498, 453322, 547999, 2647917, 3135505, 2216627, -5037641, 2739107, -4669716, 2245613, -8717259, -1389427, 1059959, 3455177, -4864492, 2493386,
    -8455566, -1867110, -3301728, 4885077, -2763830, 6802377, 7229080, 2980332, -2657719, 723071, -5833352, -474112, 2426167, 7374408, -4842881, 1557403
};

#endif  // __ARRAY_MODE9_16B_8B_32_32_32_RANDOM_H__
