#ifndef __ARRAY_MODE0_32B_32B_32_32_32_RANDOM_H__
#define __ARRAY_MODE0_32B_32B_32_32_32_RANDOM_H__

#include <stdint.h>

// Pattern type      : random
// Input  bitwidth   : 32
// Weights bitwidth  : 32

#define M_d 32
#define K_d 32
#define N_d 32

#define I_TYPE int32_t
#define W_TYPE int32_t
#define C_TYPE int32_t

const int32_t zp_input   = 0;
const int32_t zp_weights = 0;

int32_t input[1024] = {
    11489, 4487, 364, -7544, -6298, -15042, -13919, -15843, -10641, 10265, 4896, 13525, 118, 3494, 15425, 7520,
    4334, 1429, 1963, 14256, -7296, 10349, 5599, -16295, -3469, 11711, 1779, -15284, 8679, 7525, 11356, -10629,
    -13459, 11900, -15660, 1358, -13750, -6564, -621, -2534, -3171, -15457, -16209, -12312, -16113, 5591, 839, 4823,
    -7953, 3780, 8652, -3812, -1281, 16292, 9993, 15756, -3948, 6079, 14748, 4930, 11151, 6175, 6684, -3640,
    12293, -11958, 2585, 7257, 11320, 830, -4083, -6218, -2525, -465, 7170, 12762, -13994, 14222, 1027, -4660,
    5660, 2343, -8042, -5837, 7192, 3090, 144, -5312, 8541, -3552, -5631, 12788, -7736, -8941, 7018, 4036,
    -14794, -13631, -4026, 10900, -3250, 9407, -6015, -8541, 9558, 12336, -13786, -14465, 5611, -5371, 2413, -11460,
    11797, -1628, 12943, 9709, 6728, -8827, 8749, -14680, 2296, -3128, 16274, -9880, 14631, -13411, 4036, 2632,
    13072, -6597, 13175, 5635, 12792, -9847, 8462, 14487, -14792, -4421, 4473, -12928, 329, 4230, 8650, 13997,
    -2955, -1954, -846, 14896, -9970, -4, -14752, -2451, 14592, 3939, -4928, 16223, 3399, 14710, -15849, -1310,
    10975, 8445, -3032, -85, -2614, 960, -8840, 9364, -13838, -2797, -7148, 7683, 8168, 6918, 13908, 14157,
    -10334, -12618, -12047, 7504, 15411, 14005, 5512, 15333, 12165, -15903, -12477, 11915, -13686, 15767, 10727, 14981,
    -4577, -11510, 552, 15487, -4351, 12777, -3807, 10563, -8862, -656, -5674, -8770, 12867, 9892, -11808, 13878,
    15432, -7664, -2411, 1275, 5147, -1876, -11510, 14123, 6292, -15057, 10299, 7602, -10379, 3747, 54, -15455,
    14005, 7183, -6219, -15860, -13394, 8452, -11491, 418, 13064, 14060, -7605, -14219, -168, 11184, 4084, -14199,
    4920, -5102, -8972, -2284, 12232, 15271, -11762, 2039, 8568, -7902, -7450, -8465, -9516, 12717, -9221, -8983,
    -12274, -12303, 9124, -6936, 9895, 2822, 11744, 1772, 8656, 10148, -14385, 1981, -1486, -6934, -1559, -2855,
    -268, 10424, 10665, 4145, 6890, 15043, 4486, -4280, -13695, 1723, -8800, 3077, -15542, 11412, 14567, -11618,
    10457, -3064, -15019, 13433, 14447, -14973, 3059, 10574, 9497, -2773, 11793, 10807, -12670, -16058, -13035, -4423,
    -12790, -13808, -7906, 5000, 792, -7411, 14760, 6640, 4404, 14542, 9356, -12229, -15174, 11953, -3020, -14436,
    -768, -3907, -2259, -2302, -6090, -366, -278, 15612, 6315, 9033, -16121, -6264, 15850, -7542, 326, 11898,
    4541, 12494, -10997, 350, 4443, -5103, 2430, 16217, 7751, -6032, -14289, -10397, -7471, 12455, -7505, 10234,
    -7412, 5501, 881, 15021, 2175, 13949, 15138, 8134, 4206, 11819, 16267, -8286, 2049, -11756, -12946, 5572,
    -14827, 7032, 10514, -10911, 5910, -3423, 12890, 13443, 2539, 2011, 6900, 2566, 8056, -10023, 9245, 852,
    8252, 767, -6339, -13470, 831, 15792, -15210, 2339, -1733, -16174, 1427, 8934, 7914, 15671, 952, 2944,
    15263, -5909, 9781, -10240, -4525, 5653, 2608, -9991, 5222, 2545, 13777, 3350, 12595, 15152, -13515, -14017,
    83, -1, 1802, 7998, -6051, -10577, 5901, -3668, 14081, -14324, 6854, 7401, -7503, -13509, -5956, -3438,
    15709, 12239, -8812, -908, 3273, 13520, -11960, 8713, 13934, 13609, -7306, -12210, 3073, -13974, -12125, -14080,
    -9474, 12086, 5657, 4393, 15905, -113, -15074, -11026, -7855, 5692, -4685, -5964, -12708, 6910, -15582, -1300,
    8009, 244, 6128, 9491, -9015, -13345, -14538, 2580, -7732, -9922, 7698, 10097, 14889, -366, 740, 16013,
    121, -10390, -8003, 15172, -14969, 9860, 4833, -615, 10928, 10273, -1967, 3370, 8640, 5083, -475, 13555,
    12543, -14246, 1543, 10976, -13618, -3873, 284, -5717, 6401, 16188, -4461, 9214, -12546, -474, -16209, -2536,
    -15925, 12370, 15380, -13540, 10421, 6829, -6528, 9475, 15149, 9804, 6308, -5824, 3488, 9720, 7032, -9001,
    -2884, -4512, 6381, -2706, -2640, 1356, 2600, -12694, 13924, -3050, -10635, -16375, -2137, 8007, -6675, 11530,
    -9844, -11832, -3569, 6677, -6568, 10521, -15700, 15788, -14840, 11265, -16269, -2487, -6244, 15718, 5075, 15531,
    -2800, 120, 74, 8304, 299, 13560, -10095, -782, -8299, 11920, -11884, 6604, 13495, -6753, -7236, 8770,
    2992, 2316, 12587, -13309, -7437, -3560, 13679, -13968, -1553, -781, -15909, -2342, 4873, -2499, -6369, 2827,
    15757, -12364, -7006, 14213, -6672, 6030, -4870, 10609, 2796, 13002, 4506, 2730, -375, -15067, -12430, 6930,
    4573, 2261, -12555, 10680, 9705, 1053, -8051, 10264, 711, 16286, -7192, -4898, 9949, -10780, -5837, -3550,
    7412, 8291, 9451, -1992, 3780, 2896, 8916, -12211, -5960, 7409, -9774, -7207, 15681, -10138, 16320, 11893,
    -11271, 2110, -5776, -508, 3598, 13068, 14132, -13566, -10519, 6427, -9629, -5637, 2800, -10637, 16200, 5727,
    -8939, -4496, 4854, -5574, 3988, 14538, -4409, -9854, -7021, 398, 1826, -15598, 4691, -11031, 4256, 12563,
    -10046, 9478, -15270, 1862, 5473, -9095, 9226, 1892, -2688, -15986, -11972, 6979, -3049, 7102, 15107, 4785,
    7918, 3648, -6548, -13969, 3706, -8310, -12422, 2437, 3608, -3468, 4248, 16122, 8461, 13885, -14161, -11404,
    -4637, 2947, 6406, 6429, 13319, -11910, -10765, -6141, -10888, 7075, -2884, 13143, -7088, -5186, -6590, -8555,
    11161, 10544, -6695, 2784, 12404, -768, 13189, -7991, -8982, -14004, 4308, -15798, -10552, 2620, -1946, -10122,
    415, 15582, 15834, -12863, 8296, -1570, -1122, -3452, 11038, -8772, 2774, 8151, -2806, 4708, -12503, 7397,
    -6430, -13671, -6705, -4826, 4740, 649, 10915, -2402, 12671, -15054, -5734, -10027, -3858, 14582, -11953, -11057,
    -3011, 11536, -16118, 10555, 9156, -3563, -14979, -1089, 6595, 10616, -11192, 5920, 1799, 11040, 6888, 8440,
    11630, 6267, -3461, 13532, 1860, 10577, -13015, -10517, 1548, 8133, 14777, -13544, 11807, -2430, 14753, -3384,
    13741, -9760, -5148, 14349, 15883, -13279, -11618, -16224, 14248, -5803, 1008, 16080, 11104, -7711, -4149, 10836,
    -180, -10712, 14461, 2830, 9063, 15021, 3647, 7094, 11756, 15745, 1205, 2443, 5528, 15837, -1597, 11044,
    -7282, 9117, -12727, 12730, -5241, 4308, -11756, -4707, -13243, 926, 15951, -8963, -7573, 9094, -10207, -10811,
    -9317, 2529, 121, 1176, -15487, 5632, -6111, 8535, 10921, -12786, -6725, 4094, -10656, -2820, -4912, 3742,
    7985, 6356, -5981, 2800, 9893, 7631, 9435, 656, 2667, -1217, 3685, -6988, -1323, -8876, 140, 6399,
    9352, 6413, -10671, -9979, -4134, 15461, -15472, 5608, -6747, 1022, -13536, 11179, 12215, -442, 9170, -789,
    7439, -7921, -5956, -11268, -1504, 6934, 9226, 11275, -10129, 5826, -7530, -4299, -4242, 2481, 2891, 2077,
    -14258, 14305, 11542, -3681, 2347, -10985, 4415, 12351, 14035, 12934, -14578, -14803, 7761, -9889, -10189, 4465,
    -14430, 9464, -10522, 3496, 4276, -10107, -3242, -12530, 15759, 195, -11531, 10338, 7854, -9272, -5278, -13923,
    1857, 1672, -14651, -10099, -1489, -14175, 7924, 8954, 6873, 10525, 9865, -3332, -1655, -6748, -10809, -7304,
    7315, -4556, 16278, 2520, 5415, 911, 9735, -4740, 3679, 4503, 11990, 5759, 3213, 1909, -14586, -3694,
    -6161, 4060, -6030, 3011, -49, -5233, 229, -6449, -9290, 1499, 16014, 3681, 3834, 3630, 12518, -3840,
    -2492, 2155, 1915, 15917, -10489, -2359, -9478, 11239, 1749, -13720, -10317, 12295, -1876, 14473, -13374, -7804,
    1552, -15988, -3572, -557, -8592, -10397, 13981, 15454, 8, 13031, -456, 15095, -14967, 3403, -15001, 496
};

int32_t input_unpacked[M_d * K_d] = {
    11489, 4487, 364, -7544, -6298, -15042, -13919, -15843, -10641, 10265, 4896, 13525, 118, 3494, 15425, 7520, 4334, 1429, 1963, 14256, -7296, 10349, 5599, -16295, -3469, 11711, 1779, -15284, 8679, 7525, 11356, -10629,
    -13459, 11900, -15660, 1358, -13750, -6564, -621, -2534, -3171, -15457, -16209, -12312, -16113, 5591, 839, 4823, -7953, 3780, 8652, -3812, -1281, 16292, 9993, 15756, -3948, 6079, 14748, 4930, 11151, 6175, 6684, -3640,
    12293, -11958, 2585, 7257, 11320, 830, -4083, -6218, -2525, -465, 7170, 12762, -13994, 14222, 1027, -4660, 5660, 2343, -8042, -5837, 7192, 3090, 144, -5312, 8541, -3552, -5631, 12788, -7736, -8941, 7018, 4036,
    -14794, -13631, -4026, 10900, -3250, 9407, -6015, -8541, 9558, 12336, -13786, -14465, 5611, -5371, 2413, -11460, 11797, -1628, 12943, 9709, 6728, -8827, 8749, -14680, 2296, -3128, 16274, -9880, 14631, -13411, 4036, 2632,
    13072, -6597, 13175, 5635, 12792, -9847, 8462, 14487, -14792, -4421, 4473, -12928, 329, 4230, 8650, 13997, -2955, -1954, -846, 14896, -9970, -4, -14752, -2451, 14592, 3939, -4928, 16223, 3399, 14710, -15849, -1310,
    10975, 8445, -3032, -85, -2614, 960, -8840, 9364, -13838, -2797, -7148, 7683, 8168, 6918, 13908, 14157, -10334, -12618, -12047, 7504, 15411, 14005, 5512, 15333, 12165, -15903, -12477, 11915, -13686, 15767, 10727, 14981,
    -4577, -11510, 552, 15487, -4351, 12777, -3807, 10563, -8862, -656, -5674, -8770, 12867, 9892, -11808, 13878, 15432, -7664, -2411, 1275, 5147, -1876, -11510, 14123, 6292, -15057, 10299, 7602, -10379, 3747, 54, -15455,
    14005, 7183, -6219, -15860, -13394, 8452, -11491, 418, 13064, 14060, -7605, -14219, -168, 11184, 4084, -14199, 4920, -5102, -8972, -2284, 12232, 15271, -11762, 2039, 8568, -7902, -7450, -8465, -9516, 12717, -9221, -8983,
    -12274, -12303, 9124, -6936, 9895, 2822, 11744, 1772, 8656, 10148, -14385, 1981, -1486, -6934, -1559, -2855, -268, 10424, 10665, 4145, 6890, 15043, 4486, -4280, -13695, 1723, -8800, 3077, -15542, 11412, 14567, -11618,
    10457, -3064, -15019, 13433, 14447, -14973, 3059, 10574, 9497, -2773, 11793, 10807, -12670, -16058, -13035, -4423, -12790, -13808, -7906, 5000, 792, -7411, 14760, 6640, 4404, 14542, 9356, -12229, -15174, 11953, -3020, -14436,
    -768, -3907, -2259, -2302, -6090, -366, -278, 15612, 6315, 9033, -16121, -6264, 15850, -7542, 326, 11898, 4541, 12494, -10997, 350, 4443, -5103, 2430, 16217, 7751, -6032, -14289, -10397, -7471, 12455, -7505, 10234,
    -7412, 5501, 881, 15021, 2175, 13949, 15138, 8134, 4206, 11819, 16267, -8286, 2049, -11756, -12946, 5572, -14827, 7032, 10514, -10911, 5910, -3423, 12890, 13443, 2539, 2011, 6900, 2566, 8056, -10023, 9245, 852,
    8252, 767, -6339, -13470, 831, 15792, -15210, 2339, -1733, -16174, 1427, 8934, 7914, 15671, 952, 2944, 15263, -5909, 9781, -10240, -4525, 5653, 2608, -9991, 5222, 2545, 13777, 3350, 12595, 15152, -13515, -14017,
    83, -1, 1802, 7998, -6051, -10577, 5901, -3668, 14081, -14324, 6854, 7401, -7503, -13509, -5956, -3438, 15709, 12239, -8812, -908, 3273, 13520, -11960, 8713, 13934, 13609, -7306, -12210, 3073, -13974, -12125, -14080,
    -9474, 12086, 5657, 4393, 15905, -113, -15074, -11026, -7855, 5692, -4685, -5964, -12708, 6910, -15582, -1300, 8009, 244, 6128, 9491, -9015, -13345, -14538, 2580, -7732, -9922, 7698, 10097, 14889, -366, 740, 16013,
    121, -10390, -8003, 15172, -14969, 9860, 4833, -615, 10928, 10273, -1967, 3370, 8640, 5083, -475, 13555, 12543, -14246, 1543, 10976, -13618, -3873, 284, -5717, 6401, 16188, -4461, 9214, -12546, -474, -16209, -2536,
    -15925, 12370, 15380, -13540, 10421, 6829, -6528, 9475, 15149, 9804, 6308, -5824, 3488, 9720, 7032, -9001, -2884, -4512, 6381, -2706, -2640, 1356, 2600, -12694, 13924, -3050, -10635, -16375, -2137, 8007, -6675, 11530,
    -9844, -11832, -3569, 6677, -6568, 10521, -15700, 15788, -14840, 11265, -16269, -2487, -6244, 15718, 5075, 15531, -2800, 120, 74, 8304, 299, 13560, -10095, -782, -8299, 11920, -11884, 6604, 13495, -6753, -7236, 8770,
    2992, 2316, 12587, -13309, -7437, -3560, 13679, -13968, -1553, -781, -15909, -2342, 4873, -2499, -6369, 2827, 15757, -12364, -7006, 14213, -6672, 6030, -4870, 10609, 2796, 13002, 4506, 2730, -375, -15067, -12430, 6930,
    4573, 2261, -12555, 10680, 9705, 1053, -8051, 10264, 711, 16286, -7192, -4898, 9949, -10780, -5837, -3550, 7412, 8291, 9451, -1992, 3780, 2896, 8916, -12211, -5960, 7409, -9774, -7207, 15681, -10138, 16320, 11893,
    -11271, 2110, -5776, -508, 3598, 13068, 14132, -13566, -10519, 6427, -9629, -5637, 2800, -10637, 16200, 5727, -8939, -4496, 4854, -5574, 3988, 14538, -4409, -9854, -7021, 398, 1826, -15598, 4691, -11031, 4256, 12563,
    -10046, 9478, -15270, 1862, 5473, -9095, 9226, 1892, -2688, -15986, -11972, 6979, -3049, 7102, 15107, 4785, 7918, 3648, -6548, -13969, 3706, -8310, -12422, 2437, 3608, -3468, 4248, 16122, 8461, 13885, -14161, -11404,
    -4637, 2947, 6406, 6429, 13319, -11910, -10765, -6141, -10888, 7075, -2884, 13143, -7088, -5186, -6590, -8555, 11161, 10544, -6695, 2784, 12404, -768, 13189, -7991, -8982, -14004, 4308, -15798, -10552, 2620, -1946, -10122,
    415, 15582, 15834, -12863, 8296, -1570, -1122, -3452, 11038, -8772, 2774, 8151, -2806, 4708, -12503, 7397, -6430, -13671, -6705, -4826, 4740, 649, 10915, -2402, 12671, -15054, -5734, -10027, -3858, 14582, -11953, -11057,
    -3011, 11536, -16118, 10555, 9156, -3563, -14979, -1089, 6595, 10616, -11192, 5920, 1799, 11040, 6888, 8440, 11630, 6267, -3461, 13532, 1860, 10577, -13015, -10517, 1548, 8133, 14777, -13544, 11807, -2430, 14753, -3384,
    13741, -9760, -5148, 14349, 15883, -13279, -11618, -16224, 14248, -5803, 1008, 16080, 11104, -7711, -4149, 10836, -180, -10712, 14461, 2830, 9063, 15021, 3647, 7094, 11756, 15745, 1205, 2443, 5528, 15837, -1597, 11044,
    -7282, 9117, -12727, 12730, -5241, 4308, -11756, -4707, -13243, 926, 15951, -8963, -7573, 9094, -10207, -10811, -9317, 2529, 121, 1176, -15487, 5632, -6111, 8535, 10921, -12786, -6725, 4094, -10656, -2820, -4912, 3742,
    7985, 6356, -5981, 2800, 9893, 7631, 9435, 656, 2667, -1217, 3685, -6988, -1323, -8876, 140, 6399, 9352, 6413, -10671, -9979, -4134, 15461, -15472, 5608, -6747, 1022, -13536, 11179, 12215, -442, 9170, -789,
    7439, -7921, -5956, -11268, -1504, 6934, 9226, 11275, -10129, 5826, -7530, -4299, -4242, 2481, 2891, 2077, -14258, 14305, 11542, -3681, 2347, -10985, 4415, 12351, 14035, 12934, -14578, -14803, 7761, -9889, -10189, 4465,
    -14430, 9464, -10522, 3496, 4276, -10107, -3242, -12530, 15759, 195, -11531, 10338, 7854, -9272, -5278, -13923, 1857, 1672, -14651, -10099, -1489, -14175, 7924, 8954, 6873, 10525, 9865, -3332, -1655, -6748, -10809, -7304,
    7315, -4556, 16278, 2520, 5415, 911, 9735, -4740, 3679, 4503, 11990, 5759, 3213, 1909, -14586, -3694, -6161, 4060, -6030, 3011, -49, -5233, 229, -6449, -9290, 1499, 16014, 3681, 3834, 3630, 12518, -3840,
    -2492, 2155, 1915, 15917, -10489, -2359, -9478, 11239, 1749, -13720, -10317, 12295, -1876, 14473, -13374, -7804, 1552, -15988, -3572, -557, -8592, -10397, 13981, 15454, 8, 13031, -456, 15095, -14967, 3403, -15001, 496
};

int32_t weights[1024] = {
    12568, 10902, -9380, 4992, -10910, -8240, -2395, 14230, 5608, -1976, -9649, 8963, 2968, 30, 5044, -10376,
    13560, -6688, -711, 2438, -10653, -11699, -825, -15934, 3419, -2167, -8552, 8591, -5695, 3740, -9516, -5763,
    4144, 7118, 4598, -508, -8137, 16367, 13473, 9045, -6831, 10834, 2576, -7880, 9214, -11394, 2605, -9854,
    -13966, -2220, -1739, 398, -16193, -10008, -13692, 9173, -14762, 12072, -9399, -6030, -5349, 264, -4414, 3092,
    -3986, 7286, 16041, -11552, -12473, -7181, -9734, 7559, 7385, 2234, 16156, 13105, 15787, -1709, 1765, -3061,
    -7133, -6341, 7979, -8803, -11581, 4940, 1227, -7711, -6447, 11871, -15052, -7516, 1921, 5680, 2417, 2234,
    8958, 4209, 4211, 12957, 8480, -10814, 15318, -11475, 14578, -12390, 15794, -13880, 12670, 1121, 2078, -10954,
    -12074, 10065, -8387, -15644, -1481, -4109, -1599, -879, -14241, -9289, -7545, -4722, -2504, -9084, 9871, -7150,
    -2028, 13987, 16302, -2714, -3679, -3740, -4736, 3642, 4572, 5378, 9184, 5251, -7541, -13607, -2883, 2683,
    13644, 7730, -5955, 9685, 5090, 2901, 11669, -12106, -226, -13640, 7913, -5799, 8945, 14010, 11670, -898,
    3948, 12958, -12611, -1322, -6777, 8359, 15985, -488, -1530, 6838, -8046, -5991, -10943, 12775, 227, -7678,
    3980, -16182, -4392, 7247, 15174, 5786, -12263, 5141, 7061, 6141, -11809, 2826, -3627, -12607, 15852, 5544,
    11141, -16168, -2723, -10393, 13325, -2593, 5339, -3986, 14210, -12486, -12130, -2394, 2749, 4050, 12050, -4016,
    14723, 6832, 2408, -8818, 7926, -11672, -14499, 8155, -8413, 5528, 2026, -2315, -1482, -11903, -6392, 5363,
    -3925, 8190, 14649, -11012, -10121, 6203, -8045, -4731, 13500, 13602, 13896, 8242, -14804, -7415, 4312, 14353,
    -7952, -15558, 6558, -10328, 12523, -8458, -12236, 7604, -9661, 857, 15455, -1168, -6678, -9093, -192, 8403,
    7655, -12547, 3001, -8280, -4371, 10038, 10668, -1605, -8256, 12347, 11621, 3331, -2684, 9487, -3476, -10244,
    14760, -6023, 6200, -4041, 15483, -191, 2274, -903, 12566, 10566, 1280, -10709, -5276, 11517, 15595, 12748,
    15085, -13910, -2611, -16077, -14200, -6792, 2589, -3253, -3034, 15415, 16316, -14045, -4976, 9217, -4535, -806,
    552, -12129, -1637, -4389, -2855, -3903, -16297, -8403, 6315, -6739, 16043, -2625, -4516, 15147, -9836, -1349,
    10058, 14750, 14106, -15384, 68, -14218, -2429, -15473, -7099, 5437, 11266, -9168, -3014, 2504, 8886, 9678,
    16248, -5512, 1599, -8334, -16177, 7386, -1304, -790, 430, -11495, 7444, -13519, -14161, 7771, -3933, 11809,
    10691, 12791, -9965, 330, 15008, -11356, 11011, -8990, -6566, -1523, -244, 11529, 11176, 4921, -1632, -7399,
    -7512, 8386, -4374, -2116, -6656, 15819, -3116, -2336, 12167, 11049, -12254, -15908, 12022, 7150, 13834, -3327,
    -9309, -33, -10775, -9869, 6975, 14074, -7154, -9843, 12162, 2018, 5606, 3189, 7128, 11745, -13528, -1093,
    10545, 10809, 11184, 783, -8145, 14953, 14335, 7097, -2101, 13503, -6331, 14495, 7463, 9904, 7191, -12375,
    -12988, -12307, 14930, 3809, 13739, -7498, 990, -3764, 7267, -10688, 9250, 8590, 5397, 11616, 16337, -12033,
    10871, 551, 11035, -3441, -14203, 9503, -11617, -1148, 6955, 7563, -14832, 2166, -13513, 15671, 534, -2634,
    -3215, 15979, 7883, -2771, 7469, -10399, -3288, 9243, 10111, -7481, -202, 2154, 11667, 4784, 725, -9841,
    -240, -15257, 4965, 15959, 3026, 10400, -3464, -12331, -3712, 11402, 4359, -7926, 8772, -8281, -8174, 8933,
    -6338, 8433, 16355, 11336, 10024, -11907, 1096, 8112, 12564, -989, -9302, -5706, -2253, 7677, -11268, 11309,
    15637, -5818, 13091, -11312, -10256, 16111, 2862, 13736, -167, -6887, -8093, 10302, -13362, -13445, 3672, 13518,
    -8635, 8999, 6067, -9934, 6533, -6695, 528, 3131, -10644, -4727, 6671, 7740, -9924, 3026, -12634, -9601,
    14098, 3608, 13967, -15924, -12255, -12723, -5485, -11102, -1721, -4795, 5852, -15994, -1972, 14087, 11550, -8536,
    -9884, -7516, 13023, -4075, -11971, 14442, 9551, -4856, 4253, -2257, -15854, -6603, -2300, 15605, 463, -4429,
    -11710, -13647, 3296, 5176, 4117, 7097, -11563, -4187, 561, -9458, 5701, -2974, 11922, -1997, -7665, 16229,
    15936, 11745, 297, 3961, -9779, -10030, 10138, 6157, -63, 8486, -10522, -13914, 285, -3949, -8885, -5674,
    -8839, 2307, -1988, 5015, -15671, -10441, -4385, -995, 10259, 16127, -15177, -15865, 10834, -4228, 13369, -5430,
    10150, -3094, -14181, 12097, -10871, -2022, -8443, 12552, -4593, 2475, -14839, -2471, -10819, -8117, -11834, 10604,
    12790, 4725, 81, -9430, 2102, -12122, -1340, -12274, -11525, 13404, -1369, -3166, -2157, 10495, -611, 12955,
    -7195, -8968, -9581, -15317, -16308, -10475, -5936, 8944, -4330, -15879, -3218, 2101, -15980, -10117, 14816, 8737,
    5299, -676, -9032, 1608, 8620, -6770, -1963, -1423, 5480, -14887, 4416, 10142, -14559, 13352, 3470, 8278,
    -5482, -144, 7822, 11265, 3259, -16259, 1419, 5438, -7169, 8761, 9018, -5681, -7085, 11684, 6217, -16378,
    -7552, 4329, 4045, -6521, 13180, 4214, -5410, -8148, -3848, -9510, -3917, 4134, 9506, -101, -1322, -10248,
    276, 12654, 5318, 12530, 541, 1624, -12872, 6753, 13210, -1593, 2263, 9877, -5167, 10939, -5066, 8655,
    8984, -8417, 5889, -15582, 8274, 5185, -15248, -2908, 11715, 12919, -4602, 11791, 12486, 1105, -12062, -4016,
    5388, 6979, 16359, 6860, 4850, 5973, 8371, 11220, 16368, 2533, -8923, 525, 12458, 554, 15389, 12746,
    11226, -4367, 12104, 11203, -2193, 160, 4234, -13588, -16362, -1672, 3343, -6843, 12409, 913, -15729, 11577,
    -56, -10504, 2887, -812, -14779, 2703, 6309, 8841, -8755, 14449, 10633, 1658, -2680, 13815, -1646, -5356,
    -146, 8661, 3187, 8641, -3774, 1680, -4971, -10690, -2111, -3729, 12294, -6854, 14587, 15298, -11252, 4738,
    7187, 13403, 15420, -6680, 2303, -2329, 1008, 2207, 4288, -4761, -7786, -1426, 14446, 3254, 8887, -15458,
    -13129, -5250, -16212, -16377, 2844, -573, -1090, 3538, 10552, -13337, 8407, -8452, 6551, 9961, 15921, 11150,
    5336, -3679, -6499, 10296, -10545, -7303, -7436, 6753, 16183, 1489, 12670, -1963, 12391, 5126, 9622, -15946,
    12518, -11062, -5122, -6756, 11168, 5916, -10899, 6757, -7308, 5923, 1357, 8769, 13098, -13778, 5016, -12915,
    13809, 11644, 14621, -4692, 3669, 2240, -14115, 114, 732, 4150, -7904, -13863, -15592, 8840, 6914, -12341,
    13329, 5943, -9926, -3207, 15149, -254, -16138, 5626, 15197, -4227, 11308, -14876, -14100, 15211, -5516, 743,
    -7929, 7934, -3963, 1025, 13994, 10475, 15540, 2117, -15334, -12362, -7065, 4649, 13795, -10724, -12728, 10605,
    3019, 5933, -5802, 14411, 4018, 4229, 10954, -9006, 6333, 1872, 72, 8905, -7363, 6943, 9991, -5168,
    -8543, 5090, -8234, 14262, -13604, 6055, -1662, -4349, 1847, 13459, -11604, 10735, -2694, 11638, 8432, -12884,
    -9157, -6855, -13569, 9506, 667, -7380, 7932, -13969, -15137, 6005, 8284, 9806, 2898, 4645, -10194, -5085,
    -11830, 1958, 5844, -15679, -10729, 2053, 2478, 11691, 7686, -13827, -13259, -3824, -13984, -10982, -7813, -3932,
    7935, -15958, 532, 10740, 8995, -124, -5716, -2100, 2102, 3335, 14824, 11469, 7536, -6840, 3460, -7619,
    -1142, -14763, -7586, -7655, 4822, -14215, -7108, -15023, -10053, 1727, -7796, -10361, 8075, -13951, -12079, 13654,
    15338, -11511, 10264, -13277, -1307, 15423, -986, 5471, 13492, 7397, -15590, 2071, -12421, -14078, 10440, 11202
};

int32_t weights_unpacked[N_d * K_d] = {
    12568, 10902, -9380, 4992, -10910, -8240, -2395, 14230, 5608, -1976, -9649, 8963, 2968, 30, 5044, -10376, 13560, -6688, -711, 2438, -10653, -11699, -825, -15934, 3419, -2167, -8552, 8591, -5695, 3740, -9516, -5763,
    4144, 7118, 4598, -508, -8137, 16367, 13473, 9045, -6831, 10834, 2576, -7880, 9214, -11394, 2605, -9854, -13966, -2220, -1739, 398, -16193, -10008, -13692, 9173, -14762, 12072, -9399, -6030, -5349, 264, -4414, 3092,
    -3986, 7286, 16041, -11552, -12473, -7181, -9734, 7559, 7385, 2234, 16156, 13105, 15787, -1709, 1765, -3061, -7133, -6341, 7979, -8803, -11581, 4940, 1227, -7711, -6447, 11871, -15052, -7516, 1921, 5680, 2417, 2234,
    8958, 4209, 4211, 12957, 8480, -10814, 15318, -11475, 14578, -12390, 15794, -13880, 12670, 1121, 2078, -10954, -12074, 10065, -8387, -15644, -1481, -4109, -1599, -879, -14241, -9289, -7545, -4722, -2504, -9084, 9871, -7150,
    -2028, 13987, 16302, -2714, -3679, -3740, -4736, 3642, 4572, 5378, 9184, 5251, -7541, -13607, -2883, 2683, 13644, 7730, -5955, 9685, 5090, 2901, 11669, -12106, -226, -13640, 7913, -5799, 8945, 14010, 11670, -898,
    3948, 12958, -12611, -1322, -6777, 8359, 15985, -488, -1530, 6838, -8046, -5991, -10943, 12775, 227, -7678, 3980, -16182, -4392, 7247, 15174, 5786, -12263, 5141, 7061, 6141, -11809, 2826, -3627, -12607, 15852, 5544,
    11141, -16168, -2723, -10393, 13325, -2593, 5339, -3986, 14210, -12486, -12130, -2394, 2749, 4050, 12050, -4016, 14723, 6832, 2408, -8818, 7926, -11672, -14499, 8155, -8413, 5528, 2026, -2315, -1482, -11903, -6392, 5363,
    -3925, 8190, 14649, -11012, -10121, 6203, -8045, -4731, 13500, 13602, 13896, 8242, -14804, -7415, 4312, 14353, -7952, -15558, 6558, -10328, 12523, -8458, -12236, 7604, -9661, 857, 15455, -1168, -6678, -9093, -192, 8403,
    7655, -12547, 3001, -8280, -4371, 10038, 10668, -1605, -8256, 12347, 11621, 3331, -2684, 9487, -3476, -10244, 14760, -6023, 6200, -4041, 15483, -191, 2274, -903, 12566, 10566, 1280, -10709, -5276, 11517, 15595, 12748,
    15085, -13910, -2611, -16077, -14200, -6792, 2589, -3253, -3034, 15415, 16316, -14045, -4976, 9217, -4535, -806, 552, -12129, -1637, -4389, -2855, -3903, -16297, -8403, 6315, -6739, 16043, -2625, -4516, 15147, -9836, -1349,
    10058, 14750, 14106, -15384, 68, -14218, -2429, -15473, -7099, 5437, 11266, -9168, -3014, 2504, 8886, 9678, 16248, -5512, 1599, -8334, -16177, 7386, -1304, -790, 430, -11495, 7444, -13519, -14161, 7771, -3933, 11809,
    10691, 12791, -9965, 330, 15008, -11356, 11011, -8990, -6566, -1523, -244, 11529, 11176, 4921, -1632, -7399, -7512, 8386, -4374, -2116, -6656, 15819, -3116, -2336, 12167, 11049, -12254, -15908, 12022, 7150, 13834, -3327,
    -9309, -33, -10775, -9869, 6975, 14074, -7154, -9843, 12162, 2018, 5606, 3189, 7128, 11745, -13528, -1093, 10545, 10809, 11184, 783, -8145, 14953, 14335, 7097, -2101, 13503, -6331, 14495, 7463, 9904, 7191, -12375,
    -12988, -12307, 14930, 3809, 13739, -7498, 990, -3764, 7267, -10688, 9250, 8590, 5397, 11616, 16337, -12033, 10871, 551, 11035, -3441, -14203, 9503, -11617, -1148, 6955, 7563, -14832, 2166, -13513, 15671, 534, -2634,
    -3215, 15979, 7883, -2771, 7469, -10399, -3288, 9243, 10111, -7481, -202, 2154, 11667, 4784, 725, -9841, -240, -15257, 4965, 15959, 3026, 10400, -3464, -12331, -3712, 11402, 4359, -7926, 8772, -8281, -8174, 8933,
    -6338, 8433, 16355, 11336, 10024, -11907, 1096, 8112, 12564, -989, -9302, -5706, -2253, 7677, -11268, 11309, 15637, -5818, 13091, -11312, -10256, 16111, 2862, 13736, -167, -6887, -8093, 10302, -13362, -13445, 3672, 13518,
    -8635, 8999, 6067, -9934, 6533, -6695, 528, 3131, -10644, -4727, 6671, 7740, -9924, 3026, -12634, -9601, 14098, 3608, 13967, -15924, -12255, -12723, -5485, -11102, -1721, -4795, 5852, -15994, -1972, 14087, 11550, -8536,
    -9884, -7516, 13023, -4075, -11971, 14442, 9551, -4856, 4253, -2257, -15854, -6603, -2300, 15605, 463, -4429, -11710, -13647, 3296, 5176, 4117, 7097, -11563, -4187, 561, -9458, 5701, -2974, 11922, -1997, -7665, 16229,
    15936, 11745, 297, 3961, -9779, -10030, 10138, 6157, -63, 8486, -10522, -13914, 285, -3949, -8885, -5674, -8839, 2307, -1988, 5015, -15671, -10441, -4385, -995, 10259, 16127, -15177, -15865, 10834, -4228, 13369, -5430,
    10150, -3094, -14181, 12097, -10871, -2022, -8443, 12552, -4593, 2475, -14839, -2471, -10819, -8117, -11834, 10604, 12790, 4725, 81, -9430, 2102, -12122, -1340, -12274, -11525, 13404, -1369, -3166, -2157, 10495, -611, 12955,
    -7195, -8968, -9581, -15317, -16308, -10475, -5936, 8944, -4330, -15879, -3218, 2101, -15980, -10117, 14816, 8737, 5299, -676, -9032, 1608, 8620, -6770, -1963, -1423, 5480, -14887, 4416, 10142, -14559, 13352, 3470, 8278,
    -5482, -144, 7822, 11265, 3259, -16259, 1419, 5438, -7169, 8761, 9018, -5681, -7085, 11684, 6217, -16378, -7552, 4329, 4045, -6521, 13180, 4214, -5410, -8148, -3848, -9510, -3917, 4134, 9506, -101, -1322, -10248,
    276, 12654, 5318, 12530, 541, 1624, -12872, 6753, 13210, -1593, 2263, 9877, -5167, 10939, -5066, 8655, 8984, -8417, 5889, -15582, 8274, 5185, -15248, -2908, 11715, 12919, -4602, 11791, 12486, 1105, -12062, -4016,
    5388, 6979, 16359, 6860, 4850, 5973, 8371, 11220, 16368, 2533, -8923, 525, 12458, 554, 15389, 12746, 11226, -4367, 12104, 11203, -2193, 160, 4234, -13588, -16362, -1672, 3343, -6843, 12409, 913, -15729, 11577,
    -56, -10504, 2887, -812, -14779, 2703, 6309, 8841, -8755, 14449, 10633, 1658, -2680, 13815, -1646, -5356, -146, 8661, 3187, 8641, -3774, 1680, -4971, -10690, -2111, -3729, 12294, -6854, 14587, 15298, -11252, 4738,
    7187, 13403, 15420, -6680, 2303, -2329, 1008, 2207, 4288, -4761, -7786, -1426, 14446, 3254, 8887, -15458, -13129, -5250, -16212, -16377, 2844, -573, -1090, 3538, 10552, -13337, 8407, -8452, 6551, 9961, 15921, 11150,
    5336, -3679, -6499, 10296, -10545, -7303, -7436, 6753, 16183, 1489, 12670, -1963, 12391, 5126, 9622, -15946, 12518, -11062, -5122, -6756, 11168, 5916, -10899, 6757, -7308, 5923, 1357, 8769, 13098, -13778, 5016, -12915,
    13809, 11644, 14621, -4692, 3669, 2240, -14115, 114, 732, 4150, -7904, -13863, -15592, 8840, 6914, -12341, 13329, 5943, -9926, -3207, 15149, -254, -16138, 5626, 15197, -4227, 11308, -14876, -14100, 15211, -5516, 743,
    -7929, 7934, -3963, 1025, 13994, 10475, 15540, 2117, -15334, -12362, -7065, 4649, 13795, -10724, -12728, 10605, 3019, 5933, -5802, 14411, 4018, 4229, 10954, -9006, 6333, 1872, 72, 8905, -7363, 6943, 9991, -5168,
    -8543, 5090, -8234, 14262, -13604, 6055, -1662, -4349, 1847, 13459, -11604, 10735, -2694, 11638, 8432, -12884, -9157, -6855, -13569, 9506, 667, -7380, 7932, -13969, -15137, 6005, 8284, 9806, 2898, 4645, -10194, -5085,
    -11830, 1958, 5844, -15679, -10729, 2053, 2478, 11691, 7686, -13827, -13259, -3824, -13984, -10982, -7813, -3932, 7935, -15958, 532, 10740, 8995, -124, -5716, -2100, 2102, 3335, 14824, 11469, 7536, -6840, 3460, -7619,
    -1142, -14763, -7586, -7655, 4822, -14215, -7108, -15023, -10053, 1727, -7796, -10361, 8075, -13951, -12079, 13654, 15338, -11511, 10264, -13277, -1307, 15423, -986, 5471, 13492, 7397, -15590, 2071, -12421, -14078, 10440, 11202
};

int32_t bias[N_d] = {
    0, 0, 0, 0, 0, 0, 0, 0, 0, 0, 0, 0, 0, 0, 0, 0,
    0, 0, 0, 0, 0, 0, 0, 0, 0, 0, 0, 0, 0, 0, 0, 0
};

int32_t golden[M_d * N_d] = {
    189440101, -555836220, 913908193, -540591132, 924258402, -370258450, -663423009, -131657428, 318409361, 365034022, 1072127489, 1218933507, 308353203, 237330995, 449128598, -1084519392,
    455396388, -688220905, 505436415, -2231227, -165434739, 64472571, -259716685, 233902634, 568518442, -222437404, -27991882, 13663954, -189212354, 417414800, -602106455, 32553611,
    -529182810, -602582905, -654861938, -434223596, -179082842, 332174818, -450631846, -241211737, -703736050, -561958697, -279605507, 68435998, 721478908, -678174832, -165655945, 349027459,
    -95915454, 372472785, 46299394, 245199696, 558135262, -11631148, 45103733, -595395207, -166049606, -89720071, -125456015, -208535993, 45907251, 288174479, 878628938, 3070358,
    11268630, -971326326, -541813864, 186974879, -192566001, 447849887, 371272992, -105861248, 658096912, 11869011, -96674450, 130175845, 27101369, 574603691, -507620490, 343472097,
    -133669761, -269527790, -672773798, -135956777, 130022914, 450109567, 453836242, -738944978, -242876663, -93436488, 251055802, 397866887, -169604979, -68816108, -496232983, 309090164,
    -164250130, -492685190, -749595585, -391496226, 288545460, -37615408, 303300290, -123686719, 272857119, -174947692, -742802009, -840274027, 58441879, -627206636, 372291526, -387325472,
    -195991255, 861019133, 2431147, 242833487, -550595946, 94545672, -427234091, 840716178, 408162288, -316152771, 461917000, -172254155, -252087243, 746541508, 632450952, 86192722,
    374924060, 276941860, -295906550, -383477613, -319211241, -345979406, -80667353, -869390711, -320194232, 798746859, 339033540, 103713963, -692420689, 867935823, 173881329, 126612742,
    -446016636, 34210564, 350970738, -122447191, 230502389, 380738676, 449889811, 574741944, 604074847, -293182882, -487070353, 364191930, 411780979, -549074010, -178129756, -174516936,
    74367856, -405350460, -147748210, -776035176, 27405537, 847628978, -787626257, -148462542, 260366366, -298159656, 281419482, 264223291, -501569058, -140649071, -280468378, 376593965,
    -1244265578, 91295986, -614183088, -257360651, 1337364979, -291356556, -74279553, -359339061, -554186570, 1091786024, -405152476, 536376992, 700307499, -181813604, -465971508, 418798395,
    -36625104, -251238589, -1055209532, -549910567, -353557496, 102898182, -74206505, -252004116, 49053781, 460079986, -362938892, -1091467966, 39459633, -99119985, -800695780, 626526720,
    -178667892, 198235130, -704670483, 140746151, 262024368, -175528053, 388753422, -248516150, 86734094, -360530153, 408889484, 474745944, 562911824, -233296721, 334624547, 307747529,
    551197518, 114557348, 36652865, -328415943, -29500039, 1010415817, 149922597, 111814832, 576158608, 1351620949, 617863985, 31460440, 154988350, -61321576, 36598475, -415159907,
    -388667139, 544944829, 197589158, -151489591, 256879575, 172121597, 391330512, -313063617, 296970875, 717301375, 702563080, 2114088047, -987118587, 202488601, 87048247, -151056235,
    -485580297, 8450249, 95432441, 18401846, 328912527, -27587804, 83185681, -298535658, 313772150, -650543976, -506413704, 43392674, 908719452, 885446901, -319724460, 491734998,
    234459472, -50160643, -334798757, -172164576, -48260449, 189886249, -711288277, 162867259, -234765246, -404180345, -531168915, -262364296, 787200478, -80753848, 213044819, 315096565,
    337265457, -59430051, -181245513, 248984157, 58529200, -417156765, -465826588, -61177353, 2022943, 132984196, -584257711, 472854311, -305671776, -218995059, 57594250, -560985568,
    214966203, -1532585449, 456973959, 450495971, 23915669, -243023095, -180082358, -800578643, -483604683, -382976713, -92172221, -106111125, 310468774, 165871460, -58519589, -394655866,
    204383195, 459456992, -52610161, -403779299, 14764630, -214624452, 274126600, -501564077, -29750594, -222442622, -47739390, -147347665, -326649725, -279765155, -531904314, 316169131,
    -690940913, -148719788, 429259833, 681938492, 599615493, -699312737, -360326467, 382151092, -74827717, 402944502, -496609317, 545805217, 210508155, -496837460, -509171333, 396072888,
    -1112820402, 640477699, -143643514, 715113970, 90869051, 13060593, -763017643, 643333592, 164008762, -621311191, -919827954, -184688342, 361244877, -1024452388, -534763838, 390466002,
    -262318198, -244456639, 329760694, -244111575, -1103444855, 157113427, -25452796, -150008854, -92266168, -59294658, 23215382, -1038808037, 367858683, -422501721, -220667679, -223124447,
    592879733, -851889544, 318241543, -984045482, 26404601, -768857297, 219427773, -354953364, 189413645, 626845767, 257532912, 20675384, 1236763625, 422108490, 292447948, -606462340,
    763840277, 65526741, -991051350, 65680267, 19801986, -399748879, 1141344870, 445366989, 565424502, -53109829, 294458825, 356018295, 65308230, 67874619, 335372979, -469365108,
    117028727, -347355799, 21071757, 471709517, 56036386, 75756939, 600142071, -264341535, -297187267, -498033834, -243869882, 664545688, 40174714, 547352929, 264831334, 276426040,
    -129379236, -633223021, 489541915, -171048283, -271884240, -63167701, 886488672, -405512978, -460119028, -633117048, 891528626, 367716600, -227921278, -788095169, 402658445, 452724727,
    -298710354, -226282381, -691658660, -518773856, 348163307, -23551727, -54749001, 374440049, -452771301, -50924105, 425977047, -468316867, 124048502, -298805268, 244463075, 679409014,
    740483442, 512603505, -192648239, 271864213, -397027745, 207493189, 395659184, 144496210, 228498353, -186020526, -541361592, 433220232, -205418279, 112828843, 276249722, -112662146,
    988633709, 395754343, 62527835, -908706113, -782512903, 218596970, -136033523, -102425499, 65981948, 398622256, -347054487, -757742700, 411880128, 388131375, -17532680, 263270731,
    -962752162, 91645278, 78249395, 632517744, -268751661, -915744858, 657175621, 733779251, 226688497, -1469695883, 299164668, -761024889, 59846927, 922124637, -79024402, 350934934,
    31373327, 167906673, 1221097836, -191876270, 530830710, -108084089, -347234625, 385058225, 482020828, 143620142, 788095157, 160482880, 123761042, 1048139004, 1051501807, 402679421,
    655878231, 698700858, 35575878, -749379345, -410860784, 290657710, 415262138, 854806048, 339232314, 933526156, -496449096, 904692156, -473279950, -254442780, -240810782, -427736855,
    -202325154, 192646596, -128909909, -1632527869, -798681429, 507596842, -221908564, -186593484, -307658114, -390444061, -959122112, -505807913, 173140076, -261156486, 144462031, 245087358,
    -1089032611, 954730518, -90072906, 851806378, -93791704, 182611778, 748322994, 503924761, 684920095, -1068960689, 67195021, -415740902, -319652481, 721856208, 78223720, 243260223,
    -2499997, 330378024, -248054815, -691263106, -380661789, 708719828, 627076892, 165669642, 26882230, 125006555, 690687141, -162806919, -154370825, -214863804, 697982163, 661730169,
    -695664686, 795871389, 384575444, -334088585, -301463806, -980166397, -108764931, 500376656, -280983211, -247104757, -87798554, 105540655, 187129159, -120732529, 978973742, 970330555,
    118608690, 47949034, 167468323, 47053112, 314490869, 213157447, -68115655, -708025673, 259393315, -1014161940, -734386033, 713085088, 421401448, -725690569, 410772822, 255017176,
    -63468629, -589928170, 909295206, 1075368531, -1052271652, 93590790, -19632474, 609830139, -151027061, -161242047, 379595526, -722650871, 241232583, -127986758, -502756514, 759529158,
    -955311208, 549643378, -223906658, 82060263, -340564051, 608090732, 51905884, 357029212, 139906680, -443477692, 237732731, 453354415, -561559627, -403201673, 195534882, -295244468,
    -396928901, 972570463, -77580517, -210407597, -389779962, -119252364, -701431847, 574062454, -104687623, 215332035, -538002391, -502330281, 277299408, 80600980, -227540852, 605764323,
    770929878, -598655079, -782611050, -76629784, -437849695, -74044365, 716977565, -556438052, -864128492, -160286937, -314827357, 149097080, -76942067, 464455685, -311359180, -247547674,
    308904496, -163285559, -671434084, 181439246, 992038347, 361569157, 926657459, -67843263, -157713668, 115573457, 244564027, 243304787, 257827626, 482569676, 348713251, -681280003,
    1485150, -935849899, -362413434, 49052552, 1172237256, -765627801, -300653231, -281967671, -3154115, -447287177, 442262694, 124460156, -321218676, -83958551, -106642131, -148137105,
    982194360, -893761780, -648389181, 169538162, 59344976, 625459224, -564464932, -206102400, -19278386, -97244170, -523858887, 791414456, 378182830, 306462295, -431153965, -252650914,
    77107273, -696255104, 548450812, 77065677, 800493957, -446162682, -628632534, 387628120, -190169332, 233559371, 817387630, 264826216, 27910141, 164778346, 353187565, 269288488,
    638622730, 138215208, -304637874, -827901899, 66635433, -108794315, 548115251, 85598534, -348229040, 875178540, -832419930, 737283244, 286719993, -401487798, 166211102, -442392414,
    105270008, -874718590, -441109577, -606572804, 482569288, 475474062, 24071443, -257244456, -151153652, -414420145, -124069451, 969205200, 399373311, -205393539, 802734670, -192836744,
    54534639, -192057473, 290859603, 439504407, -505687355, -6997990, 624929782, 512984292, 192707625, -103118830, 568777998, 542731520, 86612985, 570404098, -36430302, -203931548,
    -282012016, -1178460034, 255437969, -335337163, -187094600, -558408508, 247643263, -92466600, 307227711, -358209519, -92389413, 974237449, 769660785, 809283237, 584210879, 486142264,
    -736202340, -480625785, -486141027, 167936014, -466716947, -546339454, 1023428046, 322597988, -588225579, -187089734, 240517723, -358859623, 132261199, -580735649, -600474484, 1280074315,
    -37484732, 294288526, -234812629, 142968044, -514945005, 303703439, -1131620317, -374171485, -311020819, 333139617, 294023282, 49832527, 169798145, 142407188, -498499742, 292267968,
    114194598, -82543484, 26566332, -388197032, -107203108, 371623122, -6365513, -1423033374, 164750591, -294119968, -216449416, 186012440, -284208731, 5843343, -756115472, 133703807,
    -208724710, 394876960, -244940981, 725543923, -43422060, 590269856, 328764587, -372401598, -272238915, -418835127, -78118445, 732767394, 532349279, 67996964, -371634816, 497705422,
    -311914296, -395397212, 288059033, 112278786, -390682378, -34602233, 488656648, -54420820, -489548206, 16225599, 577628630, -208176485, 312338132, -711774782, -169214634, 471367131,
    -344923756, 831797046, -98537824, -461957124, -1034068900, 315783923, 505431675, -325677738, 468814279, -140042103, -666274880, 434332326, -240939335, -558963572, -454082149, -560033202,
    -310927523, 166984858, 1165865048, 234436153, -385248755, -171425522, -302349601, -198256535, 280796400, -265564545, -743902730, -81900021, -322866096, -635567908, -477305309, 181630225,
    385969393, -198468232, -178181165, 355416933, -274900078, -373829820, 452405301, -56939376, -727564052, -740116728, -514654709, 264944845, 234675074, -201531922, 178532577, -183022349,
    33208731, -621902318, 127105913, -83903070, -328117422, -402642156, 199151105, -545988584, -883112475, 341633867, 400084789, -18840752, -50798981, 765913614, 177115060, -55269568,
    -513526167, 121436292, 131361378, 781620334, 656015156, -427978102, -220625045, 334935041, 409519106, 405213734, -118010560, 147136201, 132816668, -153480547, 7019186, -358088973,
    444608016, -22022672, 54469650, -309432437, -730549169, 246540880, -306433306, 37508921, 505927109, 399324620, 37100996, -222728232, 312721328, 188555853, -10144013, -852581850,
    1052989941, 34733529, 136426712, -680038117, -819672403, -59093616, -243959511, -251477303, -410957974, -530960309, -707591149, -836558072, 250649728, 317856920, 196324491, 913627761,
    -243396338, -88876528, -206966933, 592200212, 145357228, -447089289, 833264875, -267828596, -403208179, -362871920, 201368472, -190279152, -71966964, 1020110780, 395618979, -312138406
};

#endif  // __ARRAY_MODE0_32B_32B_32_32_32_RANDOM_H__
