#ifndef __ARRAY_MODE6_8B_4B_32_32_32_RANDOM_H__
#define __ARRAY_MODE6_8B_4B_32_32_32_RANDOM_H__

#include <stdint.h>

// Pattern type      : random
// Input  bitwidth   : 8
// Weights bitwidth  : 4

#define M_d 32
#define K_d 32
#define N_d 32

#define I_TYPE int8_t
#define W_TYPE int8_t
#define C_TYPE int16_t

const int8_t zp_input   = 0;
const int8_t zp_weights = 0;

int8_t input[1024] = {
    126, 127, -20, 26, -34, 53, 65, 22, 61, 1, -75, -87, 79, 96, -26, -39,
    102, 94, 47, -66, -106, 101, -13, 64, 63, -59, -40, 4, 49, -63, -102, 77,
    24, -92, -54, -79, 39, -101, 37, -99, -109, -18, 84, -33, 28, -37, -43, -26,
    -1, 84, 69, -47, -122, 117, 62, -38, -54, 28, 72, -74, 7, -114, -72, 35,
    -126, 22, 72, 51, -14, -115, 116, -46, -77, 120, 21, -126, 24, 59, 14, 37,
    120, 84, 33, 4, -94, -6, -96, 85, 93, -42, 108, -38, -71, -85, -126, -42,
    6, 1, 123, 1, -70, 48, 53, 22, -120, -99, 96, 6, -44, -28, -113, 81,
    55, -116, 62, -116, 22, 75, 60, 123, 8, -69, -3, 36, -98, 68, -50, 94,
    90, 92, 98, -48, -123, -105, -9, 121, -107, 10, -32, 109, 75, 91, 121, 124,
    59, 73, 75, -73, 126, -66, -2, -112, 117, 41, 90, -22, 66, 20, 98, 24,
    -111, 92, -76, -54, 115, 42, 119, -126, 91, 26, 94, -33, -53, 56, 127, -105,
    -50, 62, -124, -93, -114, 39, -60, -90, -111, 120, 114, 26, 94, -72, -19, 123,
    -15, -124, 18, -97, 88, 91, 91, 42, 65, -23, -127, 10, 11, -99, 93, 35,
    -77, 26, 3, 99, -55, 79, 69, -116, -34, -39, -8, 40, 13, -84, -34, -17,
    0, -1, -79, 110, 87, -17, 114, 75, -1, 93, -66, 5, 114, 6, -42, -13,
    -16, 125, 72, 106, 57, 41, -31, -120, -123, -69, -14, 56, 89, -87, -38, -35,
    -100, 16, -82, -16, 50, 65, 33, -121, 109, -41, -16, 44, 96, -97, -77, -60,
    42, 109, 98, 6, -82, 9, 90, 92, 24, -127, -113, -126, -98, 114, 70, 52,
    67, -91, -122, 16, -4, 67, -84, -60, -32, 76, -4, 46, 71, -51, 82, 12,
    -25, 13, 90, 24, -14, 126, 69, -26, -112, 2, 111, 106, 27, 46, 72, 51,
    115, 119, 71, 101, 13, -74, 36, -15, -48, 34, 102, 87, 25, -109, -20, 95,
    -63, -27, 38, -126, -91, -114, -32, 109, -83, 111, 28, -65, -68, 18, -55, 91,
    -18, 14, 118, 110, 49, -10, 96, -96, 31, -68, 95, -5, -108, -108, -71, -56,
    -82, 109, 112, -39, -100, 8, 21, 103, -35, -108, 117, -128, 22, -101, -66, 112,
    118, 119, 124, -14, -69, -114, 7, 115, -69, 91, -17, -20, 118, 12, -122, -125,
    -58, -22, -90, -87, 120, -16, -86, -40, -83, -104, -22, -97, 66, 111, -68, -16,
    -29, 59, -81, 52, -47, 91, 68, -26, -17, 34, -112, 17, -48, -105, -44, -121,
    41, -54, -100, 104, -120, 60, 54, -66, 63, 65, 68, 85, 103, -118, 108, 113,
    -81, -126, -24, -88, -54, 27, 54, 104, 123, -90, -101, -76, 64, -18, -56, -95,
    31, -128, 111, 123, 49, -104, 60, -116, 16, 37, 51, 118, 59, 115, -80, 54,
    -128, 98, 38, 120, -37, -40, -101, -83, 88, 90, 1, 51, 71, -105, -75, -52,
    92, -32, 77, -50, 30, 94, 60, 127, -43, 26, -23, -98, 41, -69, -110, 98,
    102, -49, 24, 101, 83, -20, 57, -89, 43, 31, -121, 92, 12, 11, -91, -33,
    41, 107, -77, -12, -76, 67, -64, -24, 111, -65, -100, 68, -39, 121, -91, -113,
    81, -29, 6, 24, 17, -112, -64, -3, 14, 109, 8, -18, 116, 96, 124, -80,
    -120, -73, -105, 71, 18, 29, -84, 81, 24, 39, 29, 12, 36, -110, -93, 99,
    111, -68, 40, 84, 72, 41, 91, 30, 61, -30, -84, -84, -41, 80, 120, -72,
    -55, -56, -23, 41, 109, 49, -26, 5, 53, 56, -15, -27, -118, 44, 117, -21,
    -82, 85, 53, -118, 120, -33, 38, 108, -90, 109, -6, -111, 111, -118, -128, 111,
    -2, 102, 54, -80, -92, 23, -5, 10, -21, 43, -43, -90, 36, -80, 14, -62,
    12, 58, -106, -120, -35, -49, 44, -65, -29, 8, -69, -105, -42, 3, 116, -79,
    41, -29, 63, -93, 65, 52, -105, -14, 50, 75, 52, -19, 103, 32, -113, 57,
    -115, -38, -62, -59, -93, 48, 53, -120, 24, 124, 37, -114, 17, 41, 34, 54,
    58, 69, 118, -75, -56, 36, 120, -48, -71, 101, -105, 66, -48, 81, 4, -36,
    97, 116, 51, -49, -50, 13, 99, 127, -44, 44, 75, 17, 42, -59, 8, -81,
    16, -126, -34, -10, 41, 57, 21, 64, 106, 51, 38, 21, -3, 30, -96, -28,
    109, -96, 25, 38, -35, -124, -66, 94, -106, 51, 95, -66, 70, 78, -83, 77,
    50, -67, 42, 10, 91, -64, 124, -78, -73, -58, 83, -31, -30, 53, 27, -126,
    -24, -19, 13, 50, -67, 4, -110, 125, 25, -85, 26, -84, -36, -103, 42, 125,
    -75, 104, -108, 24, 75, 106, 11, -66, 106, 60, 7, 43, 0, 48, 95, -65,
    43, -41, 39, 1, -37, 28, -18, 69, -38, 119, -62, -113, 36, 0, 108, 77,
    -81, 38, -50, -113, -75, 19, -43, -16, -38, 37, -61, -69, 27, -122, 47, 59,
    -124, -115, -95, -19, 70, 26, -2, 116, 116, 87, 101, 44, -85, 78, 111, 77,
    13, 99, 93, 27, 16, -47, 21, -14, 49, -22, 67, -75, -16, -91, 21, 93,
    -37, -72, -82, 88, -71, 83, 41, -46, -23, 124, -2, 126, -69, -90, 80, -113,
    -124, -127, -8, 31, 60, -41, 65, -127, -81, 105, -70, -45, 101, -42, 11, 75,
    15, 51, 99, 109, 126, -32, 1, -64, 27, 113, 72, -122, -82, -100, 122, -25,
    -89, -86, 55, 70, 48, -82, 5, 50, -119, 115, 34, -125, 118, -18, 92, -123,
    22, 104, -42, -80, 105, -22, 66, 3, 114, 36, 17, 55, 61, -73, -120, -97,
    125, 89, -72, -6, 45, -14, -123, -96, 53, 47, -22, -110, 31, 104, -118, 18,
    48, 6, -91, 86, -128, -86, -117, 59, -56, -105, 18, -98, 20, 50, 15, -36,
    -13, 99, 115, -96, 46, -12, 94, -74, 98, -122, 52, -76, 27, 108, 102, -9,
    11, 34, 105, -30, 50, -30, 97, -24, -69, -81, 105, 105, -45, 30, -2, -2,
    -127, 66, 62, 79, -114, -117, -115, 111, 31, -47, 80, 46, 37, 95, -90, 35
};

int8_t input_unpacked[M_d * K_d] = {
    126, 127, -20, 26, -34, 53, 65, 22, 61, 1, -75, -87, 79, 96, -26, -39, 102, 94, 47, -66, -106, 101, -13, 64, 63, -59, -40, 4, 49, -63, -102, 77,
    24, -92, -54, -79, 39, -101, 37, -99, -109, -18, 84, -33, 28, -37, -43, -26, -1, 84, 69, -47, -122, 117, 62, -38, -54, 28, 72, -74, 7, -114, -72, 35,
    -126, 22, 72, 51, -14, -115, 116, -46, -77, 120, 21, -126, 24, 59, 14, 37, 120, 84, 33, 4, -94, -6, -96, 85, 93, -42, 108, -38, -71, -85, -126, -42,
    6, 1, 123, 1, -70, 48, 53, 22, -120, -99, 96, 6, -44, -28, -113, 81, 55, -116, 62, -116, 22, 75, 60, 123, 8, -69, -3, 36, -98, 68, -50, 94,
    90, 92, 98, -48, -123, -105, -9, 121, -107, 10, -32, 109, 75, 91, 121, 124, 59, 73, 75, -73, 126, -66, -2, -112, 117, 41, 90, -22, 66, 20, 98, 24,
    -111, 92, -76, -54, 115, 42, 119, -126, 91, 26, 94, -33, -53, 56, 127, -105, -50, 62, -124, -93, -114, 39, -60, -90, -111, 120, 114, 26, 94, -72, -19, 123,
    -15, -124, 18, -97, 88, 91, 91, 42, 65, -23, -127, 10, 11, -99, 93, 35, -77, 26, 3, 99, -55, 79, 69, -116, -34, -39, -8, 40, 13, -84, -34, -17,
    0, -1, -79, 110, 87, -17, 114, 75, -1, 93, -66, 5, 114, 6, -42, -13, -16, 125, 72, 106, 57, 41, -31, -120, -123, -69, -14, 56, 89, -87, -38, -35,
    -100, 16, -82, -16, 50, 65, 33, -121, 109, -41, -16, 44, 96, -97, -77, -60, 42, 109, 98, 6, -82, 9, 90, 92, 24, -127, -113, -126, -98, 114, 70, 52,
    67, -91, -122, 16, -4, 67, -84, -60, -32, 76, -4, 46, 71, -51, 82, 12, -25, 13, 90, 24, -14, 126, 69, -26, -112, 2, 111, 106, 27, 46, 72, 51,
    115, 119, 71, 101, 13, -74, 36, -15, -48, 34, 102, 87, 25, -109, -20, 95, -63, -27, 38, -126, -91, -114, -32, 109, -83, 111, 28, -65, -68, 18, -55, 91,
    -18, 14, 118, 110, 49, -10, 96, -96, 31, -68, 95, -5, -108, -108, -71, -56, -82, 109, 112, -39, -100, 8, 21, 103, -35, -108, 117, -128, 22, -101, -66, 112,
    118, 119, 124, -14, -69, -114, 7, 115, -69, 91, -17, -20, 118, 12, -122, -125, -58, -22, -90, -87, 120, -16, -86, -40, -83, -104, -22, -97, 66, 111, -68, -16,
    -29, 59, -81, 52, -47, 91, 68, -26, -17, 34, -112, 17, -48, -105, -44, -121, 41, -54, -100, 104, -120, 60, 54, -66, 63, 65, 68, 85, 103, -118, 108, 113,
    -81, -126, -24, -88, -54, 27, 54, 104, 123, -90, -101, -76, 64, -18, -56, -95, 31, -128, 111, 123, 49, -104, 60, -116, 16, 37, 51, 118, 59, 115, -80, 54,
    -128, 98, 38, 120, -37, -40, -101, -83, 88, 90, 1, 51, 71, -105, -75, -52, 92, -32, 77, -50, 30, 94, 60, 127, -43, 26, -23, -98, 41, -69, -110, 98,
    102, -49, 24, 101, 83, -20, 57, -89, 43, 31, -121, 92, 12, 11, -91, -33, 41, 107, -77, -12, -76, 67, -64, -24, 111, -65, -100, 68, -39, 121, -91, -113,
    81, -29, 6, 24, 17, -112, -64, -3, 14, 109, 8, -18, 116, 96, 124, -80, -120, -73, -105, 71, 18, 29, -84, 81, 24, 39, 29, 12, 36, -110, -93, 99,
    111, -68, 40, 84, 72, 41, 91, 30, 61, -30, -84, -84, -41, 80, 120, -72, -55, -56, -23, 41, 109, 49, -26, 5, 53, 56, -15, -27, -118, 44, 117, -21,
    -82, 85, 53, -118, 120, -33, 38, 108, -90, 109, -6, -111, 111, -118, -128, 111, -2, 102, 54, -80, -92, 23, -5, 10, -21, 43, -43, -90, 36, -80, 14, -62,
    12, 58, -106, -120, -35, -49, 44, -65, -29, 8, -69, -105, -42, 3, 116, -79, 41, -29, 63, -93, 65, 52, -105, -14, 50, 75, 52, -19, 103, 32, -113, 57,
    -115, -38, -62, -59, -93, 48, 53, -120, 24, 124, 37, -114, 17, 41, 34, 54, 58, 69, 118, -75, -56, 36, 120, -48, -71, 101, -105, 66, -48, 81, 4, -36,
    97, 116, 51, -49, -50, 13, 99, 127, -44, 44, 75, 17, 42, -59, 8, -81, 16, -126, -34, -10, 41, 57, 21, 64, 106, 51, 38, 21, -3, 30, -96, -28,
    109, -96, 25, 38, -35, -124, -66, 94, -106, 51, 95, -66, 70, 78, -83, 77, 50, -67, 42, 10, 91, -64, 124, -78, -73, -58, 83, -31, -30, 53, 27, -126,
    -24, -19, 13, 50, -67, 4, -110, 125, 25, -85, 26, -84, -36, -103, 42, 125, -75, 104, -108, 24, 75, 106, 11, -66, 106, 60, 7, 43, 0, 48, 95, -65,
    43, -41, 39, 1, -37, 28, -18, 69, -38, 119, -62, -113, 36, 0, 108, 77, -81, 38, -50, -113, -75, 19, -43, -16, -38, 37, -61, -69, 27, -122, 47, 59,
    -124, -115, -95, -19, 70, 26, -2, 116, 116, 87, 101, 44, -85, 78, 111, 77, 13, 99, 93, 27, 16, -47, 21, -14, 49, -22, 67, -75, -16, -91, 21, 93,
    -37, -72, -82, 88, -71, 83, 41, -46, -23, 124, -2, 126, -69, -90, 80, -113, -124, -127, -8, 31, 60, -41, 65, -127, -81, 105, -70, -45, 101, -42, 11, 75,
    15, 51, 99, 109, 126, -32, 1, -64, 27, 113, 72, -122, -82, -100, 122, -25, -89, -86, 55, 70, 48, -82, 5, 50, -119, 115, 34, -125, 118, -18, 92, -123,
    22, 104, -42, -80, 105, -22, 66, 3, 114, 36, 17, 55, 61, -73, -120, -97, 125, 89, -72, -6, 45, -14, -123, -96, 53, 47, -22, -110, 31, 104, -118, 18,
    48, 6, -91, 86, -128, -86, -117, 59, -56, -105, 18, -98, 20, 50, 15, -36, -13, 99, 115, -96, 46, -12, 94, -74, 98, -122, 52, -76, 27, 108, 102, -9,
    11, 34, 105, -30, 50, -30, 97, -24, -69, -81, 105, 105, -45, 30, -2, -2, -127, 66, 62, 79, -114, -117, -115, 111, 31, -47, 80, 46, 37, 95, -90, 35
};

int8_t weights[512] /* packed int4 */ = {
    18, 127, 3, -97, 90, -15, -99, -97, -22, 81, 22, -120, -57, -24, -75, 24,
    41, 103, 89, 67, -46, -128, 10, -2, -82, 124, 31, -27, 85, -125, 58, 102,
    101, -9, -123, -128, 40, 19, 67, 115, -10, -106, -86, 44, -25, 42, -112, 94,
    94, 15, 38, 72, 40, 103, 55, 96, 73, -64, -124, -110, 24, 4, -40, -42,
    54, 112, 10, 25, -13, 4, -77, -56, 41, -91, -104, 18, 19, 126, 49, 98,
    -29, -54, 8, 45, -123, -30, 67, -124, 78, 88, 14, -112, 68, -11, -111, 123,
    -18, -39, 84, -104, -82, 126, -92, 82, -40, 54, -3, 113, -83, -94, -106, -96,
    71, -43, -46, 59, -81, 86, 51, 69, -90, -59, -26, 113, -82, 27, -101, 85,
    -99, -24, 56, 50, -57, -37, -59, 75, -1, 13, -16, 75, -105, 54, -91, -99,
    85, -105, 115, -33, 12, -27, 79, 86, -26, 115, -112, 54, 22, -71, 81, 113,
    44, 81, -66, 93, -122, -116, 105, 38, -54, -23, 10, 0, -63, 81, -36, -111,
    -21, -99, 88, -24, 98, 111, -92, 124, -123, 72, -85, -122, -100, 113, -111, 117,
    -61, -98, -120, -104, -24, -128, 14, 71, 96, -62, 16, -85, -15, -104, -27, -41,
    -128, 92, -67, -50, -16, 27, 63, -42, 8, -83, 94, 85, -114, -80, -74, -84,
    -117, 72, 41, 89, 80, -17, -39, -24, -93, -31, -20, -99, -114, 42, -27, 100,
    -39, -4, -107, 78, -29, 3, -68, -1, -73, 103, 31, 46, 92, -83, -59, 46,
    28, -51, 54, -19, -87, 90, -90, 13, 4, -73, 113, -19, 75, -57, -111, -15,
    49, 87, 4, 56, -73, 38, 106, -20, -33, -125, 114, -17, -10, 32, 77, 65,
    -20, -110, 110, -59, -86, -94, -109, -48, 127, -12, -35, -17, -85, -75, -39, -67,
    97, -108, -100, 87, 8, -89, 12, -17, -85, 4, 51, -40, -85, -91, 22, -122,
    -59, 22, 66, -69, -22, 96, 125, 17, -61, -114, 47, -115, -109, -11, 62, 114,
    -29, 94, -76, 118, 82, -24, -101, -86, 1, 69, 42, -122, 35, 92, 26, -17,
    80, -116, 23, -56, -41, -61, -46, -83, -126, 10, -112, -99, -51, 56, -70, -10,
    45, -59, -111, 111, 58, 36, 65, 126, 102, -57, -122, -45, -11, 117, -97, -31,
    22, -98, 75, 43, 48, 33, -128, -19, 73, 79, -91, 100, 9, -70, -2, 72,
    -96, 43, -112, 28, 76, 126, -26, 35, 53, -119, -78, 63, 55, 20, 60, 42,
    94, 40, 64, -43, -53, -73, 73, 14, 25, 14, -62, -62, 109, 39, -60, -62,
    -67, -1, -28, 32, -95, 66, 66, -18, 46, -34, -94, 91, 56, 12, -109, -67,
    -57, 48, -91, -60, 66, -107, 104, 95, 79, 108, 45, -46, 47, -11, 24, 118,
    27, -126, -111, -91, 108, 48, -78, 94, 54, -30, 31, 14, 54, 103, 86, 14,
    -120, -87, -53, 0, 50, -43, -1, -93, -74, 83, -62, 64, -35, -119, 87, -19,
    20, -2, -41, 45, 80, -2, 121, 44, -51, 1, 90, 90, 42, -117, 0, 107
};

int8_t weights_unpacked[N_d * K_d] = {
    2, 1, -1, 7, 3, 0, -1, -7, -6, 5, 1, -1, -3, -7, -1, -7, -6, -2, 1, 5, 6, 1, -8, -8, 7, -4, -8, -2, 5, -5, -8, 1,
    -7, 2, 7, 6, -7, 5, 3, 4, 2, -3, 0, -8, -6, 0, -2, -1, -2, -6, -4, 7, -1, 1, 5, -2, 5, 5, 3, -8, -6, 3, 6, 6,
    5, 6, 7, -1, 5, -8, 0, -8, -8, 2, 3, 1, 3, 4, 3, 7, 6, -1, 6, -7, -6, -6, -4, 2, 7, -2, -6, 2, 0, -7, -2, 5,
    -2, 5, -1, 0, 6, 2, -8, 4, -8, 2, 7, 6, 7, 3, 0, 6, -7, 4, 0, -4, 4, -8, 2, -7, -8, 1, 4, 0, -8, -3, 6, -3,
    6, 3, 0, 7, -6, 0, -7, 1, 3, -1, 4, 0, 3, -5, -8, -4, -7, 2, 5, -6, -8, -7, 2, 1, 3, 1, -2, 7, 1, 3, 2, 6,
    3, -2, -6, -4, -8, 0, -3, 2, 5, -8, 2, -2, 3, 4, 4, -8, -2, 4, -8, 5, -2, 0, 0, -7, 4, 4, 5, -1, 1, -7, -5, 7,
    -2, -2, -7, -3, 4, 5, -8, -7, -2, -6, -2, 7, 4, -6, 2, 5, -8, -3, 6, 3, -3, -1, 1, 7, -3, -6, 2, -6, 6, -7, 0, -6,
    7, 4, 5, -3, 2, -3, -5, 3, -1, -6, 6, 5, 3, 3, 5, 4, 6, -6, 5, -4, 6, -2, 1, 7, -2, -6, -5, 1, -5, -7, 5, 5,
    -3, -7, -8, -2, -8, 3, 2, 3, 7, -4, -5, -3, 5, -4, -5, 4, -1, -1, -3, 0, 0, -1, -5, 4, 7, -7, 6, 3, 5, -6, -3, -7,
    5, 5, 7, -7, 3, 7, -1, -3, -4, 0, 5, -2, -1, 4, 6, 5, 6, -2, 3, 7, 0, -7, 6, 3, 6, 1, -7, -5, 1, 5, 1, 7,
    -4, 2, 1, 5, -2, -5, -3, 5, 6, -8, -4, -8, -7, 6, 6, 2, -6, -4, -7, -2, -6, 0, 0, 0, 1, -4, 1, 5, -4, -3, 1, -7,
    -5, -2, -3, -7, -8, 5, -8, -2, 2, 6, -1, 6, 4, -6, -4, 7, 5, -8, -8, 4, -5, -6, 6, -8, -4, -7, 1, 7, 1, -7, 5, 7,
    3, -4, -2, -7, -8, -8, -8, -7, -8, -2, 0, -8, -2, 0, 7, 4, 0, 6, 2, -4, 0, 1, -5, -6, 1, -1, -8, -7, 5, -2, 7, -3,
    0, -8, -4, 5, -3, -5, -2, -4, 0, -1, -5, 1, -1, 3, 6, -3, -8, 0, -3, -6, -2, 5, 5, 5, -2, -8, 0, -5, 6, -5, -4, -6,
    -5, -8, -8, 4, -7, 2, -7, 5, 0, 5, -1, -2, -7, -3, -8, -2, 3, -6, 1, -2, -4, -2, -3, -7, -2, -8, -6, 2, 5, -2, 4, 6,
    -7, -3, -4, -1, 5, -7, -2, 4, 3, -2, 3, 0, -4, -5, -1, -1, 7, -5, 7, 6, -1, 1, -2, 2, -4, 5, -3, -6, 5, -4, -2, 2,
    -4, 1, -3, -4, 6, 3, -3, -2, -7, -6, -6, 5, 6, -6, -3, 0, 4, 0, 7, -5, 1, 7, -3, -2, -5, 4, 7, -4, 1, -7, 1, -1,
    1, 3, 7, 5, 4, 0, -8, 3, 7, -5, 6, 2, -6, 6, -4, -2, -1, -3, 3, -8, 2, 7, -1, -2, 6, -1, 0, 2, -3, 4, 1, 4,
    -4, -2, 2, -7, -2, 6, 5, -4, -6, -6, 2, -6, 3, -7, 0, -3, -1, 7, 4, -1, -3, -3, -1, -2, -5, -6, 5, -5, -7, -3, -3, -5,
    1, 6, 4, -7, -4, -7, 7, 5, -8, 0, 7, -6, -4, 0, -1, -2, -5, -6, 4, 0, 3, 3, -8, -3, -5, -6, 5, -6, 6, 1, 6, -8,
    5, -4, 6, 1, 2, 4, -5, -5, -6, -2, 0, 6, -3, 7, 1, 1, 3, -4, -2, -8, -1, 2, -3, -8, 3, -7, 5, -1, -2, 3, 2, 7,
    3, -2, -2, 5, 4, -5, 6, 7, 2, 5, -8, -2, -5, -7, -6, -6, 1, 0, 5, 4, -6, 2, 6, -8, 3, 2, -4, 5, -6, 1, -1, -2,
    0, 5, -4, -8, 7, 1, -8, -4, 7, -3, 3, -4, 2, -3, -3, -6, 2, -8, -6, 0, 0, -7, -3, -7, -3, -4, -8, 3, -6, -5, 6, -1,
    -3, 2, 5, -4, 1, -7, -1, 6, -6, 3, 4, 2, 1, 4, -2, 7, 6, 6, 7, -4, 6, -8, 3, -3, 5, -1, 5, 7, -1, -7, 1, -2,
    6, 1, -2, -7, -5, 4, -5, 2, 0, 3, 1, 2, 0, -8, -3, -2, -7, 4, -1, 4, 5, -6, 4, 6, -7, 0, -6, -5, -2, -1, -8, 4,
    0, -6, -5, 2, 0, -7, -4, 1, -4, 4, -2, 7, 6, -2, 3, 2, 5, 3, -7, -8, 2, -5, -1, 3, 7, 3, 4, 1, -4, 3, -6, 2,
    -2, 5, -8, 2, 0, 4, 5, -3, -5, -4, 7, -5, -7, 4, -2, 0, -7, 1, -2, 0, 2, -4, 2, -4, -3, 6, 7, 2, 4, -4, 2, -4,
    -3, -5, -1, -1, 4, -2, 0, 2, 1, -6, 2, 4, 2, 4, -2, -2, -2, 2, -2, -3, 2, -6, -5, 5, -8, 3, -4, 0, 3, -7, -3, -5,
    7, -4, 0, 3, 5, -6, 4, -4, 2, 4, 5, -7, -8, 6, -1, 5, -1, 4, -4, 6, -3, 2, 2, -3, -1, 2, 5, -1, -8, 1, 6, 7,
    -5, 1, 2, -8, 1, -7, 5, -6, -4, 6, 0, 3, 2, -5, -2, 5, 6, 3, 2, -2, -1, 1, -2, 0, 6, 3, 7, 6, 6, 5, -2, 0,
    -8, -8, -7, -6, -5, -4, 0, 0, 2, 3, 5, -3, -1, -1, 3, -6, 6, -5, 3, 5, 2, -4, 0, 4, -3, -3, -7, -8, 7, 5, -3, -2,
    4, 1, -2, -1, 7, -3, -3, 2, 0, 5, -2, -1, -7, 7, -4, 2, -3, -4, 1, 0, -6, 5, -6, 5, -6, 2, -5, -8, 0, 0, -5, 6
};

int32_t bias[N_d] = {
    0, 0, 0, 0, 0, 0, 0, 0, 0, 0, 0, 0, 0, 0, 0, 0,
    0, 0, 0, 0, 0, 0, 0, 0, 0, 0, 0, 0, 0, 0, 0, 0
};

int16_t golden[M_d * N_d] = {
    -283, -1563, 3237, -4602, 1733, 1992, -2111, 660, 1411, 850, -197, -2661, -844, 562, -931, -1625,
    -104, 906, -379, -1918, -138, 824, -1792, -829, -601, -824, -1941, -1345, -650, -446, -2081, 2032,
    474, -2633, 2206, 35, -553, 1881, 2130, -1187, -832, -1814, -2672, -989, 3084, 2489, -815, 2040,
    4210, -1851, 4086, 1267, 343, 658, -1727, 553, 98, 337, 1359, 577, 2276, 2292, 361, 1571,
    420, 344, 5183, -2118, -2776, -1282, -2598, -1758, 1452, -618, 901, -3258, 155, 250, -2345, 546,
    -380, -2114, 3116, 1580, -1107, -6, -4115, 3907, -3627, 2313, -529, -579, 1862, 4266, 508, 449,
    -2256, 2309, 2458, -1011, 1542, -3769, -1389, 4424, -1081, 2313, -1038, -366, -2390, -1675, 78, -944,
    412, 3617, 1350, 1327, 3111, -1289, -2541, 1329, 266, -240, -1318, -1483, -584, 682, -1309, 276,
    -2408, -900, 4305, 4014, -343, 576, -2832, 3981, -1617, 2850, -1628, -399, 4158, -2232, -2935, -2641,
    646, 586, -2181, 3110, 3120, -2553, -4364, 7677, -2100, 3285, -870, -1925, -1037, 3255, -2828, -3360,
    -212, -471, -387, 184, -1669, 4407, -1425, -3980, -2407, -1913, 743, -344, -1276, 175, -1840, 406,
    1235, -456, 876, -63, 253, -2388, 1806, -2785, -2554, -1366, 5481, 1351, 2715, 1614, -1013, 1472,
    383, -442, -3272, -1322, -3243, 1485, 2603, -2524, 2169, -1041, 678, 2492, -1114, 1378, -340, 344,
    1713, -3010, 2510, -1667, -1148, 3422, 97, -1790, 464, -2437, -1051, -248, -140, -436, -899, -1137,
    3222, -3733, -1800, 1601, -1453, -480, 125, -2615, 1106, -4107, -2084, -598, -1887, 564, 1017, 878,
    1718, -3326, 349, 622, -2938, 3649, -1464, 1210, -312, -1582, 778, 1438, -207, -194, -609, -236,
    -1298, 364, -852, -1548, 1845, -2307, 3214, -245, -21, 1670, -3350, 189, -1152, -140, 208, 788,
    1110, -354, 3331, -4008, -1580, 1090, 1902, -3425, 1757, -860, -3489, -1248, -1072, -321, 2722, -640,
    -1211, -2834, -2620, 1801, 1019, 11, 3037, -624, -545, -1647, -2812, 3070, 250, 1278, 1210, -786,
    2770, -1306, -352, -1890, 1255, 69, -1669, -1512, 128, 314, 99, -2161, 920, 702, -793, -1006,
    -845, -701, 5224, 3314, 4716, -3110, 219, 2855, -4068, 1099, -2188, -1974, -2052, -1704, -3123, -96,
    247, 505, -247, 129, 64, -1013, -2045, 552, 2715, 2453, 15, 668, 1007, 789, -3247, 2691,
    1839, 1600, 1768, -1997, 2582, -823, 2657, -227, -779, -894, -899, -3723, -2235, 2392, -1120, 1444,
    1232, 1639, 4474, 1262, 395, -168, -3416, -922, 1125, -2749, 1172, 331, 2056, -247, -1431, 1522,
    2632, -1279, -116, 1237, 1404, -855, -3845, 423, -1292, -1631, -1775, -2334, 517, 318, -125, -2533,
    -1346, 678, -348, 6497, 870, -603, 144, 55, 3104, 748, -2118, 396, -2590, -323, 430, 1538,
    1871, 3645, -2591, -3806, 1250, 3477, -575, -4199, 1571, -1600, -407, 5557, -2730, -1004, 3703, 390,
    1414, -2311, -1629, -2064, -626, 3814, 740, -2997, -1773, -1761, 2217, -3001, 300, 792, -1877, -1664,
    -1214, 2468, -5245, -3840, 796, 3172, -1929, -3019, 3756, -224, -194, 2782, -3773, -2843, 2915, 2439,
    -694, -970, 233, -1075, -2145, 3891, 1090, -146, 27, -1259, -678, -508, -2485, 799, 4053, -3160,
    1668, 341, 1075, -2229, 1721, -1778, 1711, 1011, -910, -1144, -3233, 902, -2580, 1274, 951, 3847,
    2794, 1507, -1505, -3214, -2014, -780, -1135, -1159, 2047, 941, -3327, -229, -3428, 834, 1975, 1590,
    2780, -3374, 1029, -3707, 650, -2020, -2101, -3495, 830, -2158, -82, -3215, -1693, 1317, -1089, -3190,
    -1843, 1122, -1500, -4101, 1573, 4265, -1043, -2306, -2039, 2503, -3606, -534, 405, 1439, -2580, 462,
    2940, -1521, 1743, -742, -369, 4226, -31, 963, -59, -744, 973, -843, -246, 3033, -1896, -182,
    -2099, -663, -3642, -697, -285, -2239, -202, -1632, 1156, 2444, -1306, 1239, 1213, -1191, 74, 2896,
    97, 3684, -2581, -1712, -2479, 154, -3216, 393, -1689, 656, 2627, -5702, -914, 160, -2850, -1884,
    -2387, 1726, -1717, -19, 753, 1932, -81, -3064, -2308, -1503, -158, -1076, 3584, -4050, -1828, 217,
    -854, -1549, 2943, 3008, -410, -4022, 963, -1032, 68, -156, -2423, -507, 1656, -2203, -983, 1904,
    4074, -2614, 3318, 3134, -3708, 1520, -74, 3593, 805, -631, -541, 730, -1400, 3379, -855, 1713,
    2238, -1947, 1271, -4357, -2158, 2322, -1178, -1661, 538, -52, -1140, -3666, 3433, 637, -922, 1256,
    1916, -1019, 203, 2475, -87, -1253, -1144, -865, -660, 1121, 1104, -1011, -1664, 3234, 2570, 1189,
    -2759, -218, 45, -311, 11, -2036, -2213, -2761, -1776, 1068, -1440, 934, 2626, -810, 754, -330,
    -889, -1934, 1679, -2005, -2267, 1162, -799, 438, -612, -984, 880, -1541, 821, 2218, 2732, -1096,
    628, 1171, 86, -2002, 198, 444, -2955, 1093, 48, 1374, -1304, -2080, -3816, -2007, -3039, -870,
    -1080, 646, -1039, 2900, -1198, 930, -1538, 239, 1117, 822, -462, -1810, -2287, 1315, -422, -754,
    -2092, -505, -123, 4619, -92, -1945, -1344, 2137, -679, -9, -252, 795, 1673, 292, 840, -460,
    -1133, -131, -18, 3941, 1190, 586, -851, 4686, -272, 1198, 492, -262, 2126, -549, 1142, -1138,
    -704, 3339, -4272, 1065, 553, 1729, -1333, -1709, 2108, -1589, 3710, -370, 2857, -526, 90, -1400,
    -1286, 1964, -1177, -6, -1255, 146, -1164, 388, -872, 321, 905, -1850, 883, -766, -2554, -3247,
    32, 205, 1880, 1165, 121, 575, -395, -5, -210, -247, 1305, 706, 4240, 2148, 1341, -1327,
    -139, -1770, 54, 387, 243, -839, -943, -449, 713, 260, -727, 50, 850, -1721, -1465, 2245,
    -1856, 497, -903, 1917, -2272, 1577, 677, 569, 601, 860, -220, 780, -718, 4, 1764, 3134,
    -812, 572, -522, -2006, -349, -683, -1692, 3287, -562, 900, 535, 638, 2702, -502, 2376, 799,
    5123, 1652, -3806, 222, 457, 1204, 1348, -3059, -2181, -1056, -2899, 3430, -579, 1938, 4215, 1491,
    -322, -2484, -2098, -824, -377, 1510, -127, -3933, 2772, -856, 2425, -21, -1477, -2116, 2846, -217,
    2549, 1906, -502, 1053, -1306, -4065, 2153, -873, -3942, 1484, 303, -4110, 935, 778, -2536, 3138,
    -834, -1560, -444, 4577, -3518, -489, 255, -1804, 304, -3855, 3093, 658, 1709, -1197, 1955, 1294,
    2597, -1884, -513, -1741, -865, 1444, -3201, -2810, -264, -43, -4743, -2016, -2083, -4093, -1470, 1645,
    1055, 316, 11, -445, -953, 1423, 2481, -1075, 1247, 2001, -1673, 255, -1135, 2947, 1429, 983,
    -832, 1003, -706, 1365, 3704, 1613, -381, 793, 675, -504, 1669, -2512, 5464, 2514, 2276, -1829,
    -718, 2563, 661, 2262, 1911, -178, -1865, 2107, -1403, 864, 760, -2579, -13, -1666, 714, -2820,
    368, -1330, 3153, 38, 2017, -763, 1450, -103, -946, 2142, -578, -3846, -2557, -1190, -3815, -777,
    -1817, 247, 1942, 2386, 669, -2012, -3323, 953, 548, -363, 1125, 1480, 520, 2564, -968, 943
};

#endif  // __ARRAY_MODE6_8B_4B_32_32_32_RANDOM_H__
