#ifndef __ARRAY_MODE8_16B_4B_32_32_32_RANDOM_H__
#define __ARRAY_MODE8_16B_4B_32_32_32_RANDOM_H__

#include <stdint.h>

// Pattern type      : random
// Input  bitwidth   : 16
// Weights bitwidth  : 4

#define M_d 32
#define K_d 32
#define N_d 32

#define I_TYPE int16_t
#define W_TYPE int8_t
#define C_TYPE int32_t

const int16_t zp_input   = 0;
const int8_t zp_weights = 0;

int16_t input[1024] = {
    -15944, -3252, -9978, 92, -1412, 16288, -2786, 11499, 11628, -5728, -10233, 2671, 2211, 1042, 1711, 13733,
    9398, 11781, -11073, 11977, 3042, 6032, -7580, -8911, -8676, -6973, 12032, -8556, 11356, 8501, -8271, 2512,
    6255, 824, 11278, 7668, 12724, -15308, 9892, -7414, 11801, 8479, 1387, 13890, -10820, 10342, -11770, -3149,
    -10687, -11067, -1686, -4441, 6992, -3064, 3917, 10351, -11283, -494, -12937, -12308, -7085, 4980, -9514, 16256,
    4542, 11761, 11773, 14381, -3462, -11695, 11911, 12530, 1439, 11833, 4343, -311, 13883, -2339, 10808, 12596,
    -8463, -4058, -14303, -1723, -1229, -10213, 5624, -11701, 8238, 10152, -425, 11948, 4955, 7923, -15986, 2673,
    12264, -16149, 1519, -9970, -16050, 8037, 3496, -8072, -4400, -12393, -3453, 3091, -1924, -15032, 6435, -6691,
    4887, -3686, 7939, -10555, 13561, 2697, -15688, -6527, -8275, 3094, -9868, -13461, 10824, -15400, -11922, 5482,
    9198, -9397, 13416, 7071, -12211, -16042, 10069, -8029, -12276, -13442, -2871, 10202, 487, -6529, -5039, 13535,
    -13419, -2445, -4839, 13460, -10239, 10915, 2960, 5389, 14619, -4259, -13405, -1774, 12793, 11555, -13394, -14532,
    13449, -11617, -2563, 15699, -4523, -14572, -2748, 9976, 7926, -5752, -3561, -8227, -2752, -9008, 2301, 9829,
    -7835, 14734, -4919, -14494, 8254, -13890, -12961, 15920, 3418, 10641, 10261, -12355, -15622, 12089, 11749, -13002,
    -5495, -10419, 11250, 11037, -11867, 16080, 11309, -14116, -139, 5068, 7247, -5879, -14830, 1821, -4687, -9158,
    4382, 12748, 11947, -8380, 14349, -4197, 4588, -4233, -14886, -11839, -10038, 3237, -9117, 15174, 5092, 825,
    -4877, 7866, -56, 15839, -13967, 4529, 8866, 13033, 13588, 8231, 3863, -3182, 6110, -8863, 5208, 4465,
    13172, -2072, -6179, 8578, -12272, -4151, -5098, -12876, -13937, 12055, -9863, 3931, 15619, 14817, -11730, 7452,
    3704, 6795, -9343, 6278, 5699, -15401, 7002, -15356, 16130, -1426, 50, 14601, -5672, -6804, -15854, -16353,
    15051, 7652, 12153, -13249, -4263, -5573, -9380, -9227, -3892, -8271, 6630, 5083, 7285, 4444, -6424, 63,
    11996, -10375, -11350, -15762, 7052, -13278, 14832, -6248, -11878, -12105, -14958, -9880, -10572, -15417, 13307, 6194,
    6169, 801, 8632, 12029, 14420, -13106, 16248, 11248, -16322, -2409, -15854, -11631, -9783, 1802, -2561, -5354,
    14291, 10854, -15288, -12138, -6282, -15852, -9256, 11675, 15228, -9017, -12949, 12710, -315, -7654, -8451, 8690,
    5329, 3949, -5284, 5976, -6286, 9784, -14812, 877, 12435, 11051, 9921, 13386, 10832, 2751, 3458, -13411,
    15419, -4883, -3431, 11224, 3395, -8656, -13712, -2760, -2545, 5036, -15452, 4479, -5850, -278, -5448, 5950,
    -1518, 3469, 504, -2600, -15191, 1200, -10654, -11507, 6776, 10560, 3958, 6089, -7984, -3200, -11776, 215,
    -10349, -14234, -5603, -1615, 15061, 13224, 8559, 11930, 5024, 2152, 11018, 13090, -1306, -9752, -11501, -9360,
    13851, 14585, 11950, -1055, 5081, 7920, -10669, -10561, 7355, -14997, -8888, 2542, 14078, -567, 5171, -1220,
    -8189, 15022, -14238, 6535, 3997, 579, 16010, 13468, 1059, -10716, -11693, -1582, -6734, -944, 2408, 15108,
    -16355, 6077, 11849, -8330, -9707, -12342, -1040, 11484, -2224, 7040, 15520, 3796, 6021, 12599, 8963, -4800,
    15164, 3779, -2020, -13262, -2587, 13346, -14204, 1573, -971, -10480, 8414, 12599, -3629, -6318, -6534, 534,
    12373, 14750, -5112, -9192, 3402, -14952, 567, -3028, -16022, -8006, 2882, 15880, -1270, -9197, -15160, 6479,
    -478, 1897, 11102, 12937, -1049, -11515, -11932, -16261, 14096, 11269, -1892, -15035, -3670, -11119, 3042, 2366,
    -780, 13801, 431, -6468, -4710, -8777, -13530, 10339, 1457, 13328, -7184, 5189, -8500, -10629, 11100, -2877,
    9849, -6481, -2797, 3211, 1154, -15844, -13724, 10098, 13704, 9542, 6058, 1879, 9589, 8935, 99, -14369,
    11033, 11390, 13091, -4427, 15553, -11229, -795, -2186, -6557, -1480, -1249, -6508, 5217, -8219, 1780, 2044,
    4526, -13442, 5133, 6707, -2142, 10315, -14827, 4572, 6944, -1227, 11567, -5502, -10402, 8425, -11160, 10062,
    683, -13791, -2634, 2406, -16338, -6994, -2964, -280, -16350, -8742, 9079, -10272, 15293, 12709, -7526, 14773,
    -12586, -478, -8667, -11773, -11140, -5770, -61, -5701, -2960, -81, -503, 4773, 12266, -5404, 5645, 7550,
    2805, -15349, 11196, -12291, 10608, 14100, -13266, 13752, -15416, 7569, -8606, 15352, 9304, 13183, 6816, 11484,
    -11897, -7316, 1870, 4430, -5628, 14202, 9235, 1459, -10287, 6190, 5876, 14968, -12682, 13983, -15670, 6518,
    2721, 16082, 3279, 12697, 5273, -1189, 9240, 6565, -1383, 6527, 13013, -15891, 12414, -15550, 7669, -8571,
    -7603, 5406, -4608, 4173, -13051, -827, -16145, 11104, 9174, 828, -6198, 7242, -9318, 2165, 10187, 2559,
    -2849, -1304, -11953, -12590, -4000, -5378, 2569, 1929, -15212, 3341, -5253, -5106, -2659, 3555, -13834, 1728,
    -4603, -10284, 8844, 983, -980, -13627, 10886, 9367, 12910, 13099, 7914, 11805, 2155, -4707, 15325, -16339,
    8253, 122, -2596, -1210, 10941, -1245, -14409, 6038, -11610, -15316, -2029, -4758, -12057, 4021, -3800, 9530,
    -11111, -3700, -4782, -16150, 12047, -9674, -4475, -10982, -10116, 1682, -7670, 1430, -13992, -16376, 8414, -14382,
    10946, -9233, -11185, 5570, -15602, -6253, 13589, 13841, -1211, -15220, -13371, 10954, -12567, -5461, 11038, 6555,
    5095, 11963, -13470, 13555, -826, -8713, -9119, 7299, 7708, -15762, -6288, 6487, 7312, -1772, 6897, -16271,
    -823, -10100, 7291, -10150, 45, 15048, -9541, 5727, -6488, -3874, -6207, 9396, -9935, 4572, 15924, 15302,
    15503, 11125, -2774, 9174, -3730, -11223, -11893, -7616, -4665, 5859, 137, -4706, 13094, 14942, -13001, 9751,
    8119, 14938, 7948, 1096, -3883, -15599, 4600, -8519, 8697, -5661, 8034, -5506, 9389, 12977, 14612, -5094,
    6938, 11946, 6436, -923, -7952, -8327, -15040, 15910, -11736, 9170, -3785, -4216, 8352, 3433, 13459, -7543,
    14670, 6055, -15385, -3543, 9793, -15217, 6007, 10176, 6317, -4492, 5875, -13853, 6818, -4430, 14089, 8294,
    2450, 9467, 8425, 12976, -6505, 1329, -11359, -5662, -14537, -13408, -15698, 14754, 3084, -2362, 2141, 12969,
    6423, -13853, -12903, 15534, 5162, 9289, -4968, 15114, -3828, 12265, 7615, -6001, -11201, -14685, -3012, 14360,
    14022, -7104, 11456, -9455, 2737, 11502, -7530, 4019, 14165, 2283, -10224, 3223, -15418, 13028, -11078, -7235,
    4125, -13236, -1750, 10713, 5205, -9866, 1066, -13949, -16358, -2267, 10839, 13788, -10212, 7621, 6665, -13188,
    9977, 14945, -8282, 14069, -276, 2775, -6781, -14042, -11855, -1399, -12621, 7632, -6658, -7738, -9120, -11538,
    -2946, 8707, -10264, -12327, -2947, 14018, -2312, -4978, -6149, 1283, 14489, -12698, -60, -10297, 2515, -15345,
    -12822, 16069, 4651, -13009, -10948, 15871, -9258, -13641, -3559, -547, 9013, 14082, 15122, 8057, -3033, 14593,
    -6420, -12461, -12232, -8816, -15155, 6974, 3143, 5027, 1647, -9608, 3194, -13882, -9053, 10854, 250, -1535,
    2327, -14637, 7420, 3651, 6377, 4490, 211, 9826, -1104, -6289, -14808, 12763, -9472, 8859, 6834, -13612,
    -5522, 12438, -11047, 1167, -10119, 2012, 1655, 10122, -15986, 869, -3902, -7941, -32, 3218, -14331, -9185,
    -1068, 11502, 780, 15537, 4665, 3251, 14554, 6453, -11236, 11148, 9473, -11100, -6291, 2708, 13254, -9724,
    11911, -2296, 7015, 3161, -5070, -1383, -725, 9273, -8031, 11305, -14931, 14852, -4808, 15448, 6946, 1898
};

int16_t input_unpacked[M_d * K_d] = {
    -15944, -3252, -9978, 92, -1412, 16288, -2786, 11499, 11628, -5728, -10233, 2671, 2211, 1042, 1711, 13733, 9398, 11781, -11073, 11977, 3042, 6032, -7580, -8911, -8676, -6973, 12032, -8556, 11356, 8501, -8271, 2512,
    6255, 824, 11278, 7668, 12724, -15308, 9892, -7414, 11801, 8479, 1387, 13890, -10820, 10342, -11770, -3149, -10687, -11067, -1686, -4441, 6992, -3064, 3917, 10351, -11283, -494, -12937, -12308, -7085, 4980, -9514, 16256,
    4542, 11761, 11773, 14381, -3462, -11695, 11911, 12530, 1439, 11833, 4343, -311, 13883, -2339, 10808, 12596, -8463, -4058, -14303, -1723, -1229, -10213, 5624, -11701, 8238, 10152, -425, 11948, 4955, 7923, -15986, 2673,
    12264, -16149, 1519, -9970, -16050, 8037, 3496, -8072, -4400, -12393, -3453, 3091, -1924, -15032, 6435, -6691, 4887, -3686, 7939, -10555, 13561, 2697, -15688, -6527, -8275, 3094, -9868, -13461, 10824, -15400, -11922, 5482,
    9198, -9397, 13416, 7071, -12211, -16042, 10069, -8029, -12276, -13442, -2871, 10202, 487, -6529, -5039, 13535, -13419, -2445, -4839, 13460, -10239, 10915, 2960, 5389, 14619, -4259, -13405, -1774, 12793, 11555, -13394, -14532,
    13449, -11617, -2563, 15699, -4523, -14572, -2748, 9976, 7926, -5752, -3561, -8227, -2752, -9008, 2301, 9829, -7835, 14734, -4919, -14494, 8254, -13890, -12961, 15920, 3418, 10641, 10261, -12355, -15622, 12089, 11749, -13002,
    -5495, -10419, 11250, 11037, -11867, 16080, 11309, -14116, -139, 5068, 7247, -5879, -14830, 1821, -4687, -9158, 4382, 12748, 11947, -8380, 14349, -4197, 4588, -4233, -14886, -11839, -10038, 3237, -9117, 15174, 5092, 825,
    -4877, 7866, -56, 15839, -13967, 4529, 8866, 13033, 13588, 8231, 3863, -3182, 6110, -8863, 5208, 4465, 13172, -2072, -6179, 8578, -12272, -4151, -5098, -12876, -13937, 12055, -9863, 3931, 15619, 14817, -11730, 7452,
    3704, 6795, -9343, 6278, 5699, -15401, 7002, -15356, 16130, -1426, 50, 14601, -5672, -6804, -15854, -16353, 15051, 7652, 12153, -13249, -4263, -5573, -9380, -9227, -3892, -8271, 6630, 5083, 7285, 4444, -6424, 63,
    11996, -10375, -11350, -15762, 7052, -13278, 14832, -6248, -11878, -12105, -14958, -9880, -10572, -15417, 13307, 6194, 6169, 801, 8632, 12029, 14420, -13106, 16248, 11248, -16322, -2409, -15854, -11631, -9783, 1802, -2561, -5354,
    14291, 10854, -15288, -12138, -6282, -15852, -9256, 11675, 15228, -9017, -12949, 12710, -315, -7654, -8451, 8690, 5329, 3949, -5284, 5976, -6286, 9784, -14812, 877, 12435, 11051, 9921, 13386, 10832, 2751, 3458, -13411,
    15419, -4883, -3431, 11224, 3395, -8656, -13712, -2760, -2545, 5036, -15452, 4479, -5850, -278, -5448, 5950, -1518, 3469, 504, -2600, -15191, 1200, -10654, -11507, 6776, 10560, 3958, 6089, -7984, -3200, -11776, 215,
    -10349, -14234, -5603, -1615, 15061, 13224, 8559, 11930, 5024, 2152, 11018, 13090, -1306, -9752, -11501, -9360, 13851, 14585, 11950, -1055, 5081, 7920, -10669, -10561, 7355, -14997, -8888, 2542, 14078, -567, 5171, -1220,
    -8189, 15022, -14238, 6535, 3997, 579, 16010, 13468, 1059, -10716, -11693, -1582, -6734, -944, 2408, 15108, -16355, 6077, 11849, -8330, -9707, -12342, -1040, 11484, -2224, 7040, 15520, 3796, 6021, 12599, 8963, -4800,
    15164, 3779, -2020, -13262, -2587, 13346, -14204, 1573, -971, -10480, 8414, 12599, -3629, -6318, -6534, 534, 12373, 14750, -5112, -9192, 3402, -14952, 567, -3028, -16022, -8006, 2882, 15880, -1270, -9197, -15160, 6479,
    -478, 1897, 11102, 12937, -1049, -11515, -11932, -16261, 14096, 11269, -1892, -15035, -3670, -11119, 3042, 2366, -780, 13801, 431, -6468, -4710, -8777, -13530, 10339, 1457, 13328, -7184, 5189, -8500, -10629, 11100, -2877,
    9849, -6481, -2797, 3211, 1154, -15844, -13724, 10098, 13704, 9542, 6058, 1879, 9589, 8935, 99, -14369, 11033, 11390, 13091, -4427, 15553, -11229, -795, -2186, -6557, -1480, -1249, -6508, 5217, -8219, 1780, 2044,
    4526, -13442, 5133, 6707, -2142, 10315, -14827, 4572, 6944, -1227, 11567, -5502, -10402, 8425, -11160, 10062, 683, -13791, -2634, 2406, -16338, -6994, -2964, -280, -16350, -8742, 9079, -10272, 15293, 12709, -7526, 14773,
    -12586, -478, -8667, -11773, -11140, -5770, -61, -5701, -2960, -81, -503, 4773, 12266, -5404, 5645, 7550, 2805, -15349, 11196, -12291, 10608, 14100, -13266, 13752, -15416, 7569, -8606, 15352, 9304, 13183, 6816, 11484,
    -11897, -7316, 1870, 4430, -5628, 14202, 9235, 1459, -10287, 6190, 5876, 14968, -12682, 13983, -15670, 6518, 2721, 16082, 3279, 12697, 5273, -1189, 9240, 6565, -1383, 6527, 13013, -15891, 12414, -15550, 7669, -8571,
    -7603, 5406, -4608, 4173, -13051, -827, -16145, 11104, 9174, 828, -6198, 7242, -9318, 2165, 10187, 2559, -2849, -1304, -11953, -12590, -4000, -5378, 2569, 1929, -15212, 3341, -5253, -5106, -2659, 3555, -13834, 1728,
    -4603, -10284, 8844, 983, -980, -13627, 10886, 9367, 12910, 13099, 7914, 11805, 2155, -4707, 15325, -16339, 8253, 122, -2596, -1210, 10941, -1245, -14409, 6038, -11610, -15316, -2029, -4758, -12057, 4021, -3800, 9530,
    -11111, -3700, -4782, -16150, 12047, -9674, -4475, -10982, -10116, 1682, -7670, 1430, -13992, -16376, 8414, -14382, 10946, -9233, -11185, 5570, -15602, -6253, 13589, 13841, -1211, -15220, -13371, 10954, -12567, -5461, 11038, 6555,
    5095, 11963, -13470, 13555, -826, -8713, -9119, 7299, 7708, -15762, -6288, 6487, 7312, -1772, 6897, -16271, -823, -10100, 7291, -10150, 45, 15048, -9541, 5727, -6488, -3874, -6207, 9396, -9935, 4572, 15924, 15302,
    15503, 11125, -2774, 9174, -3730, -11223, -11893, -7616, -4665, 5859, 137, -4706, 13094, 14942, -13001, 9751, 8119, 14938, 7948, 1096, -3883, -15599, 4600, -8519, 8697, -5661, 8034, -5506, 9389, 12977, 14612, -5094,
    6938, 11946, 6436, -923, -7952, -8327, -15040, 15910, -11736, 9170, -3785, -4216, 8352, 3433, 13459, -7543, 14670, 6055, -15385, -3543, 9793, -15217, 6007, 10176, 6317, -4492, 5875, -13853, 6818, -4430, 14089, 8294,
    2450, 9467, 8425, 12976, -6505, 1329, -11359, -5662, -14537, -13408, -15698, 14754, 3084, -2362, 2141, 12969, 6423, -13853, -12903, 15534, 5162, 9289, -4968, 15114, -3828, 12265, 7615, -6001, -11201, -14685, -3012, 14360,
    14022, -7104, 11456, -9455, 2737, 11502, -7530, 4019, 14165, 2283, -10224, 3223, -15418, 13028, -11078, -7235, 4125, -13236, -1750, 10713, 5205, -9866, 1066, -13949, -16358, -2267, 10839, 13788, -10212, 7621, 6665, -13188,
    9977, 14945, -8282, 14069, -276, 2775, -6781, -14042, -11855, -1399, -12621, 7632, -6658, -7738, -9120, -11538, -2946, 8707, -10264, -12327, -2947, 14018, -2312, -4978, -6149, 1283, 14489, -12698, -60, -10297, 2515, -15345,
    -12822, 16069, 4651, -13009, -10948, 15871, -9258, -13641, -3559, -547, 9013, 14082, 15122, 8057, -3033, 14593, -6420, -12461, -12232, -8816, -15155, 6974, 3143, 5027, 1647, -9608, 3194, -13882, -9053, 10854, 250, -1535,
    2327, -14637, 7420, 3651, 6377, 4490, 211, 9826, -1104, -6289, -14808, 12763, -9472, 8859, 6834, -13612, -5522, 12438, -11047, 1167, -10119, 2012, 1655, 10122, -15986, 869, -3902, -7941, -32, 3218, -14331, -9185,
    -1068, 11502, 780, 15537, 4665, 3251, 14554, 6453, -11236, 11148, 9473, -11100, -6291, 2708, 13254, -9724, 11911, -2296, 7015, 3161, -5070, -1383, -725, 9273, -8031, 11305, -14931, 14852, -4808, 15448, 6946, 1898
};

int8_t weights[512] /* packed int4 */ = {
    -124, 38, -115, -74, 38, -97, 74, -49, -101, -125, -18, 123, 57, -69, -57, 110,
    -124, -67, 73, 10, 88, 74, 72, -3, 113, 95, -41, -65, -69, 32, 107, -14,
    -37, -47, -47, 50, -41, -7, 58, -76, -1, 113, 57, -37, 8, 93, 120, -35,
    118, 3, 46, -124, -34, 87, 41, 34, 54, -88, 64, -65, 88, -20, -24, 106,
    -17, -74, -57, 118, -34, 127, -23, -121, 98, -120, -48, 74, -92, -85, 3, -56,
    61, 80, -119, 14, -118, 15, -111, 50, 68, -59, -114, 49, 1, -78, 89, 44,
    116, 90, 27, -71, -107, 0, -57, -118, -59, -100, -100, 91, -64, 18, 119, -19,
    100, -1, 34, 82, 126, 60, -88, 58, 62, -5, 75, -46, -89, 34, -125, -42,
    109, 34, 115, -27, 80, 50, 90, 23, 7, -62, -36, 7, -116, -3, 109, 75,
    -93, 83, 32, 73, 96, 16, 9, -41, 110, -38, -57, -53, -21, 5, 46, 14,
    127, -84, -63, -76, -69, 0, 54, -12, 127, -118, 39, 0, 82, 114, 1, -73,
    8, 6, 88, 19, 42, -37, 56, 42, -17, 104, -96, -103, 19, -17, 71, 91,
    72, -104, -69, -6, 71, 76, -65, -47, 42, -30, 24, 6, 104, 58, -111, -112,
    11, 97, 120, -14, 124, 41, 9, -98, -103, -62, 0, -110, -34, 28, -87, 107,
    -108, 127, 92, 16, 112, -83, -9, 48, -70, 41, -111, -85, -108, 76, 7, -125,
    38, 55, 97, -7, -104, 17, -27, -51, 24, -101, 5, -112, 26, 20, -107, -96,
    63, -42, -75, 29, -6, 33, 116, -107, 42, 47, 3, 124, -94, 19, -26, -124,
    -102, 76, -52, -42, -109, -99, 0, -32, -116, 21, 16, -74, 84, -75, -54, 49,
    51, 2, -99, 115, -95, 127, -83, -39, 27, -86, 34, -98, 25, 123, 11, -54,
    -53, -90, -113, -84, -2, -36, 76, 90, -32, 59, 69, -51, -42, -13, 40, 22,
    -42, -21, 5, -49, -110, -119, 21, -125, -111, -53, 3, 0, -112, -23, 103, 76,
    94, 47, 37, 84, 109, 82, 30, -60, 89, -99, 74, -109, 120, -93, 24, -51,
    78, -67, 39, -1, 16, -50, -89, 96, 36, 35, -123, 89, 92, -65, 17, -90,
    113, 100, -123, 11, -80, 89, -102, 8, 78, -38, 99, -22, 112, -51, -58, 30,
    43, 29, 91, 111, 98, 3, 15, -98, -40, 50, -118, 126, 104, -77, -16, 15,
    86, -40, -116, 60, 28, 114, 4, -42, 111, -93, 118, -113, 16, 4, 99, -74,
    40, 121, 50, -83, 2, 38, 15, -4, -117, -105, -95, -12, 22, -48, -98, 18,
    117, 43, 44, 5, -43, 103, 98, 101, -10, -33, 1, 86, 81, -79, 46, 81,
    72, -1, -23, 47, -119, 20, -102, 118, -91, 8, 54, 120, -54, 77, -3, -113,
    -109, -56, -101, 10, 79, 91, 11, -96, 121, 88, 42, 110, 26, 88, -6, -63,
    -52, -26, 38, 87, 35, 44, -78, -25, -53, 16, -123, -107, -25, 60, 44, -14,
    -81, -35, 86, 35, -3, -43, -49, 40, 29, -16, 106, 6, 35, 41, 57, -88
};

int8_t weights_unpacked[N_d * K_d] = {
    4, -8, 6, 2, -3, -8, 6, -5, 6, 2, -1, -7, -6, 4, -1, -4, -5, -7, 3, -8, -2, -2, -5, 7, -7, 3, -5, -5, 7, -4, -2, 6,
    4, -8, -3, -5, -7, 4, -6, 0, -8, 5, -6, 4, -8, 4, -3, -1, 1, 7, -1, 5, 7, -3, -1, -5, -5, -5, 0, 2, -5, 6, 2, -1,
    -5, -3, 1, -3, 1, -3, 2, 3, 7, -3, -7, -1, -6, 3, 4, -5, -1, -1, 1, 7, -7, 3, -5, -3, -8, 0, -3, 5, -8, 7, -3, -3,
    6, 7, 3, 0, -2, 2, 4, -8, -2, -3, 7, 5, -7, 2, 2, 2, 6, 3, -8, -6, 0, 4, -1, -5, -8, 5, -4, -2, -8, -2, -6, 6,
    -1, -2, 6, -5, 7, -4, 6, 7, -2, -3, -1, 7, -7, -2, 7, -8, 2, 6, -8, -8, 0, -3, -6, 4, 4, -6, -5, -6, 3, 0, -8, -4,
    -3, 3, 0, 5, -7, -8, -2, 0, -6, -8, -1, 0, 1, -7, 2, 3, 4, 4, 5, -4, -2, -8, 1, 3, 1, 0, 2, -5, -7, 5, -4, 2,
    4, 7, -6, 5, -5, 1, -7, -5, 5, -7, 0, 0, 7, -4, -6, -8, 5, -4, -4, -7, -4, -7, -5, 5, 0, -4, 2, 1, 7, 7, -3, -2,
    4, 6, -1, -1, 2, 2, 2, 5, -2, 7, -4, 3, -8, -6, -6, 3, -2, 3, -5, -1, -5, 4, 2, -3, 7, -6, 2, 2, 3, -8, 6, -3,
    -3, 6, 2, 2, 3, 7, 5, -2, 0, 5, 2, 3, -6, 5, 7, 1, 7, 0, 2, -4, -4, -3, 7, 0, -4, -8, -3, -1, -3, 6, -5, 4,
    3, -6, 3, 5, 0, 2, -7, 4, 0, 6, 0, 1, -7, 0, 7, -3, -2, 6, -6, -3, 7, -4, -5, -4, -5, -2, 5, 0, -2, 2, -2, 0,
    -1, 7, -4, -6, 1, -4, 4, -5, -5, -5, 0, 0, 6, 3, 4, -1, -1, 7, -6, -8, 7, 2, 0, 0, 2, 5, 2, 7, 1, 0, 7, -5,
    -8, 0, 6, 0, -8, 5, 3, 1, -6, 2, -5, -3, -8, 3, -6, 2, -1, -2, -8, 6, 0, -6, -7, -7, 3, 1, -1, -2, 7, 4, -5, 5,
    -8, 4, -8, -7, -5, -5, -6, -1, 7, 4, -4, 4, -1, -5, 1, -3, -6, 2, 2, -2, -8, 1, 6, 0, -8, 6, -6, 3, 1, -7, 0, -7,
    -5, 0, 1, 6, -8, 7, 2, -1, -4, 7, -7, 2, -7, 0, -2, -7, -7, -7, 2, -4, 0, 0, 2, -7, -2, -3, -4, 1, -7, -6, -5, 6,
    4, -7, -1, 7, -4, 5, 0, 1, 0, 7, -3, -6, 7, -1, 0, 3, -6, -5, -7, 2, 1, -7, -5, -6, 4, -7, -4, 4, 7, 0, 3, -8,
    6, 2, 7, 3, 1, 6, -7, -1, -8, -7, 1, 1, 5, -2, -3, -4, -8, 1, -5, -7, 5, 0, 0, -7, -6, 1, 4, 1, 5, -7, 0, -6,
    -1, 3, 6, -3, 5, -5, -3, 1, -6, -1, 1, 2, 4, 7, 5, -7, -6, 2, -1, 2, 3, 0, -4, 7, 2, -6, 3, 1, 6, -2, 4, -8,
    -6, -7, -4, 4, -4, -4, 6, -3, 3, -7, -3, -7, 0, 0, 0, -2, -4, -8, 5, 1, 0, 1, 6, -5, 4, 5, 5, -5, -6, -4, 1, 3,
    3, 3, 2, 0, -3, -7, 3, 7, 1, -6, -1, 7, -3, -6, -7, -3, -5, 1, -6, -6, 2, 2, -2, -7, -7, 1, -5, 7, -5, 0, -6, -4,
    -5, -4, 6, -6, -1, -8, -4, -6, -2, -1, -4, -3, -4, 4, -6, 5, 0, -2, -5, 3, 5, 4, -3, -4, 6, -3, 3, -1, -8, 2, 6, 1,
    6, -3, -5, -2, 5, 0, -1, -4, 2, -7, -7, -8, 5, 1, 3, -8, 1, -7, -5, -4, 3, 0, 0, 0, 0, -7, -7, -2, 7, 6, -4, 4,
    -2, 5, -1, 2, 5, 2, 4, 5, -3, 6, 2, 5, -2, 1, 4, -4, -7, 5, -3, -7, -6, 4, 3, -7, -8, 7, 3, -6, -8, 1, -3, -4,
    -2, 4, -3, -5, 7, 2, -1, -1, 0, 1, -2, -4, 7, -6, 0, 6, 4, 2, 3, 2, 5, -8, -7, 5, -4, 5, -1, -5, 1, 1, 6, -6,
    1, 7, 4, 6, 5, -8, -5, 0, 0, -5, -7, 5, -6, -7, -8, 0, -2, 4, -6, -3, 3, 6, -6, -2, 0, 7, -3, -4, 6, -4, -2, 1,
    -5, 2, -3, 1, -5, 5, -1, 6, 2, 6, 3, 0, -1, 0, -2, -7, -8, -3, 2, 3, -6, -8, -2, 7, -8, 6, 3, -5, 0, -1, -1, 0,
    6, 5, -8, -3, -4, -8, -4, 3, -4, 1, 2, 7, 4, 0, 6, -3, -1, 6, 3, -6, 6, 7, -1, -8, 0, 1, 4, 0, 3, 6, 6, -5,
    -8, 2, -7, 7, 2, 3, -3, -6, 2, 0, 6, 2, -1, 0, -4, -1, -5, -8, 7, -7, 1, -6, 4, -1, 6, 1, 0, -3, -2, -7, 2, 1,
    5, 7, -5, 2, -4, 2, 5, 0, 5, -3, 7, 6, 2, 6, 5, 6, 6, -1, -1, -3, 1, 0, 6, 5, 1, 5, 1, -5, -2, 2, 1, 5,
    -8, 4, -1, -1, -7, -2, -1, 2, -7, -8, 4, 1, -6, -7, 6, 7, 5, -6, -8, 0, 6, 3, -8, 7, -6, -4, -3, 4, -3, -1, -1, -8,
    3, -7, -8, -4, -5, -7, -6, 0, -1, 4, -5, 5, -5, 0, 0, -6, -7, 7, -8, 5, -6, 2, -2, 6, -6, 1, -8, 5, -6, -1, 1, -4,
    -4, -4, 6, -2, 6, 2, 7, 5, 3, 2, -4, 2, 2, -5, 7, -2, -5, -4, 0, 1, 5, -8, 5, -7, 7, -2, -4, 3, -4, 2, 2, -1,
    -1, -6, -3, -3, 6, 5, 3, 2, -3, -1, 5, -3, -1, -4, -8, 2, -3, 1, 0, -1, -6, 6, 6, 0, 3, 2, -7, 2, -7, 3, -8, -6
};

int32_t bias[N_d] = {
    0, 0, 0, 0, 0, 0, 0, 0, 0, 0, 0, 0, 0, 0, 0, 0,
    0, 0, 0, 0, 0, 0, 0, 0, 0, 0, 0, 0, 0, 0, 0, 0
};

int32_t golden[M_d * N_d] = {
    -515198, 255959, 242940, -117860, 20759, -98406, 50018, -21759, 101658, 245309, -192757, 474348, -90983, -209704, 103102, -126437,
    -233718, -132118, -134767, -27309, 33352, -1715, 171104, 47834, 15696, -27895, -365403, 35836, 194259, -167578, -126510, -128346,
    859110, -143707, 127955, 457035, 298373, -83305, -131883, -216727, 349463, 38538, -390589, -18431, -122079, 326160, -375094, -253412,
    -92598, 13342, 300766, 81852, 152210, 204089, -266555, 360171, 148459, -387323, 178642, 228171, -324670, 100876, 66778, -11870,
    -66839, -458445, -139932, 104221, 61442, 131397, -37145, 13276, 104091, 113798, 93616, 283848, -167683, 11104, 458428, 54995,
    -95299, -91629, 351895, -263001, -124596, 269827, -201367, 66036, -50706, 63499, -178846, 217436, -93864, -313397, 457140, -55608,
    602802, 172697, -188262, 385876, 365023, 78997, 108740, -270983, -265480, 153097, -114306, 141126, -44299, 295156, 25381, 421014,
    -235044, 128201, 212070, -211093, 409714, -252231, 38232, 234866, -108557, 76271, -84057, -102757, 266482, -61175, -114987, -158614,
    152208, -97095, 15727, -106684, 268831, 234234, -2609, 83621, -296319, -382998, -132230, 311390, -164164, -197143, 323299, 25574,
    175429, 13408, 317383, 186244, 68540, -328577, -380676, 350094, -395036, -60581, -376344, -146631, 273051, 266250, -20682, 378836,
    246590, 84029, -65213, -195234, 212969, 626346, 211244, -147393, -493558, 510386, 171298, -329671, -240466, -504154, 173975, -5576,
    -516, 117492, 164797, 131953, -171515, 91149, 428951, 246971, 114610, 261946, -108126, 126436, 165073, 281676, -44102, -135818,
    268933, 616038, 157164, 357661, -66684, 89208, -120617, -304795, 591363, 373222, -148504, 202460, -299191, 537266, 23669, -20674,
    -285134, -6966, 34954, 21176, -57994, 35100, -183311, -399436, -16547, -175588, 63758, -91028, -3859, -107590, 116462, 88281,
    75135, -265719, 296990, 199457, -169361, 68429, 331195, -215409, 287598, 41197, -396303, 519422, 136174, 48705, 298891, -297148,
    -595214, -161056, 194023, -610450, -6326, 128743, -556, 29143, 330921, -121576, -322337, 230014, 63244, -192843, -18698, -110267,
    227536, -101486, 99944, 211075, 242886, 187363, 736073, 56757, 152708, -48491, 32933, -237863, 169275, -43792, -310079, -123184,
    -168364, -98227, 387676, -189775, 137954, -23181, -79834, 393103, -156063, 299383, 213723, -22157, -324056, -76928, -249330, -190802,
    218822, 375307, 237310, 58476, 270955, 442958, -426065, -304886, 111021, -136762, 30737, -332253, 101430, -223473, -284623, -368983,
    -161483, 253054, 6531, -5818, 438420, -214493, 506298, -193839, -223434, -118619, -345658, 2384, 378816, 351423, 281697, 183301,
    -409377, -39596, 160350, -281080, -30231, -54020, 460818, 465646, -725023, -216955, 336531, -168408, 425631, -709745, -28988, -125655,
    44459, -291775, 430303, 92429, -123896, -293357, 172333, 593918, -219133, 630599, -433446, 54410, 191888, 430119, -356324, -150633,
    9819, 181010, 166195, 135437, -107347, 129605, 56819, 229436, -245866, 223370, -217340, 50339, 80968, 184427, 100676, 89493,
    -271528, -572, 261432, 116288, -122307, 176197, -222001, 472256, -151774, 76755, -63121, -240941, -331237, 375615, -215693, 105453,
    -329312, 120664, -58704, -289879, 468194, -376365, -91793, 308065, 73785, 26341, -157543, -24975, -189964, -122881, 74845, -118011,
    -13647, -325930, 30665, -233822, -28728, -121780, 66865, 26994, -234914, 123826, 50771, -289507, -169720, -224292, 222916, 287811,
    -75474, -297965, 114614, -419766, -69443, 367005, 105718, 157833, 61230, -195365, 271972, -23909, 174326, -227265, -125374, -199360,
    19045, 143232, -826, -355690, -279357, 274871, 345652, 11348, 383664, 112226, 150962, 221387, 45263, -192635, 39215, -81181,
    -339237, 461906, -176791, 602432, 209784, 120507, 427728, 60487, 207644, 350541, 62206, -109083, 80660, -43545, -239084, 512623,
    -189321, -658517, 478109, -344166, -17112, -63084, -19359, 33460, -69195, 50566, -183034, 90965, 208729, 150069, -276109, 10971,
    470308, -255515, 2159, 46543, -156886, 204225, 101334, -8147, -282091, 206387, 69030, -207269, 335923, -102292, 102829, -78740,
    -40302, -52695, -102533, 143146, -295018, -123633, 351480, 366430, 83553, -242310, 135595, -214948, -15437, 309903, -137414, -239783,
    267182, 139922, -185595, -218001, 83772, 19771, 162435, -292693, -155274, 363260, -70407, -472191, 78384, -251028, -35063, 26450,
    193775, -148984, -44998, -216466, 91102, -127884, 151533, 847, 84424, 425271, 47239, 57317, -483622, 47935, -82847, -463665,
    494707, 113829, 56683, 11310, -248157, -84257, 363863, -213276, 249865, 246052, -875816, 483654, -351966, 2419, 179304, 10372,
    -304731, -93728, -258529, -90011, 184633, -189968, -237359, -154690, 397422, -502167, -1269, 31357, -169124, -223959, -434290, -43117,
    306833, -101394, 72930, -44562, -344762, 40711, 209773, -521175, -121129, -304174, 362587, -167244, 291104, -102661, -196937, -243200,
    -48420, -94392, 31598, -17862, 207118, -350882, 287011, -94066, -13775, 346722, -53387, 129106, 607030, 33899, -243575, -218376,
    -156314, 344667, -425186, -62530, -70830, -212468, -537715, 321711, 9592, 7350, -112276, 378082, -68330, 25701, -174217, 86000,
    125819, -7787, -386294, -9804, -821793, 139462, 27300, 13574, 331517, -179944, 178123, 151149, -135154, -107075, -292687, -36501,
    137919, 118524, 275060, 310067, 251928, 266618, 255161, -159865, 277573, 412163, -192939, 149939, 543648, 327867, -120292, 15321,
    -225681, -149192, 368041, -234351, 15963, 385275, -181284, 198866, 388675, 40169, -4383, 189129, 365338, 385938, -149362, -144816,
    368955, 78285, 386108, 152496, 696058, 72576, -109428, -342127, 294092, 496145, -243536, -179806, -174844, 118434, -136425, -423479,
    141078, -157251, 217534, -41423, 52858, 126353, -95971, -200550, 127355, 63323, -290685, 19855, 232157, 192566, 314964, -346166,
    -68166, 122481, 347468, -22541, 366771, 84614, -58775, 248688, 321219, -199295, -25289, -210967, 464785, 173434, -294059, -470873,
    78044, -45479, -81638, 242382, 275466, -203367, -46508, -190621, -93259, -410561, 8551, -333860, 396221, 680868, 271685, 169447,
    60245, -253079, 269827, 23678, -188611, 166896, 516959, -191736, -117344, -96713, 178959, -634209, 136442, 112807, -302675, -24987,
    33930, 114168, 306266, -161727, 395562, -32384, -158513, 239712, -37239, 474829, 137040, 207700, 160934, 209801, -184661, -350236,
    -296083, 226148, -497394, -277491, -526136, 287154, 455338, 85844, -59565, -79158, 191129, -50982, -302585, -541063, 304267, 68743,
    161058, -245055, -392927, 148603, -64439, -274352, 247795, -59873, -228975, 485193, 15394, 177715, -621802, -259944, -343907, -376088,
    -161084, 124176, -579662, -151487, 318573, 288740, 224147, 121891, 9291, 349988, 232154, 34239, -265287, -277068, 79535, 136388,
    451856, -371397, -366480, 731, 114323, -157087, 222140, 15161, 60335, 332309, -244531, 242352, 56138, -81870, -26205, -753667,
    -172333, -57124, -164585, 429116, -298549, 303067, -27892, -82135, -227892, -81021, -102675, 171700, -255229, 155822, -351031, 220108,
    -53301, 95063, -28083, 270930, -210859, -186880, 10601, 557801, -47641, -307821, -93229, 287474, 588740, 26019, -383413, -385475,
    -63333, 731617, 615092, -9334, -263310, -517649, -48542, 38000, 62163, 412494, -297823, 169037, -72018, 182671, 207397, 203854,
    -53218, -119143, 278005, 297358, -23530, -19695, -92749, -247813, 96726, -152423, -287832, -281074, -178874, 172076, 223738, -88232,
    -185735, 112854, -273638, 383233, 64095, 60180, 408193, 525051, -189658, 185817, 313209, -154136, 227477, 249237, -98959, 744489,
    113633, -82587, 298588, -48749, -63600, 558114, -65909, 751918, -20716, 460033, 121960, -112694, 50596, 223828, -556962, -98190,
    -417712, -155650, -209285, 319123, -209498, 85303, 328451, -41025, 364889, -369677, 86020, 107825, 104155, 58777, -109597, 95258,
    45895, -195591, -205729, 239407, -135465, 225444, -20078, -298796, 135161, -40344, 245407, 410811, 290659, -197737, -247773, 126229,
    232498, 308539, 554040, 133683, 796919, -65420, -100935, -112871, 183451, 426785, -231300, 64305, 163641, 117971, -154029, 177164,
    241128, -239363, 314333, -283777, 144508, 504053, -260469, 216511, 269159, -185368, -492038, -180315, -24158, 663500, -20015, 178092,
    78140, -138072, 278624, 202955, -49515, 52416, -107668, -224300, 532908, -23066, 51682, -43275, -168512, 69569, -102759, -416997,
    -49952, -209748, -119696, -457844, -82569, 236225, 82063, -324855, 212910, -79541, -140606, 195099, 181302, -31819, 72648, 79486
};

#endif  // __ARRAY_MODE8_16B_4B_32_32_32_RANDOM_H__
