#ifndef __ARRAY_MODE3_16B_16B_32_32_32_RANDOM_H__
#define __ARRAY_MODE3_16B_16B_32_32_32_RANDOM_H__

#include <stdint.h>

// Pattern type      : random
// Input  bitwidth   : 16
// Weights bitwidth  : 16

#define M_d 32
#define K_d 32
#define N_d 32

#define I_TYPE int16_t
#define W_TYPE int16_t
#define C_TYPE int32_t

const int16_t zp_input   = 0;
const int16_t zp_weights = 0;

int16_t input[1024] = {
    -8874, 14912, 7961, -6429, 1230, -4717, 11143, 13587, -10981, -15936, -16158, -10200, -5391, -1303, 1075, 12941,
    -6269, -16321, -15539, -11355, -8959, -13971, -15713, -6687, 6989, -10534, 14941, 15849, 4145, -428, -15449, -14834,
    -9033, -14213, -1058, 11085, -4023, 6979, -11307, -11021, 5305, 15010, -1349, 625, -7286, 9847, 3076, 15014,
    5523, -1143, -10170, -12487, 13005, 14046, 8144, -4034, -5227, -220, -13693, 268, 14293, -2458, 6881, 4988,
    -12321, 1874, 6561, -5367, -7475, -6137, 12063, -8234, -9468, -15314, 13492, 13363, -16007, 4449, 8241, -16120,
    7285, -15415, -1915, 15768, -5227, 15686, 9343, -11492, -10969, 14497, 9601, -8814, 11830, 14290, -10335, 7590,
    15859, -8240, 3882, 8292, -244, 13257, -9162, 426, -525, 6300, -11908, -15678, -14229, 15180, -7635, -9088,
    -4117, -2391, 3051, -9569, -15999, 14815, 13302, 12855, 14946, -11701, -10086, -1349, -2675, -15085, -11540, 8763,
    -11796, 12237, -14481, 13311, -13243, 3980, 1497, -3502, 2866, 15847, 6191, 13889, 9005, 14931, 4592, 5911,
    -4863, 879, -13085, 3436, -8662, -5334, 11435, -1617, 848, -3509, -9205, -1897, -5417, -14967, 9396, -5768,
    -14393, -16094, -9151, -7245, 9241, -328, -2702, -487, 9303, -10313, -2030, -3026, 367, -4236, -9226, -7789,
    -13021, 8785, 6915, -13969, -728, -15384, -10611, 15508, 15547, 3413, 940, 2383, 8657, 1177, 14234, -5376,
    -14908, -5504, -2853, 11151, -158, -4385, -11237, -425, -4672, 13250, -14798, 11005, 5260, -7248, -11646, -10985,
    -12638, 15574, 12034, -11614, 15141, 613, -13052, -8675, 989, 9326, 12010, 11803, 8577, 5713, -11637, 8671,
    10075, 377, -494, -5635, -1681, -15969, -10568, 14206, 11779, 1314, -10707, 11808, -6413, -4360, -8338, -3668,
    -6040, -5950, -8403, 3272, 2265, -5260, -16298, 15887, -9410, -3212, -16374, 6760, -7406, -6807, -12254, -9905,
    -1524, -1156, 10708, 3231, 11105, 6850, -15385, 12820, 7438, 3694, 3445, 1059, 12843, -916, 13783, -1070,
    -1113, -15277, -11778, 8041, 4829, 15707, -8438, -1506, 6771, -5006, 6443, 4362, -10731, -1451, 303, -16154,
    -14012, 4663, 2636, 8611, 4717, -7405, -15831, 15107, 12941, -3050, -1382, 11312, 5686, 7912, 16306, 10377,
    1284, 3671, -15032, -866, -649, 4323, 697, 7712, 16064, 11101, 1015, -356, 12423, 9089, -12522, -12664,
    10444, -6601, 8804, -15286, 4170, -1508, -4210, -4975, -15706, 9152, -2829, 11030, -2969, -5584, 7660, -978,
    12370, 11621, -14803, -12746, -130, 3290, -13760, -15285, 10844, -16122, 7571, 912, 707, 15313, 7924, -8245,
    8777, 5222, -15165, 4545, -9088, 5598, 12367, -6694, 4745, 2644, -4587, -1849, -3007, -4481, -10976, -11751,
    11435, -7748, 13786, -3087, 13902, -13100, 4990, 2248, -8315, -1361, 15226, 998, 10712, -7342, -16010, -13036,
    4519, -13594, 3801, 11797, 15826, -12374, 8131, 7008, 5577, 12297, 10115, -11508, 2871, 14020, 581, -12772,
    6447, -12043, 3166, -10704, 7463, -11211, 6484, -2942, -6479, -11733, -7048, -8362, 14970, -4104, 12334, -8892,
    -7503, -12944, 1616, 4182, 15732, 3545, 3171, -12472, -10839, -11127, 10927, -9405, 9938, 1598, -4730, 13580,
    1401, -2572, -1361, -12528, -15692, -15394, 5809, -9085, -14782, 2093, -11586, 13385, 7091, -14147, 8793, 9209,
    8629, 335, 7506, -1696, -2694, -5418, -7984, 15386, 8135, -3632, 2264, -5672, -12761, -1935, -15240, 3070,
    4944, -8237, 12507, -9721, 3005, 12016, -15381, -1336, -4899, -1812, -9245, -8346, -10771, 15275, 11377, 7233,
    15563, 14938, 12581, -10349, -396, -15363, 14891, 12648, 12633, 10901, 11022, 13006, -16212, -7313, -4125, 8800,
    15015, -15049, -3102, 12646, -1171, 15928, -15729, -6476, -8362, -4510, -13046, -14687, -4553, 217, -7245, 13379,
    -3942, -27, 9442, 2518, -12695, 13272, -16132, -14944, -11758, -3865, 12964, 9041, -9297, 4786, 10165, -5849,
    -7274, 743, 8410, 14811, 15414, 11863, 7441, 15879, -3734, -14194, 5845, 3363, -14625, 15408, -13850, 13364,
    15089, 3554, -10479, -4685, 2684, -14853, 6261, -7385, -9314, 7999, 1760, 7542, -5055, -8834, -13036, 1928,
    -8743, 7810, 1861, -15575, -9862, -8588, -6471, -4957, 582, 13971, 15813, -16102, 1881, -13720, 15459, -6258,
    6087, 14425, 136, -1059, -11779, -10607, 11926, -4524, -15862, 4469, -7710, 791, -4831, -9660, 6630, -15419,
    -8664, 6267, -13039, 14710, -16241, 8492, -6137, -9467, 4058, -16281, -12604, -13628, 14552, 8393, 4155, 3475,
    2621, 596, 7898, 5604, 9515, 355, -13859, -5870, -12296, -14423, -6913, 13613, 15338, 3468, -11573, -11321,
    11739, 5647, -3214, -10748, 9204, 14092, -3458, 11260, 3585, -12580, -2506, -1667, 5712, -13764, 14287, 1958,
    2498, 9382, 11621, 8774, -6192, -3063, 941, -803, 1477, 3891, -15986, 12794, 9805, -14465, 4816, -9048,
    365, -12962, 10888, -343, 1292, -16280, 15072, -10817, -12398, -1557, 13597, -8588, -1048, -2325, -14922, 3715,
    3032, 8719, 2283, 3342, 720, 9594, -3482, -3890, -10627, 2952, 9526, -16085, 10755, 13389, -7522, -1694,
    -1591, -12639, -1313, -7546, 965, -15359, 5044, 16229, -1037, 4957, 15933, 2570, -14003, -2235, 11788, 12637,
    6081, -2823, 13501, 6266, 11089, 6742, 3215, -13389, -14653, -9088, -8663, -305, 6778, 1576, 15205, 14735,
    -4617, 13958, -655, 1027, 12364, -5900, 11025, -11752, -5270, 3312, 11343, 8600, -6720, 4029, -245, 9109,
    -1556, 13126, 3485, 7685, -10037, 9637, 8729, 5266, -16296, 10021, 7728, 11497, -11781, 4003, -4273, -2284,
    -8204, 4645, 5670, -5233, -2128, -15220, 9885, 12963, 11655, 1068, -12738, -13574, 14285, -9927, 7055, 15371,
    11728, 9777, -15484, -10538, -15989, -2445, 6678, -5430, 1689, 12202, 7459, 9891, 6382, -8341, 319, -12291,
    -8288, 14682, 7725, -4166, -3055, -14382, -14318, 4876, -13536, 12383, -3044, -5552, 7940, 5617, 778, 11304,
    6423, 5569, 16349, -6738, -14738, 8963, 15651, 2943, -1487, -10850, 6064, -4830, 16126, 15054, 10340, -12791,
    1220, 1634, -15442, -7261, -1284, -10497, 15012, 10359, 11949, -6465, -10778, -5999, -9702, 94, -12993, -5069,
    -3626, -15897, 14601, 12732, 6575, 6300, 15857, 13623, -10135, 2748, -9256, 2426, 7116, 15787, -10632, -12767,
    11948, 11268, 4114, -7891, 10056, 8822, -13234, 9552, -501, -9828, -9415, -3958, 13304, -3619, -8270, 14031,
    6793, 15273, -13444, -3959, 2836, -15789, -9851, 15959, -8134, 8713, 8571, 5097, 4148, -1443, -776, -7250,
    15, 7872, 14924, 1546, 11777, 10139, 5868, 9841, -6229, 5616, -7834, -8252, 913, 14266, -3019, -6710,
    2350, 13451, -10423, -2739, 14847, -1150, 13988, -4494, 3899, 4460, -3150, 14400, 14681, -15123, 5466, 4822,
    -1090, -9408, -734, 2944, -2130, 6523, 11145, 14638, -13418, 153, 14622, -3213, 8209, 10707, 8253, 6101,
    -15458, 14882, -13241, -10861, -1714, 4805, 15601, 10940, 13321, 4688, -3858, -5632, 15767, 7383, -12898, -718,
    8422, 546, -2379, -15485, 1326, -2628, 6591, -11572, -4553, 7829, -1504, 10301, -1462, 10037, 12534, 5759,
    -8206, -10999, 12302, -16223, -12988, 8783, -8575, 8577, 11726, 489, 7764, 4155, 9526, -2399, -8518, 14679,
    -11287, -4952, 6391, 14104, -5307, -164, -15459, -2563, 10211, 1709, 6986, -12743, -16340, -5402, 6771, -2638,
    7483, -4541, 9379, -3382, 15588, 2941, -1636, 0, -282, 12151, -4553, -8216, -3211, 9239, 12588, -5695,
    14927, -15060, -14448, -14286, 11312, 5825, 11745, 8270, -12708, 12057, -5798, -7231, 9444, -10081, -2201, 5925
};

int16_t input_unpacked[M_d * K_d] = {
    -8874, 14912, 7961, -6429, 1230, -4717, 11143, 13587, -10981, -15936, -16158, -10200, -5391, -1303, 1075, 12941, -6269, -16321, -15539, -11355, -8959, -13971, -15713, -6687, 6989, -10534, 14941, 15849, 4145, -428, -15449, -14834,
    -9033, -14213, -1058, 11085, -4023, 6979, -11307, -11021, 5305, 15010, -1349, 625, -7286, 9847, 3076, 15014, 5523, -1143, -10170, -12487, 13005, 14046, 8144, -4034, -5227, -220, -13693, 268, 14293, -2458, 6881, 4988,
    -12321, 1874, 6561, -5367, -7475, -6137, 12063, -8234, -9468, -15314, 13492, 13363, -16007, 4449, 8241, -16120, 7285, -15415, -1915, 15768, -5227, 15686, 9343, -11492, -10969, 14497, 9601, -8814, 11830, 14290, -10335, 7590,
    15859, -8240, 3882, 8292, -244, 13257, -9162, 426, -525, 6300, -11908, -15678, -14229, 15180, -7635, -9088, -4117, -2391, 3051, -9569, -15999, 14815, 13302, 12855, 14946, -11701, -10086, -1349, -2675, -15085, -11540, 8763,
    -11796, 12237, -14481, 13311, -13243, 3980, 1497, -3502, 2866, 15847, 6191, 13889, 9005, 14931, 4592, 5911, -4863, 879, -13085, 3436, -8662, -5334, 11435, -1617, 848, -3509, -9205, -1897, -5417, -14967, 9396, -5768,
    -14393, -16094, -9151, -7245, 9241, -328, -2702, -487, 9303, -10313, -2030, -3026, 367, -4236, -9226, -7789, -13021, 8785, 6915, -13969, -728, -15384, -10611, 15508, 15547, 3413, 940, 2383, 8657, 1177, 14234, -5376,
    -14908, -5504, -2853, 11151, -158, -4385, -11237, -425, -4672, 13250, -14798, 11005, 5260, -7248, -11646, -10985, -12638, 15574, 12034, -11614, 15141, 613, -13052, -8675, 989, 9326, 12010, 11803, 8577, 5713, -11637, 8671,
    10075, 377, -494, -5635, -1681, -15969, -10568, 14206, 11779, 1314, -10707, 11808, -6413, -4360, -8338, -3668, -6040, -5950, -8403, 3272, 2265, -5260, -16298, 15887, -9410, -3212, -16374, 6760, -7406, -6807, -12254, -9905,
    -1524, -1156, 10708, 3231, 11105, 6850, -15385, 12820, 7438, 3694, 3445, 1059, 12843, -916, 13783, -1070, -1113, -15277, -11778, 8041, 4829, 15707, -8438, -1506, 6771, -5006, 6443, 4362, -10731, -1451, 303, -16154,
    -14012, 4663, 2636, 8611, 4717, -7405, -15831, 15107, 12941, -3050, -1382, 11312, 5686, 7912, 16306, 10377, 1284, 3671, -15032, -866, -649, 4323, 697, 7712, 16064, 11101, 1015, -356, 12423, 9089, -12522, -12664,
    10444, -6601, 8804, -15286, 4170, -1508, -4210, -4975, -15706, 9152, -2829, 11030, -2969, -5584, 7660, -978, 12370, 11621, -14803, -12746, -130, 3290, -13760, -15285, 10844, -16122, 7571, 912, 707, 15313, 7924, -8245,
    8777, 5222, -15165, 4545, -9088, 5598, 12367, -6694, 4745, 2644, -4587, -1849, -3007, -4481, -10976, -11751, 11435, -7748, 13786, -3087, 13902, -13100, 4990, 2248, -8315, -1361, 15226, 998, 10712, -7342, -16010, -13036,
    4519, -13594, 3801, 11797, 15826, -12374, 8131, 7008, 5577, 12297, 10115, -11508, 2871, 14020, 581, -12772, 6447, -12043, 3166, -10704, 7463, -11211, 6484, -2942, -6479, -11733, -7048, -8362, 14970, -4104, 12334, -8892,
    -7503, -12944, 1616, 4182, 15732, 3545, 3171, -12472, -10839, -11127, 10927, -9405, 9938, 1598, -4730, 13580, 1401, -2572, -1361, -12528, -15692, -15394, 5809, -9085, -14782, 2093, -11586, 13385, 7091, -14147, 8793, 9209,
    8629, 335, 7506, -1696, -2694, -5418, -7984, 15386, 8135, -3632, 2264, -5672, -12761, -1935, -15240, 3070, 4944, -8237, 12507, -9721, 3005, 12016, -15381, -1336, -4899, -1812, -9245, -8346, -10771, 15275, 11377, 7233,
    15563, 14938, 12581, -10349, -396, -15363, 14891, 12648, 12633, 10901, 11022, 13006, -16212, -7313, -4125, 8800, 15015, -15049, -3102, 12646, -1171, 15928, -15729, -6476, -8362, -4510, -13046, -14687, -4553, 217, -7245, 13379,
    -3942, -27, 9442, 2518, -12695, 13272, -16132, -14944, -11758, -3865, 12964, 9041, -9297, 4786, 10165, -5849, -7274, 743, 8410, 14811, 15414, 11863, 7441, 15879, -3734, -14194, 5845, 3363, -14625, 15408, -13850, 13364,
    15089, 3554, -10479, -4685, 2684, -14853, 6261, -7385, -9314, 7999, 1760, 7542, -5055, -8834, -13036, 1928, -8743, 7810, 1861, -15575, -9862, -8588, -6471, -4957, 582, 13971, 15813, -16102, 1881, -13720, 15459, -6258,
    6087, 14425, 136, -1059, -11779, -10607, 11926, -4524, -15862, 4469, -7710, 791, -4831, -9660, 6630, -15419, -8664, 6267, -13039, 14710, -16241, 8492, -6137, -9467, 4058, -16281, -12604, -13628, 14552, 8393, 4155, 3475,
    2621, 596, 7898, 5604, 9515, 355, -13859, -5870, -12296, -14423, -6913, 13613, 15338, 3468, -11573, -11321, 11739, 5647, -3214, -10748, 9204, 14092, -3458, 11260, 3585, -12580, -2506, -1667, 5712, -13764, 14287, 1958,
    2498, 9382, 11621, 8774, -6192, -3063, 941, -803, 1477, 3891, -15986, 12794, 9805, -14465, 4816, -9048, 365, -12962, 10888, -343, 1292, -16280, 15072, -10817, -12398, -1557, 13597, -8588, -1048, -2325, -14922, 3715,
    3032, 8719, 2283, 3342, 720, 9594, -3482, -3890, -10627, 2952, 9526, -16085, 10755, 13389, -7522, -1694, -1591, -12639, -1313, -7546, 965, -15359, 5044, 16229, -1037, 4957, 15933, 2570, -14003, -2235, 11788, 12637,
    6081, -2823, 13501, 6266, 11089, 6742, 3215, -13389, -14653, -9088, -8663, -305, 6778, 1576, 15205, 14735, -4617, 13958, -655, 1027, 12364, -5900, 11025, -11752, -5270, 3312, 11343, 8600, -6720, 4029, -245, 9109,
    -1556, 13126, 3485, 7685, -10037, 9637, 8729, 5266, -16296, 10021, 7728, 11497, -11781, 4003, -4273, -2284, -8204, 4645, 5670, -5233, -2128, -15220, 9885, 12963, 11655, 1068, -12738, -13574, 14285, -9927, 7055, 15371,
    11728, 9777, -15484, -10538, -15989, -2445, 6678, -5430, 1689, 12202, 7459, 9891, 6382, -8341, 319, -12291, -8288, 14682, 7725, -4166, -3055, -14382, -14318, 4876, -13536, 12383, -3044, -5552, 7940, 5617, 778, 11304,
    6423, 5569, 16349, -6738, -14738, 8963, 15651, 2943, -1487, -10850, 6064, -4830, 16126, 15054, 10340, -12791, 1220, 1634, -15442, -7261, -1284, -10497, 15012, 10359, 11949, -6465, -10778, -5999, -9702, 94, -12993, -5069,
    -3626, -15897, 14601, 12732, 6575, 6300, 15857, 13623, -10135, 2748, -9256, 2426, 7116, 15787, -10632, -12767, 11948, 11268, 4114, -7891, 10056, 8822, -13234, 9552, -501, -9828, -9415, -3958, 13304, -3619, -8270, 14031,
    6793, 15273, -13444, -3959, 2836, -15789, -9851, 15959, -8134, 8713, 8571, 5097, 4148, -1443, -776, -7250, 15, 7872, 14924, 1546, 11777, 10139, 5868, 9841, -6229, 5616, -7834, -8252, 913, 14266, -3019, -6710,
    2350, 13451, -10423, -2739, 14847, -1150, 13988, -4494, 3899, 4460, -3150, 14400, 14681, -15123, 5466, 4822, -1090, -9408, -734, 2944, -2130, 6523, 11145, 14638, -13418, 153, 14622, -3213, 8209, 10707, 8253, 6101,
    -15458, 14882, -13241, -10861, -1714, 4805, 15601, 10940, 13321, 4688, -3858, -5632, 15767, 7383, -12898, -718, 8422, 546, -2379, -15485, 1326, -2628, 6591, -11572, -4553, 7829, -1504, 10301, -1462, 10037, 12534, 5759,
    -8206, -10999, 12302, -16223, -12988, 8783, -8575, 8577, 11726, 489, 7764, 4155, 9526, -2399, -8518, 14679, -11287, -4952, 6391, 14104, -5307, -164, -15459, -2563, 10211, 1709, 6986, -12743, -16340, -5402, 6771, -2638,
    7483, -4541, 9379, -3382, 15588, 2941, -1636, 0, -282, 12151, -4553, -8216, -3211, 9239, 12588, -5695, 14927, -15060, -14448, -14286, 11312, 5825, 11745, 8270, -12708, 12057, -5798, -7231, 9444, -10081, -2201, 5925
};

int16_t weights[1024] = {
    8816, -3668, 5438, -7317, -11163, -4534, -125, 11185, -3666, -15891, 5832, -8578, 15737, 9192, 12020, -12433,
    -6448, -15383, -14834, 9208, 10778, 8015, -12362, -8910, 5347, 1468, -6675, -10664, -14326, 6979, -12466, 2325,
    5364, 9628, 11222, -14338, -13898, -2148, 8220, 1917, -5951, -13812, 3775, -15783, -9024, 13381, -9406, -2347,
    10124, 15064, -3930, -2776, -11976, 15278, -2712, -13585, 8667, 8486, 1224, -13695, -6451, -15638, 1251, 2852,
    7224, -4598, 16287, -16250, 13961, 14387, -13970, 7593, -15203, -5802, 8599, -4308, -16083, -12858, 1485, -7772,
    5013, -2329, 1689, 14779, -11433, 12829, -12060, -15651, -3852, -489, 7768, 4160, -4426, -6895, 12755, -15799,
    6056, 7662, 13826, -3867, 6753, -11930, 12198, -6143, -12191, -843, -6784, -13752, -121, 1313, -12253, 9279,
    -15406, -274, -4370, 2354, 7153, 4755, -6070, -13850, -1544, -13714, 9322, 15635, -1104, -6957, 1325, -12756,
    4500, -2149, 11538, -260, 1408, -2151, -755, -15385, 7841, 2460, 11479, -3087, -33, 11522, 13464, -277,
    7242, 13912, 15234, 11675, 8564, -7694, 4333, 5817, -1985, -5805, 11860, -4841, 10655, 744, -4684, -10345,
    -10743, 6763, -1064, -14903, -6722, -2202, -3419, -5620, 3965, -6925, -4027, -14326, 764, -15071, -11095, -10620,
    2803, -2208, -3979, 4939, -9107, -10892, 10315, -9780, -5773, 14100, -12622, -4132, -10042, -12901, 439, -16152,
    2484, 11418, -12754, 13522, 13311, 10012, -2877, 11169, -15765, 396, -16192, -13284, -9976, -13231, 12752, 6047,
    735, 10275, 7598, -270, -194, 5811, 167, 10547, -10952, 11950, -13985, -10527, 10127, -9816, -6045, -10483,
    10899, -4702, 703, 14876, -992, 7807, 8395, -9560, 11268, 14720, 6333, -2131, -1223, 9078, -8650, -10905,
    2913, 7155, -7792, -5735, 5974, 958, -11873, -5556, 13587, 12163, 4987, 3529, -7821, 2559, -14898, 954,
    16348, -13477, -5697, 14967, -12816, 15207, -15274, 10087, 5394, 4921, 4748, 7977, 6734, -9521, 56, -6662,
    -11479, -6261, -13826, -6460, 14636, -3441, -16082, -1393, 15556, -16019, -14741, -6771, 11812, -1637, 1187, -10297,
    -5683, 14271, 4851, -9940, -11431, 14972, 1853, -3962, -11726, -1654, 3265, -5368, -5459, 12984, 14350, 14453,
    1901, -2469, -16248, 3441, 3622, -8545, 9106, 12118, -4274, -10129, -13599, -13153, 9353, -8450, 1867, -15102,
    -12318, -11866, -3533, 10935, 3766, -4141, 1785, -2054, 2611, -3406, 5382, 1660, -8512, -3479, 5024, -7448,
    3393, -15267, -10582, -2189, -4239, -11103, 2304, -12036, -6776, -6650, 964, 16109, -3986, 2388, 13462, 1626,
    5708, -11215, -11648, -13146, 3220, -15563, 15448, 11520, 15908, 11023, 6463, -2292, 10330, 6606, -6907, 4430,
    -16097, -1955, 4326, -11232, 14472, -16107, -6902, -3422, 13228, -8920, -13978, -66, -11207, -9638, 14620, -91,
    -6697, 990, 1160, 10477, -876, 12834, -14527, -138, -12990, -16173, 4123, -6472, -8916, -8947, 3273, -7611,
    -15667, 7725, 1601, -6302, -14447, 1998, 13036, -907, -843, 13674, 10542, -7724, -12592, 2510, -12808, -15370,
    -12769, -6363, -11811, -9856, 14806, -12249, -15877, 2561, -407, 12347, 5991, -7520, 3438, -6979, 8926, -5511,
    14459, -2586, -11416, -7911, -3677, 9866, -11767, -13213, 2247, -10095, -8136, -10473, -10968, 12255, 4878, -8046,
    8594, -741, 4617, 11119, 6725, -3704, -8234, -9135, -15109, -10904, 12434, 10760, -16050, -3601, 12554, 7972,
    -14860, -11915, -4405, 15541, -1096, -14812, -7088, 8309, -3419, 2256, -14775, -12612, -6077, 3905, 4648, 14419,
    14237, -3158, 428, 11209, -15134, 7803, 4719, -1848, 15499, -13290, 6061, -2177, 14025, -6165, 3929, -15370,
    -14090, 10507, -4724, -9253, -16120, 14613, 9058, 7041, -13320, 9280, -514, -12763, 13355, -10277, 16164, 16113,
    -11303, 1330, 15813, -15674, 14619, -13222, -2074, 16088, -2362, -12539, -7882, -6678, -7004, -12234, -7777, -1283,
    13138, 2648, -15824, 1490, -14123, 7721, -11220, -6896, 224, -8318, 942, -9159, -6016, 6046, -13017, -14727,
    -13769, -659, 176, 10598, -3120, -8866, -7637, 15476, 6907, 10021, 1138, -12270, -5310, 5401, 12249, 11790,
    -2517, 11366, -7432, 7226, -1509, 15862, 8780, 8199, 1734, 4518, -9220, -3677, -15478, 3173, -8871, -14498,
    -7000, -6626, 2288, 6239, 8196, -1754, 13684, 15142, 5254, 47, -3918, 5202, -14717, -3796, 11548, -8715,
    -14571, 13647, -582, 1203, 3298, -11787, -13036, -12397, -3978, -9421, 12727, 7139, -11448, -3216, 10741, 5664,
    -11023, -5195, -13385, -1744, 5961, -13442, 11018, -16101, -15122, 2308, -11440, -14406, 7334, 1883, -13447, 5963,
    11209, 13358, -16356, 6305, 7763, -6147, 13711, 2464, 13294, -1341, 15465, -8924, -14940, 12112, 16111, 5345,
    -1828, -7899, -3641, -12927, 3479, -2218, 5706, 4183, -3963, 2576, -2412, 2369, 4553, 1350, 4291, -4736,
    14937, -12008, -7678, -9203, -2980, -15031, -8125, 7359, 11947, 3902, -369, -10454, -4001, -7464, -3445, -11228,
    -9744, -998, 10790, 4350, -12015, -15600, 6201, 5263, -6313, -12160, 4811, -13043, -5896, 11178, -5686, -7790,
    11883, 13482, 2938, -13154, 11669, 15885, 11754, 13560, 11189, -13037, 3888, -16110, -4754, 10675, 12935, -4883,
    10271, -8412, -2571, -11246, -519, -10398, 15606, -1082, 7187, 9112, -228, 13331, 15067, -8427, 3873, 6795,
    13528, 14387, -5008, -4582, 729, 2489, 1198, -10268, 5892, 12040, 5740, 6717, 8958, 5413, 16339, 1373,
    -12075, -7360, 13875, 7218, 14749, 9111, 4457, -14915, 10013, -4013, 14547, -10711, 170, 2585, -9284, -5903,
    -15919, -12844, 14711, -1097, -2176, -11724, -9359, 2275, -5182, 6859, -3538, 2034, 8818, -882, 682, 1406,
    -2216, 2951, -16367, 2166, -1171, -9475, 5978, -2705, 2957, -6388, -7247, -7248, 3347, -10597, -11876, 594,
    -4562, -10118, -8173, -12391, 4511, 15955, -8242, 8168, -12349, -16341, 3132, 14841, -12833, -2412, -7622, -14612,
    -9930, 11334, 2998, 9251, -12817, -5388, -12703, -9050, -15079, -1764, -14597, -5361, -11830, -6789, 15003, -15286,
    -4416, 9363, -16162, 15371, 6465, -3716, -79, 2034, 8140, -1653, 679, -13711, 12222, -8532, -981, -5848,
    8279, -2921, -13371, 15639, 743, 4623, 11922, -14417, -12327, 9435, 12927, 13693, 4603, -5111, 16278, -7226,
    13611, -16365, -2980, -13832, -10669, 2355, 9424, 4084, -941, -8416, 8300, 12983, -291, 8023, -2635, -4378,
    13126, 3954, -11561, -5026, -3598, -14583, 4883, -7787, -11128, 2206, 12967, -6186, -10807, -687, 8512, -14172,
    4863, 12241, -1790, 172, 5471, 12030, -16197, -5192, -9464, 4426, -6499, -10940, -8281, 12582, -8018, 7286,
    -6417, 13771, -10188, 12885, 11301, -7157, 5605, 10064, -13030, -7233, -10554, -11943, 3216, -1888, 8591, 13550,
    10346, 11572, 4756, -2989, -2269, 11311, -3897, 13585, -13371, 11815, -9484, -13644, -13080, -7324, 5125, 15852,
    6664, 12539, 13775, -13215, -6310, -15635, -11134, 8042, -12125, -2280, 8814, 7025, 14066, 12839, 7590, 8426,
    -10441, -2680, -6440, -8367, 6480, 11225, -5976, 8124, 5896, -5223, -243, 422, -12162, -13152, -2223, -14843,
    -1769, -2360, 5467, -13189, -15124, 5680, 4330, -7202, 4597, 16369, -2813, 11385, -3350, -5992, 16126, -2439,
    -8870, 13155, 7922, -7405, 12605, 14650, -6358, 1143, -15474, -13885, -8840, -5564, 9173, -11231, -13156, -6289,
    -6408, 7651, -4287, -9890, -3102, -2384, 2573, -4873, -15230, 16159, 12839, -10955, -15625, -9713, -226, 2428,
    16027, -9658, -867, -4036, -3084, -11255, 7899, -15093, 9862, 4235, 5656, -9303, -5771, -10604, -7980, -708
};

int16_t weights_unpacked[N_d * K_d] = {
    8816, -3668, 5438, -7317, -11163, -4534, -125, 11185, -3666, -15891, 5832, -8578, 15737, 9192, 12020, -12433, -6448, -15383, -14834, 9208, 10778, 8015, -12362, -8910, 5347, 1468, -6675, -10664, -14326, 6979, -12466, 2325,
    5364, 9628, 11222, -14338, -13898, -2148, 8220, 1917, -5951, -13812, 3775, -15783, -9024, 13381, -9406, -2347, 10124, 15064, -3930, -2776, -11976, 15278, -2712, -13585, 8667, 8486, 1224, -13695, -6451, -15638, 1251, 2852,
    7224, -4598, 16287, -16250, 13961, 14387, -13970, 7593, -15203, -5802, 8599, -4308, -16083, -12858, 1485, -7772, 5013, -2329, 1689, 14779, -11433, 12829, -12060, -15651, -3852, -489, 7768, 4160, -4426, -6895, 12755, -15799,
    6056, 7662, 13826, -3867, 6753, -11930, 12198, -6143, -12191, -843, -6784, -13752, -121, 1313, -12253, 9279, -15406, -274, -4370, 2354, 7153, 4755, -6070, -13850, -1544, -13714, 9322, 15635, -1104, -6957, 1325, -12756,
    4500, -2149, 11538, -260, 1408, -2151, -755, -15385, 7841, 2460, 11479, -3087, -33, 11522, 13464, -277, 7242, 13912, 15234, 11675, 8564, -7694, 4333, 5817, -1985, -5805, 11860, -4841, 10655, 744, -4684, -10345,
    -10743, 6763, -1064, -14903, -6722, -2202, -3419, -5620, 3965, -6925, -4027, -14326, 764, -15071, -11095, -10620, 2803, -2208, -3979, 4939, -9107, -10892, 10315, -9780, -5773, 14100, -12622, -4132, -10042, -12901, 439, -16152,
    2484, 11418, -12754, 13522, 13311, 10012, -2877, 11169, -15765, 396, -16192, -13284, -9976, -13231, 12752, 6047, 735, 10275, 7598, -270, -194, 5811, 167, 10547, -10952, 11950, -13985, -10527, 10127, -9816, -6045, -10483,
    10899, -4702, 703, 14876, -992, 7807, 8395, -9560, 11268, 14720, 6333, -2131, -1223, 9078, -8650, -10905, 2913, 7155, -7792, -5735, 5974, 958, -11873, -5556, 13587, 12163, 4987, 3529, -7821, 2559, -14898, 954,
    16348, -13477, -5697, 14967, -12816, 15207, -15274, 10087, 5394, 4921, 4748, 7977, 6734, -9521, 56, -6662, -11479, -6261, -13826, -6460, 14636, -3441, -16082, -1393, 15556, -16019, -14741, -6771, 11812, -1637, 1187, -10297,
    -5683, 14271, 4851, -9940, -11431, 14972, 1853, -3962, -11726, -1654, 3265, -5368, -5459, 12984, 14350, 14453, 1901, -2469, -16248, 3441, 3622, -8545, 9106, 12118, -4274, -10129, -13599, -13153, 9353, -8450, 1867, -15102,
    -12318, -11866, -3533, 10935, 3766, -4141, 1785, -2054, 2611, -3406, 5382, 1660, -8512, -3479, 5024, -7448, 3393, -15267, -10582, -2189, -4239, -11103, 2304, -12036, -6776, -6650, 964, 16109, -3986, 2388, 13462, 1626,
    5708, -11215, -11648, -13146, 3220, -15563, 15448, 11520, 15908, 11023, 6463, -2292, 10330, 6606, -6907, 4430, -16097, -1955, 4326, -11232, 14472, -16107, -6902, -3422, 13228, -8920, -13978, -66, -11207, -9638, 14620, -91,
    -6697, 990, 1160, 10477, -876, 12834, -14527, -138, -12990, -16173, 4123, -6472, -8916, -8947, 3273, -7611, -15667, 7725, 1601, -6302, -14447, 1998, 13036, -907, -843, 13674, 10542, -7724, -12592, 2510, -12808, -15370,
    -12769, -6363, -11811, -9856, 14806, -12249, -15877, 2561, -407, 12347, 5991, -7520, 3438, -6979, 8926, -5511, 14459, -2586, -11416, -7911, -3677, 9866, -11767, -13213, 2247, -10095, -8136, -10473, -10968, 12255, 4878, -8046,
    8594, -741, 4617, 11119, 6725, -3704, -8234, -9135, -15109, -10904, 12434, 10760, -16050, -3601, 12554, 7972, -14860, -11915, -4405, 15541, -1096, -14812, -7088, 8309, -3419, 2256, -14775, -12612, -6077, 3905, 4648, 14419,
    14237, -3158, 428, 11209, -15134, 7803, 4719, -1848, 15499, -13290, 6061, -2177, 14025, -6165, 3929, -15370, -14090, 10507, -4724, -9253, -16120, 14613, 9058, 7041, -13320, 9280, -514, -12763, 13355, -10277, 16164, 16113,
    -11303, 1330, 15813, -15674, 14619, -13222, -2074, 16088, -2362, -12539, -7882, -6678, -7004, -12234, -7777, -1283, 13138, 2648, -15824, 1490, -14123, 7721, -11220, -6896, 224, -8318, 942, -9159, -6016, 6046, -13017, -14727,
    -13769, -659, 176, 10598, -3120, -8866, -7637, 15476, 6907, 10021, 1138, -12270, -5310, 5401, 12249, 11790, -2517, 11366, -7432, 7226, -1509, 15862, 8780, 8199, 1734, 4518, -9220, -3677, -15478, 3173, -8871, -14498,
    -7000, -6626, 2288, 6239, 8196, -1754, 13684, 15142, 5254, 47, -3918, 5202, -14717, -3796, 11548, -8715, -14571, 13647, -582, 1203, 3298, -11787, -13036, -12397, -3978, -9421, 12727, 7139, -11448, -3216, 10741, 5664,
    -11023, -5195, -13385, -1744, 5961, -13442, 11018, -16101, -15122, 2308, -11440, -14406, 7334, 1883, -13447, 5963, 11209, 13358, -16356, 6305, 7763, -6147, 13711, 2464, 13294, -1341, 15465, -8924, -14940, 12112, 16111, 5345,
    -1828, -7899, -3641, -12927, 3479, -2218, 5706, 4183, -3963, 2576, -2412, 2369, 4553, 1350, 4291, -4736, 14937, -12008, -7678, -9203, -2980, -15031, -8125, 7359, 11947, 3902, -369, -10454, -4001, -7464, -3445, -11228,
    -9744, -998, 10790, 4350, -12015, -15600, 6201, 5263, -6313, -12160, 4811, -13043, -5896, 11178, -5686, -7790, 11883, 13482, 2938, -13154, 11669, 15885, 11754, 13560, 11189, -13037, 3888, -16110, -4754, 10675, 12935, -4883,
    10271, -8412, -2571, -11246, -519, -10398, 15606, -1082, 7187, 9112, -228, 13331, 15067, -8427, 3873, 6795, 13528, 14387, -5008, -4582, 729, 2489, 1198, -10268, 5892, 12040, 5740, 6717, 8958, 5413, 16339, 1373,
    -12075, -7360, 13875, 7218, 14749, 9111, 4457, -14915, 10013, -4013, 14547, -10711, 170, 2585, -9284, -5903, -15919, -12844, 14711, -1097, -2176, -11724, -9359, 2275, -5182, 6859, -3538, 2034, 8818, -882, 682, 1406,
    -2216, 2951, -16367, 2166, -1171, -9475, 5978, -2705, 2957, -6388, -7247, -7248, 3347, -10597, -11876, 594, -4562, -10118, -8173, -12391, 4511, 15955, -8242, 8168, -12349, -16341, 3132, 14841, -12833, -2412, -7622, -14612,
    -9930, 11334, 2998, 9251, -12817, -5388, -12703, -9050, -15079, -1764, -14597, -5361, -11830, -6789, 15003, -15286, -4416, 9363, -16162, 15371, 6465, -3716, -79, 2034, 8140, -1653, 679, -13711, 12222, -8532, -981, -5848,
    8279, -2921, -13371, 15639, 743, 4623, 11922, -14417, -12327, 9435, 12927, 13693, 4603, -5111, 16278, -7226, 13611, -16365, -2980, -13832, -10669, 2355, 9424, 4084, -941, -8416, 8300, 12983, -291, 8023, -2635, -4378,
    13126, 3954, -11561, -5026, -3598, -14583, 4883, -7787, -11128, 2206, 12967, -6186, -10807, -687, 8512, -14172, 4863, 12241, -1790, 172, 5471, 12030, -16197, -5192, -9464, 4426, -6499, -10940, -8281, 12582, -8018, 7286,
    -6417, 13771, -10188, 12885, 11301, -7157, 5605, 10064, -13030, -7233, -10554, -11943, 3216, -1888, 8591, 13550, 10346, 11572, 4756, -2989, -2269, 11311, -3897, 13585, -13371, 11815, -9484, -13644, -13080, -7324, 5125, 15852,
    6664, 12539, 13775, -13215, -6310, -15635, -11134, 8042, -12125, -2280, 8814, 7025, 14066, 12839, 7590, 8426, -10441, -2680, -6440, -8367, 6480, 11225, -5976, 8124, 5896, -5223, -243, 422, -12162, -13152, -2223, -14843,
    -1769, -2360, 5467, -13189, -15124, 5680, 4330, -7202, 4597, 16369, -2813, 11385, -3350, -5992, 16126, -2439, -8870, 13155, 7922, -7405, 12605, 14650, -6358, 1143, -15474, -13885, -8840, -5564, 9173, -11231, -13156, -6289,
    -6408, 7651, -4287, -9890, -3102, -2384, 2573, -4873, -15230, 16159, 12839, -10955, -15625, -9713, -226, 2428, 16027, -9658, -867, -4036, -3084, -11255, 7899, -15093, 9862, 4235, 5656, -9303, -5771, -10604, -7980, -708
};

int32_t bias[N_d] = {
    0, 0, 0, 0, 0, 0, 0, 0, 0, 0, 0, 0, 0, 0, 0, 0,
    0, 0, 0, 0, 0, 0, 0, 0, 0, 0, 0, 0, 0, 0, 0, 0
};

int32_t golden[M_d * N_d] = {
    469220801, 265646053, 379162148, 1703131057, -767809132, 230411918, 52460364, -438085967, -238764904, 627338580, 428575198, -136338878, 334548045, -146996488, -403957484, -1550045167,
    1767183365, -214737061, 619272527, -138406764, 740896239, -368403284, -604357547, -93958688, 1166786179, 298299372, -80355667, -818197354, -336641077, 791700770, -622784309, 466308518,
    -697957809, -443400456, -679638948, -432112209, -2619152, -626598096, 187296072, 199034091, 727024700, 627523835, 344448561, -157004144, -607325747, 388144788, -129440345, 207736011,
    -924616260, 554804192, -618090524, -61112176, -442282938, 196059262, 160341380, -2203427, -177772681, 96128768, 216914728, -312319252, -22353065, -359391966, 789319469, -105450698,
    797017249, 682832306, 602612627, -494110869, 308927393, 88206417, -582414074, -268041916, -1393296898, 41085902, 446865720, -1917532258, 564624486, -220588880, 674524270, 306675961,
    459837418, -363304903, -295196771, -302398369, -289435415, 343101418, -113531608, 195059275, -679624725, 577327866, 664914269, 1011932924, -369683160, -562802039, -6171521, 553983831,
    -178308079, 818293168, -16562082, -162761161, -296670609, -297359500, 544946676, 585150840, 519414169, 152223125, -539900966, -294520523, 547069383, -513751892, -242045906, 677275673,
    -276935554, 443177774, -663001304, -529537808, -131343650, 509796627, -1292769746, -34722000, 30467722, 100765677, 19255475, -354113662, 19117924, -41898815, 66004506, -35243222,
    -415119733, -212348645, -1109349586, -457617846, -212513349, 205826312, -167629263, 53068194, 376977489, 1122858957, 324552341, 464590122, -173269580, -86684823, 54300335, 371115855,
    -1172312057, 681268088, -143274308, 189502121, 17129187, -365469785, -6789287, -479100837, -138890564, 403262413, 628459954, -617628852, 73117745, 418914524, 167452799, 210186191,
    -744536421, -545254414, -302130131, -335541009, -90366476, 211392448, -180500647, -96850921, 508255631, -571367113, 224776513, 1219641172, 159512710, 110510433, -273747201, 209810513,
    -49475008, -498658996, 554154743, 422359025, 574305081, 337793525, 167164325, 1049521006, 76180473, -182827066, -658322286, -693953415, -429193044, -469605686, -458135133, -642078094,
    -693061296, -921152276, -677183075, 140149236, -231711400, -586891212, 40565519, 775707545, 346371713, -1735051885, -144940779, -134731040, 207885194, -116561356, -837243114, -373868748,
    -444823913, -356195778, 701699786, -28561029, -576393787, -403062447, 231607629, 265844647, 165318664, 300119760, -361057020, 32762958, -280745805, -491168351, 603364911, -479910658,
    451883283, -614253701, -106531086, 57041172, -611713905, 348958414, 186497134, -95018981, 901799446, -157177399, -150688462, 742856388, -507603360, 129040140, 384508712, -547451627,
    832706900, 425792164, 114479965, -1204830585, 420519910, -717203806, -503062789, -376478783, 1039968926, 650551, -750439350, 110790126, -161283315, 843937171, 489002030, -750161231,
    1141598319, -552060141, 1168334999, 218926140, -97571339, -294909656, -211699898, 85814283, 967459458, -3117503, 209190691, -147388512, 172014610, 1010513757, -176618336, -525391611,
    762053129, 877686698, 96157410, -718785188, 253854166, -326913722, -293012919, -144645242, 425231184, -3369881, 133680085, -557033212, -443095694, 1143024345, -84341586, -448582343,
    299594967, -554348022, -658475523, -764291252, 184576271, -534210943, 303047244, 53123435, 512577791, 375306945, -256108397, -537343321, 358525749, 458154742, -189951079, -411854232,
    670219740, 1424335675, -347507144, -487373553, 294839601, 108898770, 144985213, -513100030, -385925935, 590503755, -220210555, -667865776, -18303189, 746598087, -232378652, -615137643,
    116188238, 263148776, 1229281630, 608636631, 54095541, -665136040, -682097494, 191893154, 681857995, -6259886, 145572303, -78593395, -412196298, 1427965745, -300371809, -960581681,
    1100837727, -547006833, 441503610, 639112850, 535739480, 362699290, 1151174972, -1095484292, -102566074, 245825949, 661349887, 714089104, -887771462, 550078849, 476272558, 411356159,
    -621004301, -437184702, -698588777, 53678295, 643859443, 338610943, 309811189, 562314177, 101653644, -91566195, -151079541, -149181192, -81615572, -959059977, -1007517730, -263912977,
    -718855443, -933434015, -323251416, -170304883, 331849746, -258850791, -160260507, 158072529, 671139338, 6173482, 748420208, -57787864, -680498399, -845758930, 409455955, 590088810,
    -135842945, -572550853, -350773614, 127153001, 615789530, -309349428, -129939591, 98068081, 597106207, 86108461, 766410648, 1284994850, -963869224, 590120692, -206311003, 98829743,
    -289149806, -193413689, 209006869, -81944939, 525856648, 687480966, 82870484, 870146012, -208037026, -437353498, 498455350, -176292819, -384780591, -262872778, -198232195, 106993188,
    -843619344, -97724117, 100221196, 363249493, -284328725, 475988524, 37378651, -559803185, -710649688, 171495178, 1007623637, 193087926, 26886599, -149294672, 465572366, 452303021,
    -342306473, -823691763, -134249978, 142432824, -21645777, -818409413, 103080609, 1265509046, -129953361, -944100442, 450896965, -734785484, 425692671, -532937539, -795740926, 213412111,
    413879896, 518113241, 582372879, -116320880, -650633522, -233225261, -187793472, -90366199, 269334125, -796380996, -124427395, 481975738, -377945706, 638724357, 217539023, -22898067,
    665637174, 98076569, 30301543, -571369339, -278016075, 864358746, -282929195, 90404402, 299468429, -1000951054, -858614233, 646961175, 469625853, 80873641, -287325544, -289697314,
    736926470, 799104143, 529561672, 30373003, -349327661, -294731980, -357489696, 67086412, -215899223, -108240752, -373872892, 282843703, -1568053319, 465377972, 727518356, -356907378,
    1128449998, 86821635, -50499978, -1130226727, 40111376, -249902617, 332978999, -552371361, -33096947, -692441462, -350534416, 1206698457, 391253939, 362682000, 616180878, 576011736,
    589780605, -562621131, 116382741, -450241915, 848554061, -1012205637, -580317499, -19898849, -19188230, 382860458, -252052270, -1442249870, 772574077, -525170415, 1172076275, -331136549,
    -832128214, 310369613, -249993197, -263498186, -1007871445, 605797645, -1346163776, 4655711, -175247015, 581874308, 474326325, 623580101, -397380957, 363131521, 806019433, -360824529,
    -963462712, 678930840, 214982646, 447836019, -246917623, 389198841, 194564312, 157053653, -236722950, -527973202, -315860202, 769987770, 240735703, -82541207, 81632506, 594553362,
    -178537678, -908834722, 298109447, 682350475, 476402253, -185478275, 941979872, -150540344, -52379546, -20973207, 54837620, 464021313, 186683744, 207533882, -201406622, 800748003,
    553899056, 688130716, 323869297, 457360580, -336576457, 117751089, 340195165, -410694559, 438742653, 567953994, -174225642, -537006923, -242137364, 384477814, 628120066, 674152149,
    664132033, -207275267, 173199934, 205968799, -300031044, 261594467, 111154272, -794917230, -183960481, 1687271534, 135106036, 1166458257, -5774740, -101036429, 629714947, 151758780,
    -132316192, 198548484, 282117339, 101393656, -135161569, -476049430, -10337151, -344868816, 655350329, -49227061, -256175719, -362841016, -339788999, 95975987, -211123531, 610057064,
    135032571, -791983111, -543109108, 275270176, 80567126, 1004534409, 47679434, -288956445, 336541603, 345767334, 64678569, -347442685, 405128405, 835272754, -6816834, -944305338,
    -66430601, -766628424, -560696925, -104188260, 208845911, 370189757, -49213490, -244340541, -291108533, -401667449, 87511961, -682140168, 355371331, -738598918, -41251225, 110017549,
    -171052123, -705684001, 140006353, -476460400, -4218936, -728344883, -161199372, -55682011, -228373586, 387129404, 494984867, -562872628, -334308724, -356022363, 337161978, 370868651,
    67086259, 13049796, -366676046, 54195556, -40485959, -102786274, -526394967, 210158418, -548512566, 273014971, 137136257, 178564800, 227301539, -582500848, 294347168, 196933570,
    -1033058472, -531151609, -324402301, 910801599, 228963337, 260112307, -619047728, 641263902, -113351203, -466632085, 398888907, -437143350, 356653823, 323417712, -1323749926, 368311067,
    -95535339, -194235616, 51147672, 789076693, 590962338, -606044012, 140481458, -41367783, -835600479, 47181677, 42467753, -650500131, 433766321, -734329530, 490574984, -209458245,
    -528953697, -277835310, 542936213, 847109385, -663694038, -261327310, 394423624, -63989527, -570106512, 111421260, 174236617, -158073465, 422847297, -29991151, -125968541, -259693489,
    -863548849, 224638226, -828418331, -717637938, -94089648, -370675124, 562351353, -141993791, 418816971, 1072906946, -452143921, 183435302, -39551836, -1266390020, 991322157, 614759393,
    -1231860060, -481247643, -75079179, -279885794, 32469718, 353684561, -385288676, 179191094, -1383399856, 709628012, 41790551, -275441326, 291866680, -168304830, 212006638, 577911879,
    -245236007, -181424589, -829114253, -784438841, 104880313, 104030760, 51007534, 330383004, 183399548, -349302493, -577090552, 519567134, -422936584, -398483185, 212589482, 1122067833,
    -1100849514, -948612450, 134064726, -468279709, -34424883, -830491827, 796595880, -14228279, -391413481, -46666250, 105287401, 1236186556, 36033127, -393527344, 899160745, -66564408,
    1492888106, 873974727, -845318578, -204068476, 303689148, 359571471, -667508521, 379481389, 340287260, 1433435170, -430965779, 294496674, 314215523, -598254985, -197971666, 562783001,
    97835033, 232718829, -509049995, 31102552, 776738257, 974680872, -277776932, -293057632, -327647506, 242158344, 318723642, -122360092, -427393038, 1018813135, 106175050, -26835754,
    149074278, 258767145, -555408707, -85137944, 41238770, -1280312131, 278750216, 645925811, 512173947, -300680683, -433557267, 74179128, -948891474, -381784922, -600291553, 244712732,
    179369620, -298860581, 276814729, -177186823, 159380246, 1019233661, -51061723, 269652310, -239127416, -213940298, -233358380, 90854447, 606352173, -280641721, 573066168, -901077671,
    153217124, -353705842, -281062626, -511219719, 149871025, -186814085, 889455404, -409484500, -71118289, -231876892, -917122917, 130390377, 65718812, 566273860, -51236309, -237757700,
    -62890383, 696266139, -589446212, -195611510, -257083708, 663834121, 50216124, -787669152, 80159085, -33400449, -122445989, 1096702986, 760584464, 678491060, 324335518, -133973055,
    -722645636, -1262358343, -600428381, -246673789, -39661856, -535781081, 236535947, -719764771, -806562302, -189573777, -72207448, -378150272, -500038892, -203997764, 10341541, 665025145,
    -414373900, -582299392, -238377722, 467069387, -177684202, -527833705, 837587624, -177839288, 407217170, -534737788, 1092978214, -244143945, 557712015, -386195379, -38244485, -471106803,
    -312947942, 237795740, -997797511, -87091142, -830294690, 560725067, -570547120, 75405526, -852209982, -300797190, 298722018, 952998562, -799491651, 308917271, -1744053313, 126723916,
    -158222349, -234733929, 32306165, 764733330, 71504777, 149617640, 947279671, -116318835, 370926802, -1240026870, -128081647, -404587012, 300638117, -527869720, -571678281, 54227318,
    749279664, 504698978, 861900064, -71787004, -89941077, 374134369, -1160094495, -156214793, 465051352, -85030941, -436355007, 832660636, 47594834, 105009318, 123366707, -132811263,
    414984411, 257309425, 174671744, -312130911, 277366951, -285328166, -46189082, 371595676, -437958857, -573584193, -1383199124, -731236071, -644343712, 762246320, 38712119, -68203672,
    148661704, -67353737, -86075542, -459168834, 74151821, -125639671, 728432180, 134666261, -182268118, 718447899, 37547032, -345331859, -485515714, 317754565, -49579665, 291050541,
    -97748440, 82598870, -713359840, -281225809, 614757687, -11744861, 14418294, 36745004, -332305673, 35853466, 425905355, 76442313, 521340142, 67467855, 292159560, 375281073
};

#endif  // __ARRAY_MODE3_16B_16B_32_32_32_RANDOM_H__
