#ifndef __ARRAY_MODE4_4B_32B_32_32_32_RANDOM_H__
#define __ARRAY_MODE4_4B_32B_32_32_32_RANDOM_H__

#include <stdint.h>

// Pattern type      : random
// Input  bitwidth   : 4
// Weights bitwidth  : 32

#define M_d 32
#define K_d 32
#define N_d 32

#define I_TYPE int8_t
#define W_TYPE int32_t
#define C_TYPE int32_t

const int8_t zp_input   = 0;
const int32_t zp_weights = 0;

int8_t input[512] /* packed int4 */ = {
    24, -6, 89, -54, 41, -60, 32, 102, 105, 99, 57, -122, -38, -85, 15, 37,
    113, 80, 1, 94, 55, 114, -87, 99, 75, 17, 83, -9, 101, -91, 78, -21,
    105, -49, -32, -118, 10, -60, -127, -9, 35, -56, -124, 46, -109, -35, 54, -47,
    42, 107, 90, -82, -13, -57, 61, -1, 63, 119, 55, -96, 93, -17, 77, 5,
    79, -101, 50, -9, -44, -22, 59, 114, 86, 25, 8, -93, 12, 18, -62, 33,
    -98, 80, 97, -72, 125, -82, 117, -22, 3, -100, -112, 61, -12, 107, 106, -4,
    124, 32, 77, -35, -35, 123, -78, 97, -96, 6, 96, 92, -44, -115, -17, -26,
    87, -31, 80, -101, -90, 71, -101, -44, 21, -118, -91, -92, 74, 90, 113, 50,
    -36, -16, 32, 47, -70, 36, -104, 13, -21, 78, -111, -117, 89, 73, 94, 125,
    49, 1, 21, -113, -66, 74, 96, 8, 82, -106, -74, -32, -19, -104, 1, -56,
    -10, 26, 95, 101, 18, 112, 89, -43, 33, -40, 106, 18, 80, 56, 7, -82,
    124, -24, 37, -114, 47, 49, -117, 89, 68, 25, 16, -89, 77, -8, 117, -95,
    -98, 35, 33, 42, -111, -45, 73, -72, 93, -102, -40, 70, 60, -76, 73, -103,
    56, 82, 8, -121, 58, 13, -15, -23, 109, -9, -101, 87, -71, 73, -70, -82,
    89, 8, 19, -115, 113, -100, 114, -2, -19, -29, -77, -10, -118, 14, 20, -7,
    82, -89, 7, -75, -110, -87, -121, 53, 82, 87, -45, 88, -64, 46, -36, -5,
    -12, -60, -37, 104, -45, -34, 121, 63, 67, -30, -119, -110, -79, -109, 1, 116,
    37, 121, -25, -31, 55, 94, -117, 37, 125, -52, 105, -90, 33, 78, 86, 14,
    -70, -6, -98, -65, -41, 88, -83, 34, 80, -29, 101, -52, 106, -7, 78, 122,
    5, -88, -24, -106, -114, -121, 75, 30, -2, 24, -47, -89, -25, 19, -108, -62,
    97, 102, 45, 92, 24, 18, 28, 13, -28, -94, -8, -108, 35, 84, -36, 48,
    42, 98, -6, -13, -26, 13, 104, -102, 61, 28, 99, -8, 75, -76, -97, -8,
    -58, 55, -110, 31, -75, -65, -29, -21, 93, 91, 61, 21, -120, 17, 89, 58,
    80, -103, -28, 124, 8, 113, 12, 4, -57, -110, -50, -12, 101, -79, 40, 60,
    -49, 120, 41, 103, -63, 73, 92, -122, -44, 86, -60, -117, 18, 2, 95, 123,
    111, 90, -65, 4, 75, 90, -69, -116, 79, -29, -73, 40, -55, -48, -127, -109,
    17, -6, -80, -102, 79, -9, 9, -23, 84, 38, -22, 38, 37, 42, -20, 87,
    111, -8, -80, 81, -123, -121, 112, -24, -31, -43, -67, 118, -1, -119, -123, -93,
    -89, 13, 101, 35, 70, -121, -121, -68, 125, -127, 59, 60, 113, -20, 42, -6,
    -36, 49, -59, -124, -12, -10, 50, -114, -97, 2, -53, -60, 64, 15, -49, -105,
    50, -95, 48, 58, 92, 111, 104, -9, 2, -89, -76, 37, -45, 117, -42, 34,
    62, -123, 72, -118, 45, 21, -67, -22, 1, -69, -32, 37, -41, -113, 27, 107
};

int8_t input_unpacked[M_d * K_d] = {
    -8, 1, -6, -1, -7, 5, -6, -4, -7, 2, 4, -4, 0, 2, 6, 6, -7, 6, 3, 6, -7, 3, 6, -8, -6, -3, -5, -6, -1, 0, 5, 2,
    1, 7, 0, 5, 1, 0, -2, 5, 7, 3, 2, 7, -7, -6, 3, 6, -5, 4, 1, 1, 3, 5, 7, -1, 5, 6, 5, -6, -2, 4, -5, -2,
    -7, 6, -1, -4, 0, -2, -6, -8, -6, 0, 4, -4, 1, -8, 7, -1, 3, 2, -8, -4, 4, -8, -2, 2, 3, -7, -3, -3, 6, 3, 1, -3,
    -6, 2, -5, 6, -6, 5, -2, -6, 3, -1, 7, -4, -3, 3, -1, -1, -1, 3, 7, 7, 7, 3, 0, -6, -3, 5, -1, -2, -3, 4, 5, 0,
    -1, 4, -5, -7, 2, 3, 7, -1, 4, -3, -6, -2, -5, 3, 2, 7, 6, 5, -7, 1, -8, 0, 3, -6, -4, 0, 2, 1, 2, -4, 1, 2,
    -2, -7, 0, 5, 1, 6, -8, -5, -3, 7, -2, -6, 5, 7, -6, -2, 3, 0, -4, -7, 0, -7, -3, 3, 4, -1, -5, 6, -6, 6, -4, -1,
    -4, 7, 0, 2, -3, 4, -3, -3, -3, -3, -5, 7, 2, -5, 1, 6, 0, -6, 6, 0, 0, 6, -4, 5, 4, -3, -3, -8, -1, -2, 6, -2,
    7, 5, 1, -2, 0, 5, -5, -7, 6, -6, 7, 4, -5, -7, 4, -3, 5, 1, -6, -8, 5, -6, 4, -6, -6, 4, -6, 5, 1, 7, 2, 3,
    -4, -3, 0, -1, 0, 2, -1, 2, -6, -5, 4, 2, -8, -7, -3, 0, -5, -2, -2, 4, 1, -7, -5, -8, -7, 5, -7, 4, -2, 5, -3, 7,
    1, 3, 1, 0, 5, 1, -1, -8, -2, -5, -6, 4, 0, 6, -8, 0, 2, 5, 6, -7, 6, -5, 0, -2, -3, -2, -8, -7, 1, 0, -8, -4,
    6, -1, -6, 1, -1, 5, 5, 6, 2, 1, 0, 7, -7, 5, 5, -3, 1, 2, -8, -3, -6, 6, 2, 1, 0, 5, -8, 3, 7, 0, -2, -6,
    -4, 7, -8, -2, 5, 2, -2, -8, -1, 2, 1, 3, -5, -8, -7, 5, 4, 4, -7, 1, 0, 1, 7, -6, -3, 4, -8, -1, 5, 7, 1, -6,
    -2, -7, 3, 2, 1, 2, -6, 2, 1, -7, 3, -3, -7, 4, -8, -5, -3, 5, -6, -7, -8, -3, 6, 4, -4, 3, 4, -5, -7, 4, -7, -7,
    -8, 3, 2, 5, -8, 0, 7, -8, -6, 3, -3, 0, 1, -1, -7, -2, -3, 6, 7, -1, -5, -7, 7, 5, -7, -5, -7, 4, -6, -5, -2, -6,
    -7, 5, -8, 0, 3, 1, -3, -8, 1, 7, -4, -7, 2, 7, -2, -1, -3, -2, 3, -2, 3, -5, 6, -1, -6, -8, -2, 0, 4, 1, -7, -1,
    2, 5, 7, -6, 7, 0, 5, -5, 2, -7, -7, -6, 7, -8, 5, 3, 2, 5, 7, 5, 3, -3, -8, 5, 0, -4, -2, 2, -4, -3, -5, -1,
    4, -1, 4, -4, -5, -3, -8, 6, 3, -3, -2, -3, -7, 7, -1, 3, 3, 4, 2, -2, -7, -8, 2, -7, 1, -5, 3, -7, 1, 0, 4, 7,
    5, 2, -7, 7, 7, -2, 1, -2, 7, 3, -2, 5, -5, -8, 5, 2, -3, 7, -4, -4, -7, 6, 6, -6, 1, 2, -2, 4, 6, 5, -2, 0,
    -6, -5, -6, -1, -2, -7, -1, -5, 7, -3, -8, 5, -3, -6, 2, 2, 0, 5, 3, -2, 5, 6, -4, -4, -6, 6, -7, -1, -2, 4, -6, 7,
    5, 0, -8, -6, -8, -2, 6, -7, -2, -8, 7, -8, -5, 4, -2, 1, -2, -1, -8, 1, 1, -3, 7, -6, 7, -2, 3, 1, 4, -7, 2, -4,
    1, 6, 6, 6, -3, 2, -4, 5, -8, 1, 2, 1, -4, 1, -3, 0, 4, -2, 2, -6, -8, -1, 4, -7, 3, 2, 4, 5, -4, -3, 0, 3,
    -6, 2, 2, 6, -6, -1, 3, -1, 6, -2, -3, 0, -8, 6, -6, -7, -3, 3, -4, 1, 3, 6, -8, -1, -5, 4, 4, -5, -1, -7, -8, -1,
    6, -4, 7, 3, 2, -7, -1, 1, 5, -5, -1, -5, 3, -2, -5, -2, -3, 5, -5, 5, -3, 3, 5, 1, -8, -8, 1, 1, -7, 5, -6, 3,
    0, 5, -7, -7, 4, -2, -4, 7, -8, 0, 1, 7, -4, 0, 4, 0, 7, -4, 2, -7, -2, -4, 4, -1, 5, 6, 1, -5, -8, 2, -4, 3,
    -1, -4, -8, 7, -7, 2, 7, 6, 1, -4, -7, 4, -4, 5, 6, -8, 4, -3, 6, 5, 4, -4, -5, -8, 2, 1, 2, 0, -1, 5, -5, 7,
    -1, 6, -6, 5, -1, -5, 4, 0, -5, 4, -6, 5, -5, -5, -4, -8, -1, 4, 3, -2, 7, -5, -8, 2, -7, -4, 0, -3, 1, -8, 3, -7,
    1, 1, -6, -1, 0, -5, -6, -7, -1, 4, 7, -1, -7, 0, -7, -2, 4, 5, 6, 2, -6, -2, 6, 2, 5, 2, -6, 2, -4, -2, 7, 5,
    -1, 6, -8, -1, 0, -5, 1, 5, 5, -8, 7, -8, 0, 7, -8, -2, 1, -2, 5, -3, -3, -5, 6, 7, -1, -1, -7, -8, 5, -8, 3, -6,
    7, -6, -3, 0, 5, 6, 3, 2, 6, 4, 7, -8, 7, -8, -4, -5, -3, 7, 1, -8, -5, 3, -4, 3, 1, 7, -4, -2, -6, 2, -6, -1,
    -4, -3, 1, 3, 5, -4, 4, -8, 4, -1, 6, -1, 2, 3, -2, -8, -1, -7, 2, 0, -5, -4, 4, -4, 0, 4, -1, 0, -1, -4, 7, -7,
    2, 3, 1, -6, 0, 3, -6, 3, -4, 5, -1, 6, -8, 6, 7, -1, 2, 0, 7, -6, 4, -5, 5, 2, 3, -3, 5, 7, 6, -3, 2, 2,
    -2, 3, 5, -8, -8, 4, -6, -8, -3, 2, 5, 1, -3, -5, -6, -2, 1, 0, -5, -5, 0, -2, 5, 2, 7, -3, -1, -8, -5, 1, -5, 6
};

int32_t weights[1024] = {
    -15766, 14614, 10397, -3844, -11662, 2501, 10798, 14221, -12516, -14904, 15811, 15603, -5434, -1482, -8905, 11447,
    -729, -10885, -8869, 14281, -8637, 8993, 2774, 5011, 13220, -10714, 16347, -2023, -14061, 2807, -1210, -3213,
    -9578, 12873, -14718, 1664, -9841, -13466, -8587, 12299, 7216, -6184, 14456, -10762, -2616, 4681, -13955, 10091,
    -5977, -6872, -3192, -414, 468, 15334, -16111, -1902, 4952, -4160, -6079, 1652, 1134, 6785, 392, 4693,
    -11141, -15297, -10399, 14406, 11102, -1360, 11782, 6691, -3618, 3232, -13161, -11003, -13853, 16211, -16116, 9408,
    11186, 5659, 2519, -7547, -415, -10110, -12888, -13447, 14550, 1888, 6408, -9467, -14188, -2592, -1743, 8554,
    6785, 3492, -1210, -5980, -13423, -13342, 14892, -6286, -4070, -9919, -15578, 1483, -11498, -2543, -14178, -4627,
    16137, -3724, 3943, -3015, -4231, -2418, 4911, -5665, -9534, 8509, 14452, 955, 4343, -16014, 12741, -2928,
    -11051, -9012, 9254, 3127, 8465, 11120, -13974, 7974, -9629, -12354, 10970, 16, 2920, -1131, -16062, -1980,
    11816, -4291, -16166, 6117, 7752, -12397, 15109, -14750, -14003, 4701, -3851, -9813, -11298, -4633, 12226, 13830,
    -175, -11735, 6683, 11461, 8269, -3089, 5591, -10101, 15270, 15888, -6855, 3527, 6319, -9102, 15050, 8631,
    9280, -4243, -15057, 1057, -8077, -4701, 11975, -11027, -8246, 10746, 6440, 6771, 2167, -7845, 14660, 907,
    -13287, -15967, -9141, 11299, -5526, -9099, -15372, -6302, 2827, 12800, 13210, -9944, 3808, 5780, -13085, -14576,
    637, 2365, -11440, 8851, -15580, 2182, -4328, 16207, -7037, 2976, -14488, -2608, 5905, -6685, 13926, 4374,
    4490, 7217, 12443, -3016, -4746, 14762, 1673, 6154, -838, 3592, -12576, -6892, 9473, 15845, -3097, -8437,
    -4167, -211, 2402, -1324, -12027, -978, 2179, -4564, 13565, 6974, -15904, 10320, 10329, -11942, 10868, -15047,
    9574, -1818, 13095, 16369, -11014, 5471, -6169, 3594, -5406, -1739, 9618, 9739, -2377, -14239, 5726, 3849,
    2836, 10305, 14702, -4485, 4137, -1624, 10424, -6466, -7856, -1436, 7373, 5176, -9702, -16372, 3719, -15011,
    -9014, 724, 10763, -9862, -3833, -9078, 11539, -2024, -7699, 1772, -13864, 7943, 9365, -9829, -11568, 12046,
    -4941, 11390, 1388, 2582, 16263, -12094, -391, -2181, -14723, -14237, 4555, 15294, 9910, -11366, 57, 12396,
    -13906, 828, 6922, -6024, 13288, -13758, -14260, 2127, -7257, -3495, -10481, -12501, -9451, -13727, -5290, -990,
    -11088, -11930, -10591, -7631, 2125, 15752, 7859, 6778, -2659, 7317, 13293, 15612, -14804, -10334, -3641, 13071,
    6114, -13698, 3498, 5828, 2156, -7334, 4510, 11168, 13729, 13258, 2781, 827, -16002, -3575, -15117, -4690,
    15832, 14436, 14922, 11768, -9892, 12213, 4847, 5756, 9171, -15773, 10626, -2146, 8834, 13813, -5526, -13405,
    15592, -4492, 13224, 13359, -6133, -7168, 4742, 9165, -14900, -6851, -7061, -2570, -8323, -10508, 15933, 12497,
    -1345, 14207, -4864, 4645, 9419, 12722, 8605, -4274, -11457, 16280, -12448, 10996, -5275, 7370, -11803, -14143,
    -10737, 13142, -9610, 10932, -6596, -5137, 5495, -671, 1334, -13884, -5420, -6586, 1148, -3410, -13523, -3980,
    -4800, 8887, 1056, 12932, -7334, -2599, 13604, -11034, -4791, 13301, 7773, -11679, -12817, 3547, 12247, 579,
    530, -3280, 4760, -11626, 8444, 3659, -12211, 13915, 10687, -8470, 206, 14652, -5655, 759, -6760, 6915,
    1135, 561, 414, -11013, 13386, -13707, -6624, -15265, -8132, -14872, 1491, -1692, -6566, -4976, 686, 7088,
    -3983, -3219, -7866, -391, 1148, -11957, -6464, 7181, -12731, -6367, -5194, 8637, -437, 6025, 9629, 4691,
    -10474, -15927, 1010, 10370, -12129, 3890, 5723, 3491, -1866, 11001, 6447, -9496, -6255, 3065, 7507, 15529,
    3444, 10806, -7231, 13758, 12389, 773, -1468, -13895, 478, 5327, 15738, 10753, -1346, -6997, 3754, -1296,
    -5952, -7096, -361, -10485, -7227, 11559, 14468, 5849, -14593, 1220, -3294, 10765, -2758, -8325, 10950, 5706,
    -10588, 14736, -8564, 10083, -4860, 6600, -2989, 11724, 243, -5339, -472, -4608, 5584, -16068, -3294, 6357,
    -8924, 11868, -14840, -2617, -14500, 12588, -15618, 10643, -14939, 8754, 10398, -4473, 8644, 9436, -9050, 3728,
    11457, 14846, -11606, -11688, -77, 9689, -12875, -2000, 14440, -8076, 4095, -15359, 5067, 14054, 11046, -15007,
    28, 11894, 12906, -3883, -6689, 12951, -1448, -6106, 11530, 5396, 5765, -4424, 12494, -5405, 2016, 4807,
    -210, 9028, 7059, -11755, 2267, -13618, 12808, -8600, 7447, -11592, -12592, -8422, -8032, 13873, 15861, 13317,
    -12052, 3864, 6215, 13317, -13484, -6795, 12407, -13299, -1405, -4400, 7952, 12438, -14129, -15460, -3302, 12287,
    5481, -1386, 6572, 8010, 11000, 889, -7475, -13426, 13486, 7660, 7155, -12203, -3792, 14582, -11901, 382,
    -13088, 4762, 15674, -15909, -5124, -11888, 14036, 10400, 13192, -14479, 15117, -15009, 9519, -13547, 1333, -10672,
    -15538, 8211, -13073, 5411, 15980, 9528, -546, 8579, 12668, -14262, -13468, -8283, 11541, 14047, -7129, 1161,
    -2170, 6684, 4892, 15631, 2926, 13988, -13949, 13986, -1394, -2938, 11902, 1170, -5677, -14183, -8899, -14821,
    -3051, 1130, -15757, -8847, -6984, -4839, 2182, -8212, 8308, -1087, 10134, 14002, 4371, -8838, -15698, -13712,
    -15275, 14852, 3070, 4493, -14381, -4250, 6256, 95, -2215, -13210, -440, -6191, 6290, -15119, 1995, -11467,
    552, -842, 8475, -13681, 2493, -5786, -8001, 3020, 4081, 11867, 6665, -8896, -14113, -4495, -2255, -7299,
    7030, -7002, 9368, 15078, 7008, -2193, 10191, 10139, 1264, -11477, -12222, -1266, -14277, -1063, -14881, 4008,
    -2953, 5660, 614, -3528, 6119, -9887, -3763, 14573, 2409, -4246, 14005, -12290, -8596, 1366, 9692, -9605,
    -12727, 9855, -3382, 6249, 6010, 3274, 5511, -15878, -10731, -2538, 5762, 1709, -9001, 8645, 315, -5214,
    -12457, 14274, 8085, -1755, 280, -13561, -14617, -2098, -15928, 11178, -13946, -10221, -6551, -5817, 1272, 15647,
    5158, -13978, -10335, -5280, 15775, -1987, 12452, -613, 9723, 1586, 4988, 6063, -7170, -3573, -7824, -15254,
    -10721, -5286, -6705, -15688, 2722, 29, 1731, 12095, 2449, -13625, 6438, -3056, -6891, 13535, 2218, 10823,
    -2093, 7808, 15388, 6901, 3929, -16132, -3963, -2106, 16371, 12762, 7392, 7281, -10189, -4852, 13250, 1985,
    -11892, 3905, 5079, 11916, -678, 1594, 9397, 11611, -7374, 7760, -15333, 16276, -2204, -5204, -1646, 514,
    -14396, 4293, -5549, -15897, 4443, 1283, -3657, -981, 2653, -7252, 15689, 3788, -6248, 7251, 10857, 5577,
    -3566, 13315, -1184, -1146, -15275, 6949, -12484, -10503, -14108, 5009, -14565, -12059, -7620, 9698, -2573, 10222,
    -10771, -11821, 620, 13924, 8350, -356, -4321, 13540, 8626, 11961, -9492, -4804, -7411, 7503, -27, 12501,
    -15381, 16349, -1717, -8082, 10793, 9469, 10451, -3702, 15779, -14155, -8923, -7183, -11029, -11167, 16174, 7279,
    6100, 1484, -1128, -11404, -234, 3429, 8317, -11114, -10803, 2361, -9727, -5115, -8225, 8472, -1980, -211,
    -11161, 10613, 12605, -4855, -3153, -3115, -16330, -7437, 6809, 6346, 10411, 14016, -12459, -14073, -2211, 2749,
    -2529, 1113, -15835, 11211, 12141, -761, -1746, 4286, 1733, -6618, 4169, 3827, 13871, 10507, -15910, -12494,
    5900, 5625, 227, -12541, 2941, 9201, -526, 715, 8201, 3534, -9242, -3318, 14888, -606, 9699, -10572,
    -9242, 10477, -11115, -8304, -6201, 3355, 9645, 6070, 2851, -6692, -7116, -12434, 6512, -11176, 2041, -11714
};

int32_t weights_unpacked[N_d * K_d] = {
    -15766, 14614, 10397, -3844, -11662, 2501, 10798, 14221, -12516, -14904, 15811, 15603, -5434, -1482, -8905, 11447, -729, -10885, -8869, 14281, -8637, 8993, 2774, 5011, 13220, -10714, 16347, -2023, -14061, 2807, -1210, -3213,
    -9578, 12873, -14718, 1664, -9841, -13466, -8587, 12299, 7216, -6184, 14456, -10762, -2616, 4681, -13955, 10091, -5977, -6872, -3192, -414, 468, 15334, -16111, -1902, 4952, -4160, -6079, 1652, 1134, 6785, 392, 4693,
    -11141, -15297, -10399, 14406, 11102, -1360, 11782, 6691, -3618, 3232, -13161, -11003, -13853, 16211, -16116, 9408, 11186, 5659, 2519, -7547, -415, -10110, -12888, -13447, 14550, 1888, 6408, -9467, -14188, -2592, -1743, 8554,
    6785, 3492, -1210, -5980, -13423, -13342, 14892, -6286, -4070, -9919, -15578, 1483, -11498, -2543, -14178, -4627, 16137, -3724, 3943, -3015, -4231, -2418, 4911, -5665, -9534, 8509, 14452, 955, 4343, -16014, 12741, -2928,
    -11051, -9012, 9254, 3127, 8465, 11120, -13974, 7974, -9629, -12354, 10970, 16, 2920, -1131, -16062, -1980, 11816, -4291, -16166, 6117, 7752, -12397, 15109, -14750, -14003, 4701, -3851, -9813, -11298, -4633, 12226, 13830,
    -175, -11735, 6683, 11461, 8269, -3089, 5591, -10101, 15270, 15888, -6855, 3527, 6319, -9102, 15050, 8631, 9280, -4243, -15057, 1057, -8077, -4701, 11975, -11027, -8246, 10746, 6440, 6771, 2167, -7845, 14660, 907,
    -13287, -15967, -9141, 11299, -5526, -9099, -15372, -6302, 2827, 12800, 13210, -9944, 3808, 5780, -13085, -14576, 637, 2365, -11440, 8851, -15580, 2182, -4328, 16207, -7037, 2976, -14488, -2608, 5905, -6685, 13926, 4374,
    4490, 7217, 12443, -3016, -4746, 14762, 1673, 6154, -838, 3592, -12576, -6892, 9473, 15845, -3097, -8437, -4167, -211, 2402, -1324, -12027, -978, 2179, -4564, 13565, 6974, -15904, 10320, 10329, -11942, 10868, -15047,
    9574, -1818, 13095, 16369, -11014, 5471, -6169, 3594, -5406, -1739, 9618, 9739, -2377, -14239, 5726, 3849, 2836, 10305, 14702, -4485, 4137, -1624, 10424, -6466, -7856, -1436, 7373, 5176, -9702, -16372, 3719, -15011,
    -9014, 724, 10763, -9862, -3833, -9078, 11539, -2024, -7699, 1772, -13864, 7943, 9365, -9829, -11568, 12046, -4941, 11390, 1388, 2582, 16263, -12094, -391, -2181, -14723, -14237, 4555, 15294, 9910, -11366, 57, 12396,
    -13906, 828, 6922, -6024, 13288, -13758, -14260, 2127, -7257, -3495, -10481, -12501, -9451, -13727, -5290, -990, -11088, -11930, -10591, -7631, 2125, 15752, 7859, 6778, -2659, 7317, 13293, 15612, -14804, -10334, -3641, 13071,
    6114, -13698, 3498, 5828, 2156, -7334, 4510, 11168, 13729, 13258, 2781, 827, -16002, -3575, -15117, -4690, 15832, 14436, 14922, 11768, -9892, 12213, 4847, 5756, 9171, -15773, 10626, -2146, 8834, 13813, -5526, -13405,
    15592, -4492, 13224, 13359, -6133, -7168, 4742, 9165, -14900, -6851, -7061, -2570, -8323, -10508, 15933, 12497, -1345, 14207, -4864, 4645, 9419, 12722, 8605, -4274, -11457, 16280, -12448, 10996, -5275, 7370, -11803, -14143,
    -10737, 13142, -9610, 10932, -6596, -5137, 5495, -671, 1334, -13884, -5420, -6586, 1148, -3410, -13523, -3980, -4800, 8887, 1056, 12932, -7334, -2599, 13604, -11034, -4791, 13301, 7773, -11679, -12817, 3547, 12247, 579,
    530, -3280, 4760, -11626, 8444, 3659, -12211, 13915, 10687, -8470, 206, 14652, -5655, 759, -6760, 6915, 1135, 561, 414, -11013, 13386, -13707, -6624, -15265, -8132, -14872, 1491, -1692, -6566, -4976, 686, 7088,
    -3983, -3219, -7866, -391, 1148, -11957, -6464, 7181, -12731, -6367, -5194, 8637, -437, 6025, 9629, 4691, -10474, -15927, 1010, 10370, -12129, 3890, 5723, 3491, -1866, 11001, 6447, -9496, -6255, 3065, 7507, 15529,
    3444, 10806, -7231, 13758, 12389, 773, -1468, -13895, 478, 5327, 15738, 10753, -1346, -6997, 3754, -1296, -5952, -7096, -361, -10485, -7227, 11559, 14468, 5849, -14593, 1220, -3294, 10765, -2758, -8325, 10950, 5706,
    -10588, 14736, -8564, 10083, -4860, 6600, -2989, 11724, 243, -5339, -472, -4608, 5584, -16068, -3294, 6357, -8924, 11868, -14840, -2617, -14500, 12588, -15618, 10643, -14939, 8754, 10398, -4473, 8644, 9436, -9050, 3728,
    11457, 14846, -11606, -11688, -77, 9689, -12875, -2000, 14440, -8076, 4095, -15359, 5067, 14054, 11046, -15007, 28, 11894, 12906, -3883, -6689, 12951, -1448, -6106, 11530, 5396, 5765, -4424, 12494, -5405, 2016, 4807,
    -210, 9028, 7059, -11755, 2267, -13618, 12808, -8600, 7447, -11592, -12592, -8422, -8032, 13873, 15861, 13317, -12052, 3864, 6215, 13317, -13484, -6795, 12407, -13299, -1405, -4400, 7952, 12438, -14129, -15460, -3302, 12287,
    5481, -1386, 6572, 8010, 11000, 889, -7475, -13426, 13486, 7660, 7155, -12203, -3792, 14582, -11901, 382, -13088, 4762, 15674, -15909, -5124, -11888, 14036, 10400, 13192, -14479, 15117, -15009, 9519, -13547, 1333, -10672,
    -15538, 8211, -13073, 5411, 15980, 9528, -546, 8579, 12668, -14262, -13468, -8283, 11541, 14047, -7129, 1161, -2170, 6684, 4892, 15631, 2926, 13988, -13949, 13986, -1394, -2938, 11902, 1170, -5677, -14183, -8899, -14821,
    -3051, 1130, -15757, -8847, -6984, -4839, 2182, -8212, 8308, -1087, 10134, 14002, 4371, -8838, -15698, -13712, -15275, 14852, 3070, 4493, -14381, -4250, 6256, 95, -2215, -13210, -440, -6191, 6290, -15119, 1995, -11467,
    552, -842, 8475, -13681, 2493, -5786, -8001, 3020, 4081, 11867, 6665, -8896, -14113, -4495, -2255, -7299, 7030, -7002, 9368, 15078, 7008, -2193, 10191, 10139, 1264, -11477, -12222, -1266, -14277, -1063, -14881, 4008,
    -2953, 5660, 614, -3528, 6119, -9887, -3763, 14573, 2409, -4246, 14005, -12290, -8596, 1366, 9692, -9605, -12727, 9855, -3382, 6249, 6010, 3274, 5511, -15878, -10731, -2538, 5762, 1709, -9001, 8645, 315, -5214,
    -12457, 14274, 8085, -1755, 280, -13561, -14617, -2098, -15928, 11178, -13946, -10221, -6551, -5817, 1272, 15647, 5158, -13978, -10335, -5280, 15775, -1987, 12452, -613, 9723, 1586, 4988, 6063, -7170, -3573, -7824, -15254,
    -10721, -5286, -6705, -15688, 2722, 29, 1731, 12095, 2449, -13625, 6438, -3056, -6891, 13535, 2218, 10823, -2093, 7808, 15388, 6901, 3929, -16132, -3963, -2106, 16371, 12762, 7392, 7281, -10189, -4852, 13250, 1985,
    -11892, 3905, 5079, 11916, -678, 1594, 9397, 11611, -7374, 7760, -15333, 16276, -2204, -5204, -1646, 514, -14396, 4293, -5549, -15897, 4443, 1283, -3657, -981, 2653, -7252, 15689, 3788, -6248, 7251, 10857, 5577,
    -3566, 13315, -1184, -1146, -15275, 6949, -12484, -10503, -14108, 5009, -14565, -12059, -7620, 9698, -2573, 10222, -10771, -11821, 620, 13924, 8350, -356, -4321, 13540, 8626, 11961, -9492, -4804, -7411, 7503, -27, 12501,
    -15381, 16349, -1717, -8082, 10793, 9469, 10451, -3702, 15779, -14155, -8923, -7183, -11029, -11167, 16174, 7279, 6100, 1484, -1128, -11404, -234, 3429, 8317, -11114, -10803, 2361, -9727, -5115, -8225, 8472, -1980, -211,
    -11161, 10613, 12605, -4855, -3153, -3115, -16330, -7437, 6809, 6346, 10411, 14016, -12459, -14073, -2211, 2749, -2529, 1113, -15835, 11211, 12141, -761, -1746, 4286, 1733, -6618, 4169, 3827, 13871, 10507, -15910, -12494,
    5900, 5625, 227, -12541, 2941, 9201, -526, 715, 8201, 3534, -9242, -3318, 14888, -606, 9699, -10572, -9242, 10477, -11115, -8304, -6201, 3355, 9645, 6070, 2851, -6692, -7116, -12434, 6512, -11176, 2041, -11714
};

int32_t bias[N_d] = {
    0, 0, 0, 0, 0, 0, 0, 0, 0, 0, 0, 0, 0, 0, 0, 0,
    0, 0, 0, 0, 0, 0, 0, 0, 0, 0, 0, 0, 0, 0, 0, 0
};

int32_t golden[M_d * N_d] = {
    73271, 167480, -169690, -289235, 290116, -30510, 370878, 12044, 138007, -88919, -211036, -331835, 42376, 468068, -196331, 361271,
    187489, 194854, 235649, 354890, -80745, -163528, 333353, -66595, 320718, -103965, 87115, -160450, 389753, 234436, -151611, 115421,
    349068, 91135, -120716, -266953, -229771, 68151, -517595, -351701, 328920, -336389, 77772, 369628, 427496, 260715, 20324, 109044,
    156110, 329794, 49654, -17422, 130032, -7707, -18378, 57456, 280949, 242985, -8128, 277695, 9405, 317841, 512571, -21540,
    -79942, 16008, -382889, -275488, 59756, -68875, 127776, -215365, -163994, 144105, -38650, -400539, -212017, -229163, -18292, -279425,
    -37636, 117543, -47138, -356187, 23831, -386609, 95143, 50011, 32253, 530593, -227122, -88406, 97748, 249377, 645998, 260064,
    -56493, 313337, 92099, -95684, 247794, -135403, 248457, -150356, 167959, -282052, -312486, -35487, 694, 568177, -166602, -50171,
    98441, -4279, 281860, -87390, -69524, 148934, 22441, -11960, 310208, -224255, 270866, -208806, 363099, 171665, 3417, -380458,
    44030, -91787, 281414, 469625, 34909, 387657, -263206, 93049, -266085, 166494, -40660, -67328, -35465, 250645, 91246, -19675,
    -35812, 176404, 221008, 739451, -204142, 183153, 67987, -253511, 11052, -82958, 179696, -98846, -195470, 651140, -210940, 192594,
    -487095, -67168, 505400, -509440, 206731, -56768, 492824, 253442, -232509, -213041, -3692, -110326, -216777, -331405, -40315, -340510,
    -162501, -187085, -206556, -510279, 258143, -34796, -347521, 88154, -315490, 250773, -124507, -13994, 332738, -350947, -91907, -66279,
    436143, 148107, -200684, 3297, -174393, -226848, -157049, 54329, 127897, -66416, -78346, -225914, -200884, 59092, -54976, 239487,
    125396, 152460, -60015, -264500, -49241, 230714, 22478, -146010, -491914, 190476, -113170, 215710, 448761, 143833, 44313, 71121,
    -433760, -193566, -601490, -14367, 442451, 272903, -278426, -225353, 222729, -129160, -154982, -453320, 257039, -96585, 406694, -377850,
    461049, -88681, 134997, -222981, -343317, -858895, -125377, -41814, 181421, -138642, -228377, -235081, -246077, 635840, 392551, -29000,
    99735, 152519, 96808, -114055, 628556, -169076, 4868, -345049, -53126, 237273, 205073, -431884, 314291, 153847, 349335, 186798,
    -40474, 190746, -525798, -5501, -804838, -482626, -117330, 113566, 290800, -138759, 165796, 14828, 201515, 210154, 219606, -584582,
    -454705, -234591, 300316, 86152, 79815, -462689, -318582, 70230, -10962, 224142, -381511, -109750, -16684, -22576, 356883, -392834,
    -156900, -301781, -7912, -126650, 430342, 152438, 146489, 22006, -263813, 54309, -163843, -152217, 36344, 228303, 5851, 113649,
    -136101, -58503, -195177, -21455, -369406, 110602, 71798, 422472, -92523, -532936, -424674, 186196, 444617, -280780, -237450, -75654,
    197422, 171109, 195561, -269692, -327322, -95555, 89610, -278459, -50694, -372435, -235334, -72238, -287475, 109432, -16090, 336463,
    -110478, 97228, -166586, 43675, 295480, 192679, 84349, -148275, -163699, -27169, -98651, 29084, 184024, 350413, -87079, -242098,
    344392, 256605, -191616, -373818, -281440, -268798, 292644, -80849, 14655, 325856, -320564, -183563, 19281, 577990, 571210, 26391,
    159193, -77711, 285723, -42710, 458883, -255521, 315675, -119260, 117619, -531422, 292675, 299998, 112601, 308371, 99763, -31155,
    -90003, 288487, -106644, -179126, 528087, 119853, 215708, 74977, 303632, -50192, -18958, -33326, -217955, 47526, 92317, 90943,
    60856, -332226, -33376, 303675, -80267, -120238, 290186, 259549, 450620, 549724, -133931, -17464, 106142, 385353, -335460, -305288,
    242017, -105896, -560654, 268925, 295773, -1280, 616293, 168834, -226137, 126234, -205933, 135296, 111868, 4261, -124838, 55422,
    -541090, 32834, 77314, -210989, -127240, -122315, 159155, -9075, -371461, 215929, -25434, -146906, -482975, -6569, -30658, -210649,
    119026, -125161, 138412, 153610, 566446, 270075, 199841, 225064, 27769, 340829, -284732, -155989, 249225, 202424, 100946, 178150,
    -156119, -310670, -184651, -51112, -399231, -145822, -593777, 3129, 15584, 512353, 51311, -155153, 193374, -155510, 43462, -353542,
    -319374, -1181, 75240, 527513, -104296, 562306, -132911, 251762, -110321, 37637, 121379, -239136, 17108, 423798, -32994, 197470,
    -15763, 89934, 417327, 265525, 347363, -90289, -36806, 60132, 23477, -37779, -189468, 232711, -305976, 156048, 550834, 185739,
    -447185, -236956, 357224, 473643, 425919, -399858, -13151, 101038, 174682, -139877, 391878, -78548, -4196, -26891, -222916, -35591,
    -433671, -64265, -155534, -151000, -451559, 555298, -140795, -148972, 47396, -249767, -7274, 354287, 445317, 59010, -176837, -77950,
    558401, 374023, 173489, 55066, -44511, -275304, 199649, -345339, 142926, -181069, -442815, 172148, -500977, 446431, 182362, 176066,
    -536045, 177311, 150060, 40343, -166763, 76776, -30613, -583168, -212554, 240666, 219563, -110455, 360513, 131289, 168833, 106558,
    -48163, 240953, -115495, 84126, -677809, -23090, -36105, -6969, -9890, -140408, -91183, 24334, 73795, 554862, 83849, -249378,
    242046, 182549, 28008, 520036, 10993, -102782, -40615, 142220, -77494, -73141, -140730, -209653, -133993, 249824, -189095, -130615,
    -90881, -385922, 336577, 482069, 323460, -236540, 432965, -140376, 145542, 105854, 314341, -443646, -8427, -80887, -72331, 121410,
    421796, -5586, 241908, 252557, 328167, 15955, -194385, 264046, 485012, -137077, 280460, -37393, 114510, 158572, 67938, 112659,
    207268, -22812, -18312, 145877, 51277, -390554, -242867, -81055, 17896, 313972, 30545, 268756, -3735, -119035, -181855, -303219,
    116343, 276050, 381467, 313451, -92361, -241225, 208080, -78352, -52125, -27577, 163040, 95594, 9702, 300787, -16254, -157691,
    -204070, 419068, 63766, 39242, 42861, 612766, 167555, -81332, 129560, -124238, -184767, 137022, 94202, 15680, 212712, -91749,
    36836, 13762, -161543, -115740, 242473, 24371, 126273, -358210, 44342, 190098, 344636, 401986, 390955, 218545, 90611, -45040,
    -15076, 179293, -242103, 352239, 20950, 98959, 93120, 342971, 417492, -186296, -436936, -84674, -280544, -21394, 72518, 26729,
    292880, -40391, 267486, 40685, 214897, -263712, -450953, -272393, -62676, -415572, 204283, -251538, -87205, 10143, 258823, 474961,
    8145, -153825, 41087, -51682, -285209, -329191, -248896, 197090, 26386, 375986, 354469, 57035, 89264, 241730, -173878, -131847,
    -53544, -30698, 624192, 164228, -117256, -168955, -350821, -161362, -140365, -124755, -475974, 95333, 29505, 198518, 85225, 234787,
    -495646, -158724, 74975, 128404, -601928, 68844, -308554, -110957, 40169, -449417, 268808, 197480, 80129, 43844, -390800, -475340,
    -247911, -96698, 147384, 516410, -248284, -220296, 67045, -103145, 297152, 466497, -145047, 26602, -46419, 146070, 114674, -262267,
    73515, 94454, -315718, -342033, 41596, 220049, 504232, -103314, -37651, 88501, -236141, 402568, -138239, -150036, 67596, 36461,
    -163929, 150642, 140406, 173391, 159193, -76260, 661590, -27202, 38855, -254337, 34656, 283878, -344131, 284548, -188469, 72894,
    392022, -408631, 211504, 79157, 334060, -410774, 408597, 398958, -70738, -96092, 295175, -383035, 199329, -218691, -153717, -228211,
    -37351, 478147, 38849, 287746, 98389, -500868, 496321, 300290, -151904, -323152, -309913, 66786, -529571, 362736, -47100, -58910,
    69433, -91546, 456532, -52485, 771799, 417634, 585059, 139794, 44423, -192866, 301975, -595777, -121833, 36149, -374417, 302341,
    -554052, -6929, 73774, -460638, -180822, -64455, 258100, 31687, -1805, -517675, -71987, 205939, 76165, -91235, -209129, -427226,
    97965, 407508, 320155, -552772, 180194, 76078, 184684, 23571, 48182, -605544, -175717, -233836, -395334, 38503, -386954, 349417,
    -150678, -191332, 22663, 252706, 215495, 424095, 439996, 267240, 38334, -323242, -68857, -83745, -409049, 301919, -229104, 16265,
    371644, -507780, -7445, 129088, 454602, -62694, 356837, -90991, 54531, -154653, 97315, -250053, -369907, -13641, -242824, 22861,
    -121807, -340639, -173192, 88646, -225277, -106693, -421384, 189368, 245853, 176187, 11562, 30365, -182323, -546065, 326477, -2182,
    87831, -519720, 291836, 150629, 352209, -342219, -155812, 152695, -51404, 277288, 331574, 187564, 24139, -150318, 129389, -1437,
    402021, -11294, -171321, -92657, 346242, -360768, 51160, -202168, -46781, -55151, 183822, -150816, -404626, -34240, 106102, -127535,
    -73475, -91649, -31774, -227152, 240756, -641554, 216493, 452636, -210251, 308129, -221539, -71148, 410889, 11630, 465005, 135407
};

#endif  // __ARRAY_MODE4_4B_32B_32_32_32_RANDOM_H__
